13588 25
go 0.56838 0.35596758 0.021844778 0.19848685 0.85753095 0.37223464 0.1823757 0.5048905 0.22658402 0.16776545 0.23893997 0.43850216 0.035792228 0.90314364 0.85279393 0.14334124 0.052957732 0.12512931 0.83254266 0.12096302 0.7720801 0.9746179 0.9836819 0.25230116 0.7714064
. 0.7634222 0.98454446 0.75235295 0.8054427 0.5615432 0.28767312 0.8038265 0.7950601 0.5259991 0.46206245 0.40939242 0.67489994 0.040534675 0.103860006 0.44862124 0.7374815 0.2735688 0.47147682 0.7861112 0.45771298 0.62544847 0.15916507 0.38626507 0.96639466 0.05291199
 0.4839407 0.81413746 0.46863464 0.43130788 0.5631553 0.12357741 0.16285217 0.050185133 0.47948235 0.951695 0.0761625 0.17311504 0.41995734 0.18130872 0.103694506 0.2622431 0.83862495 0.06507547 0.7632224 0.5234774 0.16284916 0.15858845 0.3289578 0.3085009 0.09810969
run 0.1264482 0.4870414 0.8487818 0.59120977 0.77157813 0.6889547 0.9479949 0.581636 0.852289 0.015732871 0.95397055 0.82818 0.698044 0.48623404 0.74470407 0.06927749 0.11026206 0.30368853 0.16204695 0.49969393 0.7587163 0.5785484 0.11178608 0.11311116 0.8241598
! 0.8350356 0.95835674 0.9271605 0.9412446 0.54857665 0.75130427 0.39308736 0.3182617 0.67441124 0.47309187 0.3154086 0.4107995 0.7754777 0.72893333 0.6976951 0.99287313 0.73152685 0.10134451 0.9866326 0.81685984 0.65399593 0.7847734 0.81650573 0.8526606 0.8636249
wow 0.64805204 0.013243563 0.77081555 0.37072727 0.7309551 0.2808343 0.11604259 0.18506326 0.3893972 0.852659 0.3933865 0.38261247 0.33301547 0.026998078 0.59013927 0.87271816 0.8552753 0.2914259 0.9458032 0.4276496 0.7846804 0.54150957 0.17018057 0.85762095 0.2276768
fire 0.8052609 0.8314409 0.0015428613 0.34903622 0.47290373 0.19422574 0.27056786 0.3845169 0.8930251 0.662232 0.26687285 0.51570123 0.3773021 0.6530717 0.9947751 0.08826235 0.69142884 0.87174803 0.9698638 0.4619266 0.32544655 0.36853185 0.2720507 0.2553143 0.04787056
help 0.324412 0.5848449 0.0043352195 0.7347827 0.26677942 0.13021833 0.871104 0.8123314 0.7077943 0.26345128 0.3813197 0.5383215 0.26968396 0.39241284 0.31029746 0.7787114 0.61452544 0.4469219 0.05272524 0.48783585 0.5396674 0.37416172 0.8326499 0.27733576 0.98506355
jump 0.6506849 0.7597059 0.5787305 0.28874585 0.6172066 0.54457617 0.7506992 0.03996466 0.097180925 0.46820346 0.268961 0.99402034 0.99848527 0.6880713 0.38297364 0.4800456 0.9877238 0.8367197 0.7695324 0.66595757 0.9254856 0.16351303 0.5376272 0.08489706 0.12141543
stop 0.99501735 0.43652934 0.06445097 0.6405384 0.70721775 0.21982889 0.565229 0.8000603 0.1643417 0.9289553 0.27355933 0.35002866 0.2036593 0.35306987 0.15134805 0.16430207 0.6308089 0.51901394 0.67496294 0.017784752 0.01132715 0.86721253 0.7072714 0.41642663 0.10397648
wait 0.76574886 0.47939646 0.2143257 0.75122243 0.6922816 0.90457076 0.4851497 0.23655125 0.58179146 0.260375 0.7057714 0.79491675 0.4269938 0.73591363 0.14742641 0.5698209 0.05729318 0.49572745 0.7846889 0.3027891 0.99097157 0.7156025 0.7150421 0.008499734 0.4302306
i 0.69288415 0.6110627 0.4270621 0.08840693 0.8314656 0.23131008 0.7275329 0.10796481 0.28934893 0.15937094 0.28519067 0.113469504 0.11439804 0.16944423 0.09749158 0.7489401 0.31735635 0.21030954 0.903304 0.08901665 0.17631063 0.66023767 0.2879921 0.46895394 0.7347841
see 0.96714246 0.6539012 0.37047282 0.12813129 0.48735026 0.9966817 0.06822491 0.32348803 0.8031835 0.12707864 0.77888066 0.9049841 0.42193344 0.82497346 0.13973369 0.63645935 0.3238043 0.4764409 0.8851419 0.93229663 0.4185 0.8412746 0.5261039 0.9254523 0.017364163
try 0.81237376 0.96548384 0.99047464 0.24146391 0.51418215 0.585664 0.33593896 0.8707817 0.1697738 0.18577798 0.836762 0.64971036 0.26806667 0.32330754 0.18848123 0.8832416 0.7009655 0.83247703 0.83350617 0.8493184 0.64423555 0.5275693 0.41570234 0.83617383 0.46726832
won 0.8665529 0.74603134 0.92669094 0.045906886 0.8471691 0.92788935 0.07421772 0.7964416 0.5246771 0.37358552 0.50689816 0.41145986 0.9305259 0.88228786 0.8692314 0.50026244 0.78672713 0.40948078 0.601021 0.9267859 0.6567597 0.27927428 0.87615556 0.5712811 0.96744716
oh 0.13775511 0.89834774 0.17824489 0.3284273 0.8281679 0.81484467 0.07184532 0.18661624 0.7764026 0.90003407 0.49204943 0.53560644 0.45190543 0.42132157 0.98634523 0.35070387 0.9636754 0.19834346 0.8656451 0.85770386 0.6223255 0.923098 0.9293257 0.09104934 0.78971106
no 0.79465437 0.5356701 0.5993608 0.4724108 0.81855154 0.10072794 0.08210726 0.5611456 0.35224053 0.90255207 0.31375638 0.36055663 0.6796535 0.5287309 0.92979044 0.5727159 0.80016017 0.0859618 0.76638305 0.29260078 0.5793296 0.36072943 0.64469355 0.010495901 0.3878615
attack 0.9402511 0.06385047 0.059044328 0.49603337 0.09772168 0.96034044 0.48173234 0.9520454 0.17553091 0.83515626 0.8388784 0.28334078 0.69550216 0.76409715 0.056164395 0.84949714 0.13850379 0.9089143 0.8230625 0.9061115 0.3756665 0.66516995 0.5212347 0.88611233 0.7886639
cheers 0.018858634 0.4144393 0.55539364 0.7003739 0.5289754 0.22812551 0.047948316 0.98442054 0.7182648 0.36841038 0.71527267 0.22577836 0.76538736 0.23848778 0.7670667 0.8118774 0.99334556 0.6068144 0.9021501 0.11639246 0.6988353 0.60033834 0.84833825 0.55296594 0.17904073
get 0.84456456 0.78985167 0.2850214 0.23382148 0.57240033 0.97665435 0.93817425 0.4449303 0.9296887 0.6698608 0.041084614 0.68547094 0.5582959 0.122261845 0.98202413 0.8012864 0.8189695 0.04446983 0.037074868 0.7973298 0.7090806 0.35114664 0.5004132 0.47892594 0.091627546
up 0.18658695 0.6553975 0.37155268 0.19597846 0.46115184 0.7492278 0.6672575 0.33593723 0.7607406 0.3878759 0.05384719 0.5953962 0.92165494 0.478164 0.24129727 0.039435543 0.27194878 0.5964925 0.72182006 0.6831697 0.90425277 0.2528251 0.71102613 0.81202507 0.04147601
got 0.05699667 0.83247775 0.36598888 0.17394197 0.04808809 0.34453532 0.18927407 0.26690724 0.95794296 0.29969174 0.8322148 0.33777645 0.10037467 0.56010675 0.7225083 0.8332915 0.20646648 0.23088165 0.06401419 0.34041202 0.8949562 0.3119916 0.81182176 0.53458095 0.8566267
it 0.45066983 0.8555323 0.061417527 0.7502685 0.83968693 0.63196725 0.7212994 0.9324344 0.18688911 0.6029595 0.7407222 0.19239858 0.16569452 0.7358108 0.42908576 0.56266767 0.9510729 0.44933486 0.8802114 0.32694742 0.020734236 0.29463702 0.035083476 0.8151496 0.57054555
hop 0.6280821 0.54629916 0.7830661 0.0037535718 0.27079073 0.8268244 0.5460508 0.026766429 0.8541609 0.16878405 0.39008805 0.5462669 0.79832876 0.06380198 0.39609703 0.8143173 0.46921265 0.15085465 0.8920593 0.21085256 0.71495384 0.33783138 0.57956636 0.25776586 0.636784
in 0.5169539 0.15273556 0.24569903 0.113581724 0.78647244 0.30746758 0.42387974 0.7536284 0.8724693 0.4276273 0.6976548 0.17934898 0.063968025 0.50993705 0.3058918 0.42439514 0.03465121 0.41555214 0.56279933 0.24472612 0.45658693 0.099410094 0.086327955 0.6333565 0.79463065
hug 0.086512655 0.8845181 0.9884367 0.42406783 0.7400049 0.6806775 0.019961895 0.8931085 0.29737762 0.907053 0.6862248 0.8628028 0.59271723 0.7406773 0.1650061 0.2706648 0.3459159 0.87643117 0.15960683 0.7189226 0.36646467 0.06326838 0.33891624 0.052584246 0.626934
me 0.018667014 0.07477089 0.5534365 0.3438286 0.69057477 0.15452367 0.54103905 0.34454897 0.6547784 0.68647355 0.027711438 0.0026287332 0.5082364 0.9876757 0.7758951 0.16201557 0.6105277 0.96032864 0.93684906 0.40339574 0.74448335 0.27696973 0.5787305 0.49413812 0.8897471
fell 0.13787061 0.9768447 0.9313417 0.72257894 0.11019942 0.27408096 0.6862366 0.039935984 0.10987662 0.8400759 0.8444692 0.21898955 0.41264752 0.463166 0.36247393 0.57507503 0.42007393 0.9192819 0.07524109 0.5402091 0.09366651 0.39246538 0.7696248 0.6342995 0.37765703
know 0.3788131 0.2129008 0.3641756 0.8372797 0.6729496 0.97118443 0.5816878 0.71716756 0.6220994 0.30743185 0.9212846 0.29075125 0.9164445 0.09054115 0.26653 0.9056137 0.38965514 0.96605235 0.25000113 0.7358902 0.39031076 0.06792209 0.8864215 0.89094 0.67134714
left 0.3532253 0.29521045 0.042535618 0.13883014 0.7310849 0.14406985 0.68527514 0.28258008 0.019187152 0.8409932 0.395918 0.9627987 0.68639183 0.8804797 0.7385181 0.7424154 0.3170015 0.07243511 0.56456906 0.4577064 0.5725838 0.49133945 0.3692794 0.12896116 0.7764426
lost 0.3220817 0.36029616 0.72765076 0.78733706 0.18901141 0.7125437 0.06807291 0.9710985 0.5487026 0.17814466 0.5483648 0.123010054 0.5345689 0.0952624 0.4817573 0.33181354 0.72272545 0.034553263 0.12830096 0.82627344 0.9332613 0.7469485 0.8612901 0.442899 0.6640445
i'm 0.16333726 0.016546084 0.44986072 0.3956826 0.34840652 0.87804246 0.3455127 0.3338568 0.33827356 0.9843248 0.027284352 0.42439416 0.197177 0.016781215 0.5905578 0.6815478 0.20642664 0.13062118 0.41461867 0.29725814 0.7152258 0.98359877 0.17813903 0.76024264 0.64469653
19 0.9988619 0.11984657 0.09604254 0.30766684 0.9469905 0.18085979 0.72932047 0.38447958 0.30069 0.74660873 0.13711026 0.09873463 0.45298678 0.6775595 0.9929913 0.47109705 0.08451247 0.36649483 0.21552235 0.4312847 0.5140231 0.7481964 0.8454544 0.1018884 0.21995173
ok 0.82116145 0.14995925 0.85853726 0.74418414 0.46218935 0.65945965 0.4492469 0.042066734 0.33186793 0.32860184 0.59254926 0.82172143 0.09407057 0.2933254 0.11485506 0.35737765 0.60118896 0.39079982 0.9073253 0.48185948 0.18562864 0.53878975 0.89816284 0.6316123 0.64017403
listen 0.7559292 0.59812754 0.21985489 0.98445845 0.049960963 0.24870782 0.114834614 0.9946095 0.12781207 0.413013 0.080181055 0.71849275 0.1566068 0.5206005 0.29769155 0.5230871 0.12110965 0.101371706 0.8251353 0.24824668 0.9661556 0.05700427 0.8607149 0.96872693 0.98780787
way 0.4443264 0.4592681 0.28389922 0.23650876 0.14766721 0.9779197 0.58856255 0.6515976 0.9517344 0.3986111 0.6925475 0.33133525 0.041010052 0.053148933 0.35063264 0.25275138 0.6530131 0.929959 0.23858495 0.08210435 0.25757557 0.4659685 0.9016427 0.9814561 0.9373797
really 0.11586578 0.020117529 0.31747892 0.33444643 0.16980311 0.029322078 0.10289231 0.53184706 0.26845562 0.48866218 0.7961387 0.62917733 0.79165107 0.46831155 0.76254106 0.9838797 0.66093177 0.22813065 0.40204373 0.11085073 0.36798307 0.98237085 0.87861687 0.5054254 0.8884574
? 0.6979977 0.9210551 0.81351465 0.13718925 0.032974932 0.01263177 0.4069567 0.09622041 0.3044578 0.36117035 0.89308274 0.92268956 0.6405164 0.1315549 0.28688556 0.9347967 0.27943712 0.6466359 0.70584804 0.9823191 0.7957245 0.7191172 0.94972837 0.16871583 0.47024336
thanks 0.87005717 0.39770725 0.7118806 0.31938484 0.43565786 0.19194691 0.31002882 0.7147588 0.16457054 0.655748 0.27992934 0.36947608 0.02110199 0.31147492 0.7509396 0.9469986 0.188759 0.6592996 0.9157417 0.85922736 0.07602271 0.20323788 0.036903452 0.96423787 0.70321447
we 0.7271997 0.26465827 0.9342286 0.136095 0.83137816 0.586747 0.9315719 0.9987876 0.54782534 0.2522585 0.6257667 0.9932097 0.088748395 0.9358938 0.5618926 0.79231 0.3917095 0.42515326 0.49491745 0.1566406 0.06604577 0.23578359 0.7062878 0.30003068 0.058805853
ask 0.6918404 0.598616 0.6088522 0.24571167 0.6411884 0.74171513 0.42125568 0.84875983 0.27129182 0.7112793 0.85137147 0.05578953 0.3017197 0.86868465 0.36019883 0.00076565484 0.3994679 0.15703279 0.62279326 0.5674297 0.47702384 0.34714288 0.18266423 0.46272844 0.086959094
tom 0.65466607 0.4370782 0.16934903 0.85744375 0.21095835 0.4593511 0.1919596 0.44155023 0.8748875 0.4989211 0.11342496 0.06685415 0.51717335 0.41077933 0.7837347 0.34452888 0.46735373 0.7734491 0.37804285 0.79242516 0.32742703 0.88372004 0.9649467 0.04763643 0.67583615
awesome 0.7784627 0.9450373 0.575519 0.32254517 0.3075301 0.5510911 0.40339646 0.45279098 0.5812196 0.38769403 0.052128315 0.39159188 0.2951601 0.54173505 0.5193871 0.32901692 0.0052026208 0.66358244 0.94890434 0.73894846 0.57594746 0.68928975 0.7719238 0.21890293 0.20678736
be 0.4607113 0.5017558 0.569064 0.47812036 0.4626992 0.75460076 0.024924194 0.09265595 0.4203319 0.0982995 0.711424 0.44424498 0.24833289 0.935496 0.14924741 0.50195825 0.51996195 0.13631585 0.6220564 0.146139 0.665588 0.4296877 0.68733263 0.11516638 0.08419829
calm 0.4738124 0.018637374 0.35028166 0.9532842 0.41580966 0.013762721 0.88165194 0.53489053 0.8002457 0.5086418 0.14016598 0.81809187 0.955061 0.24612734 0.13644812 0.6623703 0.7927139 0.8158655 0.44475543 0.64270324 0.7331969 0.35602105 0.41220886 0.8812943 0.7313401
cool 0.03925757 0.92008483 0.8510718 0.017825332 0.6375766 0.59523845 0.6398877 0.037132457 0.77706134 0.7503942 0.7629092 0.9820588 0.7259532 0.8977209 0.40870723 0.09335676 0.8596645 0.6730882 0.37834525 0.78860366 0.08882004 0.22081488 0.23420255 0.15197404 0.65751743
fair 0.89866805 0.46795824 0.8990684 0.028738134 0.5740836 0.67491776 0.797559 0.9652791 0.7518834 0.4313548 0.32779938 0.534074 0.19018784 0.5234649 0.097059794 0.2901764 0.36159542 0.8730588 0.035810012 0.4792935 0.3706202 0.13585536 0.3795488 0.4317892 0.57817036
kind 0.46592683 0.28722665 0.4168979 0.17668694 0.32036147 0.59207714 0.24948451 0.63305175 0.536642 0.5914267 0.8440714 0.61909646 0.52822703 0.9773201 0.9873957 0.44510573 0.44931465 0.029046766 0.08397668 0.43027702 0.4732271 0.4755408 0.89772844 0.76247615 0.6726982
nice 0.3737139 0.49836463 0.38133353 0.24689913 0.6657631 0.35655022 0.2295694 0.9643873 0.39501113 0.94746894 0.7327702 0.7861654 0.21163069 0.46093073 0.20135783 0.015545818 0.99619025 0.7243205 0.11540673 0.04336708 0.39424714 0.66836953 0.6507203 0.70384884 0.52711296
beat 0.6304652 0.98205113 0.44067416 0.61411613 0.4012232 0.7714422 0.5217037 0.014248553 0.6479369 0.97314286 0.5276991 0.81721437 0.13644616 0.13978122 0.9274945 0.92914057 0.8233858 0.31049603 0.1307715 0.613644 0.3869661 0.69907653 0.37793097 0.5359156 0.21299255
call 0.34599808 0.2137126 0.85236746 0.55904186 0.55312073 0.9508019 0.38252175 0.02220522 0.80389225 0.4094558 0.9044531 0.47860348 0.6155585 0.10897069 0.18685012 0.7327045 0.80157346 0.8269833 0.8210446 0.32915366 0.36035058 0.22105025 0.53214693 0.15112334 0.4354526
us 0.07732631 0.30244404 0.6472962 0.32305133 0.21870236 0.3178571 0.9170969 0.5499449 0.69408876 0.66634715 0.06740354 0.6452383 0.43680713 0.9310894 0.33736643 0.30803788 0.08568445 0.9025446 0.47020945 0.06160619 0.518296 0.35734028 0.6687063 0.7836467 0.11411977
come 0.50610274 0.40589803 0.16463366 0.0686438 0.32450646 0.14478059 0.6753459 0.7337698 0.42313242 0.2348511 0.14843388 0.2135687 0.6498101 0.5959193 0.50367266 0.3663919 0.3497484 0.4444794 0.7363946 0.97529733 0.13730991 0.45787993 0.678989 0.19830559 0.67306405
on 0.2844771 0.14759007 0.12943344 0.7993882 0.31779248 0.35022032 0.543751 0.09993448 0.097607166 0.69366425 0.48349455 0.18224885 0.46913788 0.6561578 0.06412284 0.14864635 0.14079751 0.80518115 0.86025274 0.020800745 0.1300829 0.41466504 0.733944 0.54599285 0.6724711
drop 0.07555021 0.3919787 0.12053361 0.9235923 0.6817716 0.074614495 0.77145606 0.58916485 0.9107301 0.91433066 0.10848707 0.44778058 0.09222104 0.3829832 0.86853045 0.38065243 0.6405237 0.2098339 0.79241955 0.22409008 0.103121 0.60494334 0.11142046 0.9078223 0.7890332
out 0.8215515 0.47017327 0.9089139 0.9477348 0.0473538 0.059380896 0.7758262 0.20179564 0.41762313 0.6767911 0.5887149 0.5082467 0.70995134 0.09339708 0.10327323 0.008402656 0.39596882 0.08529885 0.010129175 0.5656451 0.9336702 0.49180782 0.8888357 0.39794016 0.09715807
away 0.42459035 0.4913459 0.62097293 0.41888645 0.4576757 0.7106875 0.3277341 0.45620406 0.8425195 0.43174857 0.28551033 0.62948364 0.56269664 0.76599425 0.9954173 0.6070619 0.22341274 0.9336562 0.7355563 0.010029495 0.14130124 0.5848634 0.9787823 0.91284 0.42837408
slow 0.37593532 0.3369805 0.9440076 0.4524527 0.045257125 0.32497475 0.0033695162 0.6402525 0.98125464 0.4630825 0.31033862 0.053410612 0.08432515 0.595602 0.35624367 0.21181403 0.05129162 0.18742609 0.95604867 0.12706771 0.98839617 0.11805834 0.20844373 0.46210286 0.7798571
goodbye 0.24548344 0.08302119 0.93875027 0.10683878 0.9049915 0.67707205 0.90223175 0.75626224 0.8602825 0.572929 0.73005104 0.9760428 0.13570243 0.8920856 0.86941487 0.3589738 0.4377657 0.5412437 0.337865 0.9065336 0.9167721 0.48265794 0.63297373 0.34309986 0.6559617
hang 0.00047959972 0.49466297 0.5817031 0.6160772 0.6432108 0.8405978 0.6046695 0.47814047 0.010358068 0.592626 0.64604014 0.64748996 0.22343026 0.60074466 0.81000376 0.6996721 0.2644037 0.9907581 0.7433758 0.39982155 0.9638986 0.3630135 0.36486554 0.6779568 0.618831
he 0.569623 0.04107528 0.68076307 0.1164798 0.52234197 0.3513702 0.84598476 0.8150436 0.42312336 0.75729245 0.78220564 0.14232057 0.78943163 0.7958682 0.34158936 0.8217268 0.30900192 0.44198945 0.5380685 0.85607284 0.278788 0.42427188 0.011672251 0.6575028 0.10378839
quit 0.20377924 0.312637 0.3884593 0.7023497 0.4323453 0.650182 0.046885066 0.5876434 0.30578113 0.37404406 0.97313154 0.5204131 0.34307024 0.34023714 0.28653908 0.8389217 0.3330469 0.52045923 0.9641599 0.00093643786 0.20802256 0.8352079 0.5440127 0.3065788 0.75194085
runs 0.9823916 0.36654523 0.6111957 0.6378576 0.16212563 0.7252812 0.68079823 0.82955575 0.15741646 0.5688052 0.9074336 0.1581226 0.30578294 0.337512 0.8408892 0.75064576 0.41364715 0.98401666 0.02743735 0.83995163 0.68785596 0.32764128 0.99044937 0.9688687 0.9812475
hold 0.26377034 0.83877677 0.3780489 0.12244788 0.5351333 0.33494005 0.060992934 0.50450695 0.18219823 0.15610589 0.9627446 0.26577038 0.12402645 0.64343554 0.35729504 0.4026567 0.2685195 0.33780608 0.31378043 0.9541974 0.40152836 0.20402372 0.75260156 0.08868195 0.6085748
agree 0.3326226 0.84924126 0.2203419 0.32335454 0.29822108 0.25119644 0.13353966 0.4163707 0.2196303 0.2951241 0.7921588 0.06606499 0.58347446 0.3417508 0.14078099 0.4132918 0.46614668 0.557788 0.61335045 0.23184155 0.20659746 0.22008981 0.46713698 0.4168563 0.18590012
tried 0.58691394 0.4991478 0.984019 0.3253632 0.77760863 0.3991113 0.415779 0.8811736 0.7100733 0.42993322 0.83125246 0.65674466 0.97877014 0.14308476 0.026823955 0.026539288 0.7506818 0.5271283 0.7180627 0.70977074 0.84763694 0.3888826 0.058958683 0.79469025 0.95783484
i'll 0.5448062 0.09156783 0.57096374 0.7302119 0.25436044 0.10481573 0.650115 0.31908524 0.8590264 0.55155665 0.20384505 0.588342 0.5065852 0.6607131 0.7888851 0.7924152 0.8527403 0.18827428 0.6971137 0.74964565 0.9445478 0.049315583 0.7647208 0.9334591 0.5501908
fat 0.85769117 0.057449497 0.5583515 0.15532877 0.7356724 0.71322596 0.33262816 0.8142225 0.8933633 0.14063667 0.8331084 0.21191573 0.21885926 0.654032 0.79895985 0.23364475 0.6100184 0.31790638 0.6036807 0.8622687 0.55924314 0.7496072 0.6788653 0.49298292 0.64509004
fit 0.22566515 0.1801786 0.9531497 0.27041763 0.53448826 0.63038546 0.50877774 0.90637106 0.88000363 0.909463 0.97711587 0.54861283 0.17538941 0.44944543 0.8434071 0.4329363 0.7210686 0.4478465 0.7522121 0.8322421 0.7884907 0.39587176 0.37297046 0.57781476 0.49227214
hit 0.5993241 0.027391417 0.7051733 0.89062434 0.48337823 0.9433992 0.10949908 0.3665304 0.9990508 0.69445384 0.19226061 0.472906 0.71513575 0.52129567 0.5437914 0.06612403 0.16871582 0.9428896 0.51115143 0.31788522 0.14495488 0.5777 0.96735567 0.002176868 0.03368452
ill 0.371945 0.088554025 0.9336597 0.20711172 0.08661602 0.23275752 0.3634184 0.37257174 0.8443341 0.3806982 0.97195214 0.6157096 0.8103017 0.20002745 0.5837655 0.16927938 0.8148742 0.45282763 0.48570892 0.5315291 0.037977725 0.21631558 0.055200666 0.19594254 0.48087057
sad 0.5268213 0.7068096 0.11608339 0.84166867 0.1781775 0.6937533 0.41961002 0.0041304245 0.3127794 0.6769955 0.27256283 0.35366422 0.062215734 0.24251513 0.8488354 0.8878051 0.8760298 0.4436955 0.98653543 0.793263 0.5062461 0.5402279 0.2237949 0.49773765 0.76992005
shy 0.9335463 0.32219592 0.9330075 0.25279152 0.060638983 0.563399 0.68857163 0.47972643 0.7489642 0.64555126 0.19417027 0.24687856 0.12235501 0.16717328 0.15202254 0.011969312 0.215502 0.43739274 0.8125881 0.60332894 0.83651197 0.32570708 0.39641115 0.46168947 0.4273743
wet 0.57672024 0.7764346 0.21623322 0.40508816 0.9241211 0.17941079 0.42940432 0.82214135 0.7786657 0.6243546 0.29458192 0.9941386 0.7744351 0.92125255 0.8935642 0.12493823 0.64134634 0.8230834 0.07052446 0.7158965 0.86604893 0.99036825 0.3991616 0.3383385 0.9890562
it's 0.6665491 0.36668122 0.649113 0.6792728 0.6410581 0.6930866 0.95120394 0.031800322 0.69779766 0.27330557 0.87781525 0.22715719 0.69319826 0.023548732 0.7844983 0.49410802 0.36027083 0.27896068 0.67984766 0.17854986 0.0684173 0.9854541 0.56294274 0.8490393 0.84729266
join 0.4324841 0.798956 0.55113184 0.9183296 0.378283 0.8609645 0.44267964 0.69908327 0.3444538 0.3531379 0.2611026 0.97291 0.7033965 0.5413737 0.36707413 0.81639004 0.45868284 0.24585871 0.42438 0.018772602 0.34490243 0.5871141 0.021876227 0.7889053 0.17772517
keep 0.35950255 0.71951795 0.29747206 0.23870549 0.5017563 0.57477754 0.3857044 0.33563155 0.24732389 0.28883755 0.23469375 0.99223727 0.728468 0.56041014 0.6888892 0.108998574 0.61128616 0.012763912 0.7742114 0.3853592 0.8759921 0.35624716 0.70009226 0.40631947 0.9409746
kiss 0.22579443 0.14424527 0.52368873 0.8680622 0.6847286 0.5162465 0.7187042 0.25082958 0.8578249 0.79862046 0.1788083 0.58647233 0.5262749 0.7647288 0.4864164 0.35662547 0.2074466 0.4782702 0.7000821 0.75225484 0.19991376 0.44466323 0.7781706 0.20702498 0.97728795
, 0.2777504 0.85115606 0.9062458 0.5152277 0.09903084 0.46570608 0.11891727 0.9500953 0.94553506 0.7915725 0.033022236 0.14840156 0.08299085 0.72660494 0.54633707 0.2011083 0.35544494 0.026089339 0.14882575 0.9494927 0.13298129 0.98563886 0.82382447 0.18013851 0.34628096
too 0.8769965 0.8943024 0.003668885 0.2924781 0.96412075 0.24879779 0.37218487 0.19266532 0.061565634 0.74456877 0.009675393 0.078643665 0.19994602 0.40882984 0.21484524 0.49548447 0.8300763 0.09589011 0.48936018 0.15577525 0.041304495 0.08282365 0.23618594 0.68197805 0.24991424
open 0.24867132 0.7680207 0.47722232 0.84425765 0.04526974 0.15404317 0.9102425 0.12647212 0.33102906 0.40487507 0.9629002 0.9297051 0.31762263 0.2823123 0.21410078 0.22929612 0.22519101 0.279428 0.070744835 0.22013237 0.13242742 0.11187182 0.007596993 0.8818792 0.19829068
perfect 0.66113734 0.19150978 0.5266793 0.50937927 0.6703454 0.09862616 0.16037494 0.8273678 0.9679898 0.41195944 0.97446316 0.5521891 0.04226842 0.68016577 0.23261684 0.19699898 0.6493314 0.79896647 0.74226844 0.755497 0.3067841 0.2591185 0.7228892 0.31640047 0.49628362
you 0.9247167 0.24360394 0.3364447 0.8060815 0.53331894 0.712002 0.13474864 0.37766147 0.6768008 0.22754873 0.16576912 0.7400118 0.17011732 0.93794644 0.23663335 0.006737367 0.97656554 0.53344697 0.3994103 0.9194805 0.5337905 0.024354573 0.015348623 0.9731068 0.96049345
show 0.9066813 0.38836735 0.06463455 0.10701954 0.65079826 0.7321016 0.42647323 0.06043504 0.63761485 0.7966884 0.5322887 0.51773113 0.39492148 0.7295759 0.2855434 0.693112 0.33499685 0.28275204 0.07605903 0.8217739 0.55218595 0.0005251836 0.085872956 0.49476635 0.02050991
shut 0.7260233 0.27034062 0.44859007 0.08576657 0.7540021 0.16182426 0.56727153 0.93563056 0.3815479 0.9120664 0.76289004 0.56020045 0.6384459 0.077529766 0.42684218 0.01299788 0.6818249 0.29517344 0.8496528 0.50252426 0.18115713 0.7188039 0.55149245 0.2744312 0.116421215
so 0.14827077 0.49049503 0.10119417 0.077208824 0.73410434 0.13542782 0.3098845 0.64717704 0.41233 0.46626574 0.9385563 0.95377177 0.23276374 0.99365526 0.84506 0.12880704 0.47285637 0.15427005 0.3341148 0.07025095 0.98593205 0.78006756 0.6589617 0.047038645 0.70213735
long 0.008454589 0.75726914 0.40292996 0.3687799 0.053873535 0.99686253 0.7383418 0.44943362 0.9344134 0.065841585 0.20806946 0.58254707 0.23113662 0.113690056 0.11342958 0.94044036 0.46844622 0.708431 0.46097198 0.18978485 0.8444728 0.53053254 0.5928641 0.5327072 0.07018539
take 0.57455343 0.33078897 0.81887996 0.051161714 0.2268316 0.90146047 0.977542 0.0028549756 0.89971715 0.9217926 0.12618014 0.5721854 0.094487645 0.6972097 0.27218375 0.0036244434 0.8247626 0.6061662 0.3279569 0.4182437 0.17959929 0.7982335 0.13603605 0.7899221 0.4871149
tell 0.27129996 0.5997163 0.9626125 0.32164782 0.6889119 0.035924528 0.040944375 0.37628707 0.21602032 0.83722377 0.4992031 0.23880677 0.986905 0.6921844 0.07529491 0.19852866 0.72018236 0.7767355 0.24063307 0.7060703 0.6652391 0.6491657 0.51283896 0.30231994 0.6845199
wake 0.56874645 0.20373905 0.5082943 0.5887699 0.5704989 0.9479611 0.9947489 0.14849262 0.8397539 0.5176679 0.5663735 0.6214589 0.12879317 0.79922056 0.31871268 0.18993826 0.2643727 0.104568966 0.047278762 0.15923998 0.8907889 0.63257974 0.7853842 0.4336478 0.99311554
wash 0.8408049 0.81846035 0.40606266 0.45647132 0.5068929 0.64336866 0.47326645 0.6355774 0.46885923 0.30909896 0.61057454 0.40359014 0.87094647 0.88642144 0.48134822 0.17857926 0.68686074 0.3969075 0.65614635 0.5497736 0.77276224 0.13289885 0.33653322 0.17256615 0.41802278
who 0.82942 0.8229649 0.3355699 0.91726553 0.7252308 0.027527947 0.6418661 0.15185934 0.2821484 0.7004083 0.8653369 0.43449673 0.23926729 0.25121206 0.6177393 0.5609809 0.85032505 0.09002962 0.9601108 0.364917 0.032355163 0.48041028 0.1414541 0.016500961 0.34415638
am 0.7764567 0.58862853 0.3117555 0.6986966 0.5250555 0.37312034 0.41873574 0.20530884 0.53862447 0.42893037 0.7308217 0.23454751 0.9422668 0.31816834 0.9686464 0.8463702 0.91093105 0.66438293 0.32927164 0.8632207 0.67132133 0.371985 0.81571513 0.87468433 0.07334262
back 0.9044393 0.18208985 0.7875125 0.01534987 0.7236632 0.04195003 0.20700616 0.4385747 0.2287981 0.8909687 0.509532 0.6316841 0.70264304 0.7731427 0.83419937 0.7067734 0.4476495 0.13945997 0.7626037 0.3615385 0.9174864 0.913896 0.23681521 0.08300724 0.9073298
off 0.61475945 0.92723876 0.15441772 0.14336638 0.15784146 0.132822 0.10624324 0.47759005 0.07079194 0.37423506 0.41053963 0.38027284 0.29374176 0.21496423 0.035781886 0.07582915 0.987724 0.8565856 0.97394943 0.57695067 0.6346027 0.19572231 0.8608456 0.50821155 0.63921344
a 0.5698595 0.19205289 0.5078765 0.81706405 0.4901016 0.94814384 0.8767251 0.41134822 0.739129 0.02197831 0.82637936 0.89513266 0.11466119 0.76707274 0.6960466 0.71569175 0.8976899 0.50928456 0.7465266 0.6160729 0.6200337 0.92078096 0.3336976 0.14300796 0.3662689
man 0.6519463 0.34060347 0.7860211 0.6612907 0.028630527 0.04965592 0.11405563 0.8939924 0.36202437 0.1774624 0.093622446 0.70156926 0.32145017 0.9266886 0.027180918 0.9567543 0.95582765 0.03883503 0.90013486 0.47435167 0.1644186 0.06483001 0.11362697 0.8722631 0.6488409
still 0.2189115 0.3150357 0.39490056 0.24626559 0.34669858 0.37051943 0.56037563 0.3545821 0.7414347 0.7746505 0.1766034 0.22459601 0.9096576 0.69524413 0.66543996 0.32875812 0.04618821 0.86817575 0.5137172 0.8536111 0.14043331 0.18022086 0.25657994 0.18251695 0.13446176
beats 0.27855444 0.82844955 0.49706557 0.10419864 0.49106544 0.88510394 0.0825297 0.27251148 0.3112729 0.36671343 0.38555902 0.27970672 0.21830888 0.7831465 0.124970414 0.19546336 0.33971083 0.22945711 0.03691319 0.581704 0.12212366 0.8285147 0.48536292 0.880872 0.026197864
cheer 0.547737 0.031800274 0.043885138 0.15695855 0.24343085 0.2316452 0.61578894 0.30079192 0.7740884 0.8766866 0.4182697 0.17303643 0.1568454 0.9449223 0.842898 0.7908962 0.2562558 0.6385301 0.9140232 0.710998 0.014618021 0.7445612 0.95304763 0.13718788 0.16826756
cuff 0.06471114 0.17900327 0.7046565 0.92223394 0.49230787 0.8988143 0.047536604 0.23222896 0.8236568 0.76645774 0.21177086 0.6943583 0.0818321 0.4169285 0.8122671 0.5703034 0.9340199 0.0070047136 0.25188705 0.24315135 0.8498916 0.911785 0.25258106 0.74062395 0.08651087
him 0.32793674 0.48312074 0.65666294 0.97579384 0.49946323 0.03146541 0.6870841 0.15985239 0.25286338 0.2713366 0.6481082 0.73898345 0.43168378 0.73829925 0.8411442 0.13697371 0.57160336 0.9802363 0.33426905 0.5627118 0.6532025 0.5643767 0.84726524 0.47464848 0.19782363
drive 0.6821297 0.575423 0.24334587 0.108808234 0.68171114 0.80594385 0.06628816 0.49695522 0.6368926 0.10000462 0.86813504 0.7212113 0.6130448 0.010628298 0.28228393 0.795594 0.79166627 0.25803766 0.51140535 0.5739026 0.29213473 0.014726724 0.10053546 0.3219231 0.76627374
down 0.27978522 0.8318099 0.29906964 0.33524865 0.2658416 0.54484284 0.049601533 0.5060272 0.5261072 0.47442088 0.73160815 0.7109954 0.36166048 0.5084817 0.47296765 0.43157965 0.13830268 0.04022081 0.106595345 0.5414052 0.83118963 0.47985515 0.84483945 0.68006694 0.6553374
real 0.121227875 0.8820239 0.48929724 0.8153009 0.062465295 0.85357654 0.78493285 0.4974098 0.3511343 0.68469036 0.76307994 0.9418133 0.831883 0.64497715 0.051133268 0.8453251 0.76436186 0.3666132 0.16301778 0.98373896 0.8019622 0.71224827 0.48701352 0.47560573 0.79779494
ahead 0.53889656 0.2640275 0.5608949 0.7691073 0.29262847 0.06908676 0.08683905 0.58685815 0.43881387 0.82433146 0.6090727 0.5629038 0.70903903 0.79282415 0.58785915 0.47300628 0.9860253 0.60744715 0.13188568 0.28035298 0.945462 0.16689518 0.3618407 0.6707196 0.9589216
good 0.36097413 0.8062711 0.10042167 0.999877 0.2336643 0.772837 0.97258866 0.31687197 0.16479304 0.36194482 0.5499683 0.29652807 0.7727569 0.57455987 0.73362976 0.03147784 0.011500836 0.705591 0.2700525 0.9063745 0.57856977 0.21269746 0.8603065 0.9270101 0.18701191
job 0.35642058 0.29619312 0.8340115 0.6702226 0.056720756 0.16187838 0.3402787 0.63835675 0.9180737 0.074024215 0.7524889 0.49016508 0.90244704 0.27282703 0.03665327 0.89523655 0.105567425 0.59394854 0.9403071 0.3469271 0.7619016 0.16718839 0.7594451 0.55900663 0.31138808
grab 0.65045476 0.53372455 0.96619964 0.82250524 0.61594594 0.43571627 0.30050457 0.5096865 0.45589644 0.61344653 0.68026024 0.48299357 0.8881923 0.8955662 0.9743368 0.33758938 0.46584237 0.16637245 0.41071135 0.033364516 0.47590965 0.3717555 0.3308454 0.8462318 0.8891354
have 0.99211484 0.6828663 0.1040188 0.06636285 0.81744653 0.6114938 0.8330426 0.01967644 0.35212943 0.5536566 0.45677978 0.12158732 0.489112 0.5946903 0.31266758 0.78985935 0.66256374 0.4017314 0.66992414 0.7566415 0.25324315 0.569951 0.5034421 0.5235998 0.317165
fun 0.24510609 0.3454619 0.8581903 0.9668268 0.5575895 0.023532895 0.9228696 0.53646815 0.4960301 0.093467936 0.256968 0.020668821 0.07100602 0.07477446 0.2573778 0.012929268 0.94042224 0.46939263 0.102830894 0.92280495 0.55649906 0.11598781 0.6610378 0.2601739 0.17785081
tries 0.036461987 0.4277242 0.3250898 0.9584802 0.9630948 0.101285286 0.7947524 0.3979531 0.13186353 0.023556745 0.7615181 0.94289666 0.58420926 0.13826157 0.5292135 0.59850043 0.086113706 0.43154907 0.28373137 0.89862883 0.63049734 0.2902999 0.94419956 0.5571097 0.9000661
he's 0.91871524 0.45898512 0.50614256 0.09449195 0.13400379 0.06439231 0.92496043 0.1725939 0.5803647 0.0569592 0.89073443 0.91116834 0.56167716 0.39611545 0.84198904 0.4483079 0.24732994 0.5653947 0.7223349 0.2577574 0.7318036 0.18386346 0.4904332 0.1334719 0.07350955
hi 0.6759829 0.55743504 0.9460044 0.13640407 0.9181162 0.37488028 0.09627088 0.24811254 0.62266535 0.7866487 0.4538547 0.38829923 0.89286494 0.37662774 0.58065635 0.88505876 0.57698745 0.73968756 0.21216005 0.6617931 0.80609775 0.09055403 0.07471679 0.85408676 0.87351006
guys 0.7950985 0.18754324 0.3175114 0.036979407 0.3924759 0.46671933 0.7016269 0.013707196 0.066389725 0.10326028 0.37803578 0.67169994 0.42829937 0.58014745 0.4349566 0.6530234 0.25278956 0.012199971 0.4828674 0.07129245 0.50983196 0.8827053 0.9810627 0.87154615 0.41225353
how 0.7846861 0.12289141 0.96168596 0.74008113 0.19274536 0.26456514 0.17648159 0.45061216 0.24741437 0.4876475 0.5693259 0.9695462 0.0016053345 0.96048295 0.24495855 0.28855935 0.118958175 0.7495228 0.6483829 0.42255563 0.37766114 0.8316403 0.55447114 0.06928479 0.10767829
cute 0.9469397 0.6570168 0.0823759 0.5390499 0.6069837 0.834949 0.39920413 0.13799654 0.06880861 0.14690988 0.75840014 0.34728244 0.872059 0.43244466 0.14802317 0.5997444 0.33226275 0.14523782 0.5759751 0.4784772 0.7134049 0.682553 0.017798008 0.66028714 0.45970285
deep 0.5496043 0.4007992 0.79785097 0.63369113 0.12237791 0.033875477 0.3250437 0.17752199 0.046215136 0.028811805 0.18490192 0.18120767 0.7898233 0.16075143 0.40331742 0.79836893 0.9465785 0.6580199 0.310608 0.73671097 0.64393836 0.8574432 0.71554834 0.6270213 0.8646958
humor 0.07999564 0.3669394 0.92939913 0.6054235 0.8268635 0.80399084 0.8919107 0.12505025 0.38677308 0.20928693 0.49411386 0.98658115 0.19149196 0.52360785 0.5523847 0.9927853 0.5791042 0.5438048 0.4819715 0.4104934 0.8325585 0.010201901 0.4053459 0.37705746 0.23397218
hurry 0.82996 0.49048313 0.011551813 0.557628 0.87441146 0.18171732 0.5994064 0.08847239 0.1658939 0.73049647 0.8771566 0.15282772 0.90352 0.6938708 0.8042031 0.7775127 0.25080872 0.9719678 0.4212971 0.00018142363 0.51234865 0.41158715 0.50576746 0.99449277 0.6784571
did 0.9181774 0.5145657 0.10857901 0.22561601 0.63532543 0.2628075 0.1779238 0.44267285 0.7602668 0.07950642 0.55411506 0.71154827 0.8621375 0.49523118 0.56780535 0.6762579 0.90865105 0.6609597 0.22389188 0.7543941 0.74580747 0.93130237 0.2598578 0.5766564 0.33184597
forgot 0.8288385 0.17824686 0.5564639 0.33027774 0.28074688 0.75338393 0.036490243 0.44793805 0.15162162 0.08550719 0.097713485 0.28489995 0.09853477 0.94104695 0.76078063 0.9929999 0.05433471 0.6316409 0.00024924905 0.47570306 0.39885297 0.56928855 0.45157343 0.41168758 0.4013649
phoned 0.2822593 0.5845293 0.034383524 0.48368305 0.6378652 0.46046895 0.47942695 0.44407952 0.35300875 0.22391684 0.0011337681 0.4690289 0.9770721 0.7739625 0.22516404 0.78445697 0.84909844 0.78767973 0.18729457 0.85357034 0.105592586 0.83999777 0.34579623 0.82862294 0.13537829
refuse 0.7377102 0.8703993 0.25703797 0.91326773 0.97534466 0.7923936 0.65413696 0.5857877 0.07571114 0.1722703 0.32279086 0.11446883 0.26489177 0.43129817 0.9874645 0.8746015 0.8124534 0.14663792 0.6167367 0.08975163 0.13078019 0.3133511 0.53307927 0.589621 0.6380607
saw 0.5753283 0.87193346 0.5559643 0.54996425 0.45503905 0.35871124 0.4204368 0.00059862324 0.023663117 0.31142172 0.4927454 0.6429304 0.2679702 0.810031 0.009286327 0.77970916 0.33638084 0.24470721 0.8999691 0.539476 0.8601203 0.5913779 0.7458021 0.76676244 0.16222681
stayed 0.6184511 0.5987218 0.06337318 0.6108776 0.35165086 0.8463468 0.38226604 0.6613359 0.70761776 0.75636476 0.84485495 0.98274875 0.54197985 0.9572977 0.18182094 0.8331916 0.6969386 0.24595197 0.86014736 0.34725803 0.38598874 0.38326016 0.028419161 0.75550294 0.25674453
use 0.11796769 0.8658607 0.071659386 0.39498162 0.41426817 0.44488883 0.8500049 0.13609748 0.8661106 0.102582216 0.58490515 0.37307668 0.94241846 0.79785055 0.3414094 0.57036775 0.53003824 0.5371563 0.7909376 0.5811664 0.23608191 0.7810999 0.8829502 0.95575696 0.22251385
pay 0.3308714 0.664021 0.9619226 0.845453 0.52082103 0.59322464 0.97367525 0.22158913 0.22026299 0.39543998 0.43486774 0.057306617 0.6504694 0.7047122 0.8303079 0.117570914 0.0008960852 0.8383101 0.40049505 0.56309193 0.9378622 0.061789744 0.4000336 0.82301694 0.026568906
bald 0.10524582 0.64039004 0.71624166 0.41005605 0.5454235 0.5366638 0.8957001 0.7017339 0.7384505 0.63616514 0.9325501 0.8042449 0.8309116 0.97493416 0.25317392 0.8248426 0.5587805 0.69845563 0.9346729 0.6360482 0.31694007 0.240933 0.7734051 0.47648475 0.0879832
busy 0.26318046 0.91468006 0.27472934 0.10061789 0.9092429 0.12238596 0.65055114 0.052367084 0.46140516 0.4571826 0.5403416 0.6235155 0.72794306 0.82141167 0.564077 0.19901629 0.011949585 0.061612844 0.535969 0.21317655 0.030090999 0.7520887 0.8938277 0.43135282 0.19989102
cold 0.8859963 0.85365236 0.78215224 0.45401677 0.9458198 0.69190437 0.9945435 0.4092939 0.1486267 0.6255098 0.70528316 0.60097665 0.111411944 0.162 0.8294971 0.7569898 0.018423777 0.4576317 0.5507188 0.32681242 0.60258204 0.30740672 0.35933828 0.90220785 0.1035748
done 0.22240461 0.45223522 0.38305488 0.18760201 0.35038754 0.2851418 0.635518 0.9716551 0.43967625 0.97066927 0.6741291 0.9030411 0.4127441 0.8622985 0.7655039 0.4337535 0.58586735 0.63505435 0.90860766 0.007812808 0.08712442 0.77642286 0.7483135 0.63397336 0.1075489
fine 0.1525682 0.06968327 0.90764004 0.95927167 0.3615996 0.087552786 0.96186596 0.6382872 0.45843834 0.94550663 0.83193666 0.7392218 0.5185714 0.14025193 0.72452265 0.11774581 0.54861087 0.3852137 0.61913043 0.55277663 0.846711 0.7188164 0.5592369 0.32486045 0.75249845
free 0.46457148 0.35320607 0.36255252 0.8318676 0.2594167 0.79992366 0.059414014 0.42963916 0.13296989 0.51990265 0.53235316 0.017511945 0.1460688 0.53123885 0.9372725 0.38215378 0.19511461 0.38855007 0.22405742 0.72236735 0.36022735 0.22789028 0.55295587 0.32759678 0.10976814
full 0.6766453 0.9191448 0.9450014 0.688846 0.0072704228 0.49574557 0.98982555 0.89541113 0.18455954 0.104624525 0.41165552 0.5515806 0.85701793 0.9639693 0.5504117 0.7662638 0.3455629 0.5900311 0.47302815 0.9236573 0.50356275 0.35325727 0.9568481 0.37136903 0.82568926
glad 0.30412853 0.84602064 0.73027855 0.74568224 0.7622448 0.64688516 0.14764869 0.35089955 0.029876463 0.5048151 0.76818025 0.34869137 0.99079424 0.07908226 0.4046306 0.76050884 0.8389731 0.40970778 0.20591849 0.038775053 0.95309526 0.15709347 0.0019563544 0.46509367 0.9490406
home 0.8320981 0.49763536 0.5864423 0.5923179 0.5304182 0.90342057 0.9206767 0.32544845 0.32504368 0.4244176 0.64682376 0.9498235 0.87711227 0.51065075 0.06469638 0.09782278 0.33221075 0.3217447 0.22310536 0.98832667 0.2116935 0.28839126 0.027503295 0.03630136 0.13213749
late 0.12839435 0.040818933 0.6778263 0.82858306 0.054194625 0.8448763 0.9782672 0.09590203 0.548985 0.98692364 0.46087262 0.1586486 0.5990774 0.249849 0.4154533 0.5565789 0.5772248 0.3523794 0.93336785 0.89584094 0.09239664 0.6895758 0.29481542 0.16870554 0.8028724
lazy 0.041193955 0.3595246 0.28048676 0.044930268 0.9937038 0.59748065 0.49873635 0.14552489 0.57061726 0.8539913 0.12619142 0.383199 0.3365832 0.9951308 0.04231343 0.26783335 0.26561663 0.8356782 0.47587812 0.8472076 0.15762335 0.38462374 0.4540101 0.93309927 0.5933284
okay 0.2797425 0.5797872 0.71839017 0.6814323 0.04556165 0.0075743147 0.95858186 0.67805713 0.7079444 0.3031008 0.92830724 0.2535191 0.65680933 0.90887016 0.527732 0.19342788 0.69150895 0.074329056 0.6807448 0.06636037 0.7717756 0.06805949 0.68007386 0.77787584 0.38645098
safe 0.4582443 0.46109092 0.5781565 0.87293494 0.43788567 0.99416065 0.45637262 0.49437407 0.45637882 0.11430145 0.21793877 0.92588174 0.30736068 0.078683615 0.46577907 0.7596393 0.6398515 0.4886021 0.27691293 0.8134225 0.713024 0.40595594 0.7759222 0.8052118 0.0022369684
sick 0.2707453 0.2949641 0.683491 0.50390494 0.056666575 0.69931275 0.36131448 0.25389346 0.9423291 0.041939914 0.01937431 0.113021836 0.32383433 0.33459398 0.37564787 0.14442167 0.42264777 0.020021323 0.85552585 0.47056845 0.5554438 0.20223266 0.47393647 0.038128603 0.529385
sure 0.24499893 0.25903958 0.45910206 0.2016601 0.1929803 0.41149405 0.17862888 0.0052978 0.37988237 0.76496595 0.6698691 0.21588476 0.36211935 0.25571218 0.7930461 0.6853672 0.7479254 0.4804273 0.49942523 0.5485177 0.02385386 0.15499063 0.85684675 0.083193846 0.50227344
tall 0.7589011 0.52362645 0.6333154 0.31579837 0.29546252 0.19884928 0.3114855 0.26368493 0.34401828 0.0044400482 0.80566865 0.25819746 0.23926255 0.8906249 0.9918977 0.3503637 0.053499717 0.34624073 0.6741161 0.4774565 0.748643 0.6551763 0.46853626 0.82607996 0.096944034
thin 0.3903514 0.54824007 0.60527337 0.9123085 0.9561416 0.67486256 0.5722459 0.3740008 0.5774944 0.63377166 0.6714301 0.2919898 0.32786635 0.8967577 0.6506481 0.89513665 0.19350488 0.57998353 0.72204435 0.07340823 0.6749086 0.6032993 0.9468119 0.13270134 0.5580616
tidy 0.21276587 0.8103556 0.06325474 0.32418555 0.9036043 0.252313 0.113605015 0.8258234 0.09807001 0.4653673 0.30046573 0.37658244 0.19710146 0.98493886 0.77424496 0.6091828 0.15790717 0.32271314 0.18896174 0.38683558 0.65156555 0.8740506 0.99873537 0.32330212 0.6108888
ugly 0.9230672 0.095856965 0.88208455 0.12713115 0.15776823 0.71293324 0.73362285 0.5333813 0.4284168 0.21316975 0.4126358 0.258327 0.21076608 0.1970859 0.41288286 0.72819763 0.43865108 0.16313875 0.8143769 0.053210624 0.38518995 0.68739456 0.9121873 0.5196459 0.39520103
weak 0.03149543 0.74449813 0.64892614 0.85544103 0.77720165 0.38135585 0.7438122 0.99174285 0.7634551 0.06424134 0.14664987 0.7051842 0.38713574 0.5844403 0.8441932 0.45260024 0.49045923 0.4776667 0.6897742 0.6250199 0.12608325 0.20353878 0.71080685 0.4926033 0.33141863
well 0.61753225 0.7586622 0.321784 0.2622802 0.8425841 0.45028886 0.37671342 0.29911527 0.39375302 0.654946 0.39632547 0.8280923 0.4645002 0.3715179 0.2930142 0.6347916 0.38765395 0.4193237 0.5219695 0.99786717 0.16613553 0.12259989 0.7559231 0.19298822 0.49685162
i've 0.30369663 0.38778234 0.0741027 0.5845091 0.43262243 0.06662899 0.7009626 0.42736766 0.24021055 0.9659493 0.91181797 0.08682745 0.30887496 0.09780415 0.009569767 0.059319947 0.122876965 0.13666677 0.20561402 0.79139787 0.34072453 0.014598501 0.972828 0.62669593 0.03709186
works 0.6356637 0.6758753 0.581228 0.1022378 0.9509287 0.9202678 0.82930386 0.7420496 0.6146958 0.34891847 0.87404597 0.23793927 0.6107241 0.6236308 0.84668064 0.27566603 0.1929561 0.085380025 0.7388774 0.78370196 0.18414864 0.06365267 0.78883165 0.13232605 0.9368186
his 0.8801639 0.4923488 0.6258713 0.013392479 0.7529707 0.7455117 0.44386563 0.7392116 0.5913806 0.4171377 0.84243417 0.13374335 0.6786522 0.02841206 0.37796307 0.47967163 0.76755434 0.74588215 0.839183 0.9587357 0.80862325 0.1359728 0.41643354 0.43156877 0.82557
new 0.8974402 0.32850915 0.88769805 0.4242854 0.22415112 0.77254206 0.5467262 0.9553509 0.7419196 0.7697535 0.12313942 0.4947545 0.80385673 0.9496783 0.17256474 0.8610379 0.40390792 0.6048152 0.9322726 0.017836232 0.568183 0.7574978 0.22712946 0.95891774 0.61019826
odd 0.5680851 0.18273675 0.3070779 0.71210486 0.9686089 0.48241827 0.9656638 0.11896516 0.687616 0.92028177 0.52031326 0.016321536 0.86052865 0.36852887 0.3995521 0.9774488 0.55605286 0.7767672 0.6969798 0.15002882 0.8065545 0.67292243 0.3151927 0.29776862 0.9224521
leave 0.43380836 0.932109 0.22552572 0.16292875 0.5694731 0.39681467 0.040298805 0.9174092 0.8258427 0.95566654 0.55336267 0.67573893 0.14533314 0.27045482 0.32660198 0.28330845 0.60763925 0.78104514 0.6956786 0.82067907 0.06347866 0.9560211 0.68787485 0.7982016 0.4976999
let's 0.16842923 0.36558646 0.4424036 0.7928442 0.09763303 0.3918752 0.010366501 0.0682982 0.66300875 0.45191497 0.66605896 0.68699795 0.5838741 0.997399 0.70355165 0.72401613 0.82472956 0.5248645 0.21391454 0.25179136 0.76538336 0.6646279 0.022261888 0.07763045 0.31740367
look 0.3711281 0.80337137 0.21350366 0.20959267 0.26153865 0.11727202 0.3114844 0.01840152 0.15396324 0.8418768 0.2111054 0.54054046 0.34615335 0.9648132 0.10070984 0.055628628 0.057728115 0.18973951 0.95195365 0.6245118 0.7440731 0.049395796 0.55941164 0.19885236 0.9209719
marry 0.13863933 0.4824095 0.29723144 0.014018039 0.28435245 0.5202765 0.27257746 0.6231076 0.26658887 0.7654765 0.033587568 0.2597285 0.44642258 0.6690096 0.5418034 0.55195946 0.7035535 0.6130656 0.6360661 0.01253695 0.8526882 0.3519643 0.95063865 0.3510041 0.79334056
may 0.6863031 0.23966196 0.27446032 0.7875135 0.8449622 0.7660183 0.935325 0.82139516 0.34680864 0.72727114 0.13074921 0.77884614 0.74008393 0.9484185 0.37636548 0.686432 0.5424752 0.034612335 0.0734241 0.5646656 0.50502867 0.94450414 0.5829081 0.19456494 0.557061
she 0.09770921 0.21821325 0.16217792 0.40858236 0.52488333 0.64133507 0.21094038 0.9232995 0.2186231 0.4857529 0.16596082 0.97476494 0.01253088 0.8438277 0.82686013 0.7126936 0.6877344 0.0369601 0.39164042 0.28192794 0.6899522 0.71184766 0.80539924 0.8055783 0.30941084
came 0.6346259 0.7340944 0.50532144 0.6874763 0.9935427 0.93299055 0.75346446 0.4424324 0.96962166 0.7115221 0.4534715 0.5706877 0.65460163 0.9157466 0.13283741 0.2926926 0.24433506 0.93033177 0.23824017 0.279733 0.2653938 0.018806636 0.40802562 0.11216074 0.022245727
died 0.7599172 0.5581375 0.78372806 0.5796231 0.030126434 0.59457254 0.0033555697 0.073235266 0.86729217 0.15712489 0.18287027 0.8815349 0.18223785 0.4161845 0.28777844 0.63908327 0.83797073 0.51820433 0.110960305 0.66060907 0.60177475 0.20158623 0.9706626 0.41652814 0.6245243
sit 0.374334 0.31033775 0.017792555 0.37641364 0.88515407 0.81265277 0.33863816 0.21617179 0.28599888 0.50331855 0.18691172 0.567781 0.002474595 0.99002403 0.14444672 0.13684201 0.27283937 0.49323675 0.09667753 0.6072299 0.103869624 0.8391556 0.001676874 0.99575204 0.6463652
here 0.6421172 0.67980003 0.062378336 0.3146381 0.8023631 0.40024483 0.38824406 0.15457913 0.115784265 0.35079107 0.81032145 0.72239655 0.6263108 0.578755 0.7546482 0.36044005 0.40799913 0.36057833 0.31135613 0.4196796 0.5517109 0.1441539 0.48422927 0.40462306 0.92882097
speak 0.94374037 0.19932318 0.25929043 0.87995434 0.43475702 0.83184606 0.6960973 0.12785299 0.13719618 0.17482935 0.45929244 0.51954585 0.4142897 0.8497742 0.743586 0.37144026 0.3694275 0.9640222 0.14065252 0.5963455 0.86039215 0.91527367 0.27248558 0.976906 0.8784991
terrific 0.99368286 0.22491655 0.32055444 0.23565024 0.9505498 0.35992613 0.46733686 0.5785221 0.18657099 0.5220023 0.95819646 0.91646314 0.6611849 0.3683032 0.4082235 0.16592531 0.10716088 0.53405404 0.2502005 0.5583809 0.1016141 0.7983904 0.6539037 0.13698322 0.24150851
they 0.34491277 0.022714224 0.34058735 0.5749709 0.54226923 0.93117607 0.2773644 0.61774415 0.052201416 0.88520956 0.89975166 0.5366855 0.6965795 0.25347885 0.36052585 0.2495207 0.8620772 0.27943447 0.7901793 0.7762222 0.24155328 0.5406814 0.37839535 0.47286776 0.6592145
trust 0.7034063 0.7797458 0.81124926 0.76344645 0.9593323 0.23472995 0.019278236 0.3767742 0.1449263 0.10696912 0.045987695 0.98065543 0.2772992 0.00037519113 0.34770262 0.10270132 0.8253335 0.38155088 0.6033387 0.65278214 0.68339574 0.2803955 0.78034496 0.3808691 0.09059965
hard 0.19912311 0.84407943 0.32164708 0.5844859 0.77677864 0.39649057 0.049462214 0.45139435 0.012370558 0.12427084 0.23624401 0.97412604 0.48502216 0.8763153 0.27821162 0.011195334 0.3908786 0.7411838 0.60128146 0.39920518 0.9303524 0.16761953 0.6412338 0.8932494 0.2108118
some 0.88108635 0.18823275 0.40089893 0.3844647 0.2436628 0.61307234 0.88722813 0.26160702 0.66607934 0.3425211 0.68602395 0.1517577 0.39356253 0.40398923 0.9792679 0.96120346 0.736456 0.5543285 0.87004775 0.5504771 0.24969144 0.09331102 0.7629696 0.87559295 0.9876504
this 0.1028641 0.27817714 0.83391595 0.031929094 0.019029273 0.39863363 0.64726496 0.017529933 0.62370485 0.23436268 0.037872203 0.5824857 0.13349852 0.7642408 0.20723508 0.8614724 0.36022156 0.3739203 0.74678135 0.8495588 0.7303204 0.8233148 0.056854617 0.09094615 0.72402316
warn 0.25258407 0.63248265 0.35702196 0.5775775 0.39249796 0.53923404 0.6382118 0.61285543 0.70081216 0.383285 0.013021216 0.2385297 0.27824557 0.28259093 0.5499999 0.9480926 0.42102343 0.22555633 0.016127022 0.094978474 0.9737776 0.12600906 0.19804026 0.9609145 0.769913
watch 0.18749605 0.42502254 0.8990703 0.13283774 0.32516587 0.43935734 0.3797213 0.02323035 0.28141817 0.49650747 0.17915128 0.34689796 0.15285568 0.7565658 0.9449706 0.2142326 0.96211624 0.18095805 0.8919678 0.2657557 0.1646321 0.3101541 0.97997063 0.79029256 0.5836058
we'll 0.90135366 0.17057274 0.32548407 0.7339894 0.19035831 0.61663467 0.6203633 0.7952294 0.11164696 0.14046627 0.48175988 0.40928847 0.71678376 0.15280856 0.4799099 0.73809785 0.72734135 0.86722255 0.47759604 0.114603475 0.43056616 0.89769256 0.34508502 0.35402012 0.08251402
what 0.73661107 0.4344015 0.6465931 0.6555012 0.055759527 0.7700058 0.52594334 0.41941574 0.9956661 0.7233552 0.2610436 0.77744037 0.3016079 0.09648985 0.76215845 0.28562543 0.7138887 0.9216791 0.41772267 0.470659 0.82368517 0.35507557 0.78055024 0.11466315 0.5262905
for 0.43371597 0.54090875 0.4880903 0.69834566 0.6296891 0.14562272 0.2304643 0.44273078 0.5526906 0.37861207 0.94977105 0.3787759 0.040096365 0.053242292 0.9001156 0.1196278 0.27351952 0.98645574 0.1473298 0.34278834 0.36350974 0.74658054 0.48506528 0.51418453 0.43108597
who's 0.545852 0.040727098 0.69332623 0.44307634 0.750565 0.10826842 0.6733993 0.976777 0.4330751 0.43444234 0.15597865 0.60159564 0.9114719 0.23336354 0.7368884 0.33710998 0.97962195 0.7037375 0.22254205 0.96434635 0.1395538 0.31884938 0.9236257 0.6646696 0.91683775
write 0.8801708 0.1515869 0.26293325 0.16353868 0.34486586 0.5116293 0.44004533 0.35540023 0.20604818 0.7040813 0.5749466 0.96475667 0.24868266 0.41603884 0.53512824 0.87082934 0.85723144 0.9388118 0.031109435 0.81146467 0.34617054 0.054537434 0.4268009 0.618404 0.39207396
after 0.99949414 0.80756545 0.1222989 0.12951598 0.4524212 0.611741 0.5284413 0.45552254 0.5635871 0.12825076 0.3930578 0.36210436 0.64683217 0.78447264 0.027494043 0.46902898 0.48743403 0.31805432 0.68710583 0.13156366 0.12107942 0.43182558 0.49537855 0.025801238 0.24199153
aim 0.8797508 0.2388256 0.2259429 0.8449791 0.4621909 0.017723093 0.26121956 0.564779 0.4117699 0.48467004 0.5046384 0.97396845 0.60917026 0.17304248 0.59086704 0.6885298 0.7723826 0.2412123 0.0060753035 0.9428049 0.32972136 0.55254847 0.013628712 0.6560987 0.4660684
answer 0.7906586 0.17711689 0.5298725 0.3633645 0.32693923 0.7926861 0.10582362 0.8189165 0.17339891 0.9004299 0.9759487 0.51869905 0.6830107 0.5522834 0.15573172 0.23531888 0.62147176 0.8381949 0.036707815 0.7607152 0.07535981 0.20084326 0.8736221 0.84850883 0.13083857
seated 0.96913046 0.66292864 0.015842294 0.38213983 0.96692884 0.8118275 0.92031795 0.4821275 0.6125612 0.5882061 0.19765773 0.47674516 0.3804452 0.4810254 0.43105337 0.59436995 0.2922094 0.103174604 0.05871141 0.3315933 0.18033151 0.64194226 0.6830423 0.9075702 0.04593992
birds 0.15666151 0.5250986 0.25513828 0.48836264 0.08201395 0.9442842 0.3663494 0.16487017 0.4085749 0.6135761 0.9316747 0.5941116 0.27219772 0.104503326 0.8494446 0.14744377 0.614262 0.42761222 0.6019699 0.9567888 0.5234848 0.55309725 0.4138847 0.51607305 0.84304893
fly 0.2543413 0.8201218 0.17562406 0.39617988 0.9446027 0.14852135 0.18839733 0.8005539 0.58916634 0.05953785 0.964378 0.5961902 0.3847941 0.7399072 0.6882081 0.17712918 0.65124 0.8698944 0.13283154 0.80426615 0.03586645 0.9471959 0.09740506 0.69075954 0.81184775
bless 0.8590148 0.78172386 0.74677426 0.91527635 0.28190458 0.15167053 0.68001926 0.33533552 0.26652375 0.8859278 0.17706366 0.4538403 0.20673397 0.125553 0.32237303 0.648914 0.4366858 0.2977714 0.7620886 0.374917 0.46071333 0.56093 0.14531486 0.73109573 0.9128439
can 0.16550219 0.5271503 0.718538 0.18238203 0.9800263 0.3806301 0.4771378 0.1812087 0.64998704 0.5400879 0.9279341 0.87787986 0.45697966 0.63219607 0.8473748 0.8290684 0.8160921 0.555921 0.74469703 0.62155616 0.53669345 0.46133387 0.12985936 0.1339284 0.75295115
catch 0.3598881 0.41972747 0.32706678 0.20561785 0.148483 0.8535151 0.61103797 0.3336 0.5717105 0.7476539 0.3286642 0.55955094 0.42762747 0.054147363 0.23834428 0.33281457 0.69874597 0.035525385 0.55509835 0.74500555 0.5816403 0.010085778 0.723033 0.19347267 0.89878005
over 0.47183684 0.95380706 0.918606 0.6668219 0.19556469 0.967138 0.16459273 0.88922286 0.9389325 0.37472546 0.94897044 0.5693458 0.7691354 0.8759336 0.84915817 0.66517824 0.35913426 0.29870695 0.8172549 0.27299348 0.53011477 0.3841037 0.7567506 0.9856428 0.092653565
soon 0.95401925 0.67228436 0.59311247 0.93239987 0.8664512 0.5247667 0.94811356 0.62569654 0.11740151 0.10529784 0.5284053 0.32729074 0.7410701 0.29193857 0.86575174 0.25074372 0.48953837 0.7777242 0.28781256 0.96682936 0.84575707 0.8141314 0.64631593 0.045463763 0.9331038
win 0.27173296 0.17961466 0.6189351 0.21847428 0.6995726 0.47350386 0.15852152 0.6057437 0.15966979 0.5979523 0.19502553 0.9812759 0.2792096 0.8229946 0.7037767 0.23919463 0.40768284 0.13391232 0.4260792 0.4482843 0.63515353 0.5899393 0.7596538 0.9194602 0.88137645
dogs 0.89908105 0.5522149 0.5789586 0.07864482 0.21825758 0.9133196 0.62307626 0.799611 0.14250682 0.23417273 0.98116714 0.5819467 0.35329717 0.121519424 0.48773113 0.8783328 0.49246714 0.5469158 0.99025804 0.047923937 0.21212232 0.627711 0.1579872 0.026675047 0.88136184
bark 0.29383275 0.6976021 0.47783998 0.77341807 0.32265452 0.54753035 0.69869995 0.18112768 0.80212396 0.080160506 0.7912162 0.085019305 0.028721934 0.06682789 0.2608472 0.39887592 0.1436694 0.989455 0.7302248 0.14623159 0.82212555 0.15959218 0.0745956 0.7496811 0.3223115
don't 0.8463755 0.37867558 0.12040245 0.3828837 0.91431564 0.09206918 0.009950869 0.10106658 0.4913977 0.11737371 0.82556576 0.93145114 0.14904575 0.9429907 0.448789 0.48120698 0.0866526 0.01350372 0.57441276 0.41693953 0.8651073 0.77122205 0.14197099 0.1954407 0.65940213
cry 0.38899857 0.620528 0.7868048 0.28923252 0.40688455 0.07425751 0.09226666 0.4200897 0.09078291 0.6752915 0.5743804 0.99623686 0.6019784 0.85593784 0.09587055 0.1395333 0.5525981 0.9187119 0.6809298 0.25760928 0.4620778 0.3319459 0.2096807 0.9258152 0.46148825
die 0.5417796 0.11980857 0.5300916 0.6079801 0.9895789 0.9521599 0.4949215 0.18942533 0.9882103 0.95073634 0.09307523 0.9818666 0.73755676 0.88201886 0.43853924 0.7471515 0.4312958 0.092737764 0.23111537 0.97690624 0.47229275 0.91509914 0.6795131 0.8837065 0.72627103
lie 0.35688972 0.6354799 0.45064053 0.42832163 0.7439277 0.068103224 0.25154015 0.28576776 0.10019882 0.693943 0.85301083 0.3595819 0.43220538 0.5870801 0.63428277 0.6576153 0.6901283 0.29742324 0.73697 0.47607097 0.8922452 0.37344745 0.9418647 0.60169744 0.9306813
excuse 0.7885538 0.9313647 0.024013158 0.09614959 0.52550113 0.7356584 0.4241727 0.1213507 0.56823 0.020496042 0.77080894 0.22265865 0.5162714 0.4538661 0.3502644 0.17612876 0.05524328 0.21281824 0.5067486 0.01007476 0.7144841 0.30960798 0.8339631 0.53099555 0.2284517
fantastic 0.21124613 0.32386574 0.9175661 0.621596 0.9522619 0.19591865 0.08679697 0.7961664 0.77014 0.29821432 0.92816633 0.7351865 0.9200435 0.57457465 0.052481785 0.5528652 0.7182936 0.24415661 0.24430837 0.16329737 0.7875436 0.5975994 0.08293915 0.8211995 0.7269404
feel 0.82274663 0.5881512 0.5389006 0.35829988 0.454119 0.5845503 0.5911996 0.48359215 0.1699974 0.4089273 0.5408467 0.19174372 0.6346224 0.9819347 0.077794775 0.9035455 0.75238156 0.75304914 0.102200426 0.7907366 0.16481563 0.99591744 0.04055783 0.7751565 0.31555164
follow 0.9900812 0.44318712 0.6585306 0.41736266 0.5470526 0.18982996 0.8374252 0.6801361 0.27920502 0.69199824 0.45112634 0.5486816 0.6454078 0.39673042 0.27712983 0.09424924 0.14345933 0.12146013 0.39508596 0.8688266 0.6971986 0.97822094 0.37664205 0.7785447 0.55750775
forget 0.031634852 0.80764115 0.34445578 0.43110675 0.3847476 0.6505097 0.049818322 0.4887374 0.39811504 0.013076647 0.18906021 0.9721161 0.30249742 0.9551745 0.93263555 0.60831994 0.67503893 0.7382948 0.9367874 0.67272633 0.8742642 0.7415909 0.8064113 0.08749998 0.26652098
ready 0.058998525 0.59159005 0.477541 0.43522522 0.98841065 0.5091674 0.89584017 0.17362042 0.1459756 0.05609719 0.74015504 0.42419928 0.29820284 0.5584868 0.91856474 0.1764599 0.5842363 0.19809964 0.94523 0.32985893 0.24528867 0.83239514 0.36688063 0.85763466 0.04911649
inside 0.67997557 0.042873442 0.9141966 0.38769546 0.3710144 0.14636737 0.5005381 0.50976336 0.003333975 0.88887167 0.9670074 0.6330926 0.5876169 0.14541934 0.9478753 0.9840362 0.32111135 0.027770692 0.9946202 0.11011983 0.3003193 0.7931891 0.2397849 0.07436491 0.628932
to 0.2674847 0.087256044 0.82951546 0.056802023 0.9703167 0.73472244 0.9838043 0.28860044 0.850164 0.5939015 0.82127666 0.58352476 0.36645395 0.7812022 0.94464654 0.35914248 0.5494983 0.75544786 0.53137314 0.091905996 0.17082502 0.19925092 0.59893215 0.7663075 0.5606791
bed 0.12432348 0.778749 0.43231633 0.08696546 0.2398138 0.21036346 0.40610158 0.40114096 0.7426478 0.11748319 0.03823573 0.49236017 0.5554452 0.33709034 0.5729991 0.47183412 0.6034511 0.020324443 0.54958284 0.70633984 0.1400055 0.813841 0.34162658 0.77443475 0.30755708
luck 0.31295475 0.28878072 0.7677027 0.56640244 0.69880325 0.8563695 0.29362378 0.8358682 0.22952962 0.95426446 0.83661854 0.40319756 0.15136738 0.7173563 0.16239251 0.084784284 0.93121254 0.90915644 0.2753767 0.08792198 0.59376836 0.2562026 0.42844298 0.9527501 0.9575913
that 0.040503018 0.375366 0.9374567 0.029857557 0.04767244 0.7289829 0.30104324 0.26229927 0.8336572 0.42447072 0.9731447 0.6729728 0.82216185 0.74589294 0.8177717 0.4112948 0.23607293 0.7940805 0.19907698 0.45031816 0.22939454 0.12552527 0.5384806 0.8585342 0.88068765
hands 0.11394852 0.52088207 0.2082874 0.28252152 0.88500035 0.30918446 0.26692924 0.83664024 0.5084769 0.5159719 0.67481166 0.9879944 0.326246 0.80024123 0.25974962 0.65546644 0.38207954 0.9292227 0.76165897 0.92266446 0.2952128 0.8314927 0.37040508 0.5850463 0.9699015
is 0.35340434 0.41282552 0.37781274 0.7855547 0.2428012 0.19297549 0.04689615 0.30044326 0.6811855 0.46729112 0.5615102 0.4687631 0.8743157 0.9160576 0.9188425 0.85030127 0.17757007 0.17841923 0.84721476 0.27240378 0.71490556 0.4034256 0.15931596 0.81067276 0.6799576
old 0.81120807 0.093178704 0.28351745 0.5211621 0.8996318 0.356272 0.7059214 0.54065335 0.8208064 0.7477377 0.33251062 0.7159045 0.6534702 0.091608405 0.7204056 0.57774675 0.9032094 0.47250423 0.69974184 0.032264788 0.84922117 0.09586692 0.880491 0.9316512 0.083061874
dj 0.6855588 0.5083691 0.07023707 0.40957198 0.5141622 0.7968008 0.5148485 0.6782536 0.91439146 0.53187793 0.6717025 0.46717495 0.2333581 0.60638905 0.53211564 0.51821655 0.0059734546 0.6897395 0.7824324 0.024426106 0.5320931 0.97801685 0.5353899 0.8599164 0.26957628
rich 0.12771803 0.81973684 0.23049888 0.011904756 0.24720429 0.41535893 0.34840974 0.048096627 0.5536818 0.2615218 0.31657475 0.27738586 0.98938763 0.133766 0.56665105 0.67098296 0.53315103 0.109796494 0.5688314 0.7797451 0.8047146 0.052273653 0.13987267 0.74787027 0.6677413
here's 0.5983435 0.67846036 0.14622962 0.4492605 0.3547549 0.29184407 0.9439668 0.4659221 0.75427216 0.03774823 0.46511766 0.68155134 0.54011375 0.5779108 0.19424036 0.50916725 0.55151343 0.9241695 0.95685273 0.18840425 0.32114652 0.33194593 0.3428751 0.27175078 0.4195295
$ 0.84741473 0.68304867 0.35133886 0.9298253 0.11908259 0.84023756 0.690823 0.7766973 0.72805065 0.7019435 0.58722305 0.71828955 0.45162544 0.7851876 0.40120456 0.39897874 0.5178764 0.73826087 0.7450518 0.90986943 0.7863291 0.81923306 0.18256873 0.68421847 0.56745756
5 0.9914695 0.6572853 0.5255317 0.03800427 0.94122 0.039661743 0.33788237 0.16013588 0.7415053 0.55171657 0.6293679 0.54715055 0.48537654 0.92478466 0.16948678 0.5156018 0.1346459 0.07445611 0.75599915 0.0020868466 0.47474274 0.03060758 0.9492196 0.7893799 0.063726164
awful 0.23677059 0.16975121 0.6562379 0.7303747 0.50169 0.45382932 0.36039865 0.50189453 0.36887047 0.76097745 0.113618016 0.011164227 0.97298026 0.7459217 0.09957161 0.2060826 0.906522 0.78072757 0.19798853 0.16242996 0.82097584 0.2319276 0.36041456 0.27512896 0.7006037
how's 0.25488517 0.16359903 0.44954893 0.80866206 0.7206508 0.543956 0.4262145 0.6877941 0.3876943 0.85881233 0.6800921 0.03184336 0.7747478 0.124347426 0.77873653 0.7282134 0.07086876 0.9982898 0.38383177 0.09713267 0.7368684 0.25431198 0.8592978 0.3536572 0.9171005
beg 0.5304594 0.5955712 0.6650488 0.8397359 0.12768649 0.91404796 0.39852053 0.41631016 0.4574346 0.38443658 0.8616837 0.52432096 0.6792497 0.40305445 0.47445625 0.67979074 0.25453338 0.17470327 0.19354253 0.3438569 0.70771843 0.70133466 0.31106246 0.42933857 0.6296615
ski 0.29070464 0.024515105 0.8548301 0.5581064 0.3103778 0.09970398 0.7500484 0.6552116 0.4342207 0.47293732 0.357672 0.41955867 0.14187664 0.5173543 0.86762625 0.18868417 0.51568186 0.549196 0.31762603 0.3508885 0.40608287 0.7474735 0.22841081 0.33574256 0.8940949
cringed 0.4677557 0.20508158 0.61472124 0.37465155 0.9309988 0.9258968 0.058175612 0.8735569 0.8747589 0.24602914 0.70734406 0.21698278 0.9302747 0.41834354 0.477121 0.5674055 0.41412362 0.925421 0.049974445 0.49890938 0.47060993 0.075473055 0.031392947 0.5727738 0.42313468
give 0.4251799 0.21860771 0.35721418 0.33199942 0.80977076 0.87556136 0.3397328 0.8392197 0.2066316 0.9349676 0.9205824 0.0076391213 0.16034038 0.9849919 0.4788202 0.31728163 0.69152087 0.81449014 0.16516808 0.30059466 0.084130734 0.019027123 0.3194656 0.39580414 0.90681773
hot 0.5659564 0.14623629 0.66662306 0.8893778 0.22274275 0.16333114 0.33714777 0.578826 0.82331306 0.2758366 0.017003344 0.739243 0.63806415 0.38357913 0.45987323 0.46998382 0.82363546 0.47478083 0.86798733 0.572838 0.11676126 0.0063254666 0.60235095 0.7526603 0.92669636
had 0.54931223 0.006216232 0.44091114 0.06721557 0.5732789 0.49038768 0.7584411 0.1980211 0.40386933 0.79927 0.12702231 0.33775526 0.58981436 0.45084912 0.69154024 0.79636514 0.3090465 0.9602534 0.33876023 0.75363094 0.4571092 0.6306413 0.7676925 0.21757583 0.38345504
hate 0.9196154 0.87507045 0.78117734 0.12983644 0.7909982 0.20937428 0.50992876 0.26432052 0.025662154 0.6328051 0.43466303 0.74760884 0.9093823 0.949638 0.38221943 0.065661445 0.71884024 0.2060388 0.41297102 0.8132954 0.8493974 0.31363896 0.36095127 0.28496993 0.44709504
hope 0.30972865 0.038441222 0.8446532 0.87215173 0.16555813 0.55144536 0.86663777 0.29353815 0.26233417 0.38519812 0.61907166 0.8619724 0.96342576 0.42740798 0.9919033 0.42125392 0.06669371 0.57831794 0.41625395 0.5320001 0.35310003 0.3248321 0.57292265 0.44684634 0.52731925
knew 0.22152813 0.6580057 0.6042272 0.111092396 0.75769687 0.9974105 0.27617332 0.2562851 0.33090818 0.49119982 0.45456532 0.834464 0.8334049 0.31218493 0.22896878 0.770407 0.20571779 0.2608979 0.35245216 0.63882524 0.9739731 0.7840462 0.9215776 0.37695307 0.9556226
like 0.7170089 0.10389033 0.7777389 0.0040140464 0.5220884 0.19731274 0.9887432 0.06941502 0.5607745 0.75678974 0.21272562 0.5375547 0.84670717 0.9934718 0.6946596 0.390884 0.783709 0.862998 0.51162696 0.1915352 0.43744576 0.49954578 0.9005576 0.5140471 0.5939829
love 0.08935697 0.50896835 0.18216631 0.3876842 0.2431605 0.10987592 0.9023711 0.14751333 0.15407781 0.32872826 0.6110566 0.3560175 0.63503146 0.8021493 0.64349705 0.2635476 0.09265125 0.30750895 0.79292303 0.24410212 0.48645493 0.2701369 0.98530364 0.37553015 0.14908473
mean 0.5233134 0.5128953 0.472941 0.046479736 0.21714497 0.73695564 0.49067 0.60648185 0.93837357 0.14840634 0.7480356 0.72150594 0.15389033 0.56413114 0.118274346 0.21100345 0.28026283 0.8302687 0.85387635 0.05561562 0.05286101 0.92132586 0.49536547 0.12592843 0.9533714
must 0.6773198 0.6519073 0.5022963 0.76660216 0.47092035 0.61061484 0.43198466 0.5698595 0.048024762 0.6354233 0.7778743 0.13887824 0.67595 0.054175247 0.46517438 0.1517356 0.35787874 0.52249694 0.3992075 0.47594288 0.4122479 0.12241018 0.9350568 0.7503607 0.72456646
need 0.56775016 0.13132806 0.32698968 0.3886752 0.18312629 0.9125792 0.4817985 0.0892438 0.5336354 0.93796706 0.16459812 0.31560636 0.5350318 0.35341102 0.7338843 0.9567569 0.15873356 0.93811643 0.5785873 0.3225664 0.857035 0.27629438 0.27004233 0.52427894 0.5973975
noticed 0.022861168 0.61521196 0.96005523 0.4024469 0.76844674 0.41655526 0.60241807 0.5433838 0.9427248 0.58741117 0.5270584 0.13175495 0.2697533 0.1077388 0.3789619 0.089473106 0.06679315 0.85508806 0.9234117 0.8877966 0.65684366 0.06903667 0.50771785 0.33239987 0.4816928
promise 0.83942693 0.090393834 0.92277056 0.69636124 0.06290553 0.7122159 0.34406844 0.03829446 0.46573395 0.62985194 0.13648851 0.45358837 0.40520084 0.5994296 0.46537474 0.54714257 0.6716171 0.1307071 0.40405372 0.56283826 0.048765 0.79264617 0.7335862 0.02117694 0.5846794
said 0.15220404 0.93874675 0.36303958 0.7714317 0.14956363 0.87266415 0.4295095 0.5060136 0.91405 0.14215043 0.74654657 0.7835863 0.25957555 0.37916964 0.3826746 0.30204594 0.271468 0.5423348 0.1673739 0.99917674 0.3215164 0.060986165 0.7680944 0.8852894 0.9428776
one 0.6290376 0.8852242 0.9747848 0.12497478 0.66097975 0.9896428 0.13117309 0.0053030867 0.79785806 0.28504696 0.21396759 0.4959438 0.5646061 0.64443094 0.81398696 0.62294644 0.48291594 0.085788526 0.8273301 0.10190205 0.6100016 0.4597526 0.22689174 0.4995129 0.8783761
tripped 0.2861782 0.42005092 0.68490565 0.046231538 0.8091457 0.7634917 0.45792815 0.8615907 0.17580928 0.3496974 0.44204068 0.3142489 0.55636835 0.31265998 0.3328392 0.64042 0.60644805 0.49673992 0.49044856 0.6102698 0.3740312 0.49022514 0.68391633 0.17906792 0.15807907
want 0.2985956 0.38814774 0.24566974 0.9844445 0.7901468 0.59872764 0.95171326 0.5110849 0.84564286 0.04666561 0.71745634 0.8852383 0.17199512 0.20273264 0.87548083 0.9411249 0.69313824 0.097198576 0.26363906 0.621474 0.63698137 0.7974512 0.12598543 0.9940429 0.7452655
was 0.8387878 0.4189956 0.4175131 0.9900898 0.05375349 0.7613338 0.5983472 0.8585523 0.07546948 0.26043424 0.078582495 0.12544766 0.5149296 0.11939332 0.02540113 0.39870593 0.9779783 0.43886623 0.14430195 0.010426382 0.24194528 0.53651345 5.037013e-05 0.24068058 0.36386502
will 0.09120617 0.05105223 0.22075257 0.9478113 0.3419672 0.76725584 0.951724 0.60266054 0.2211741 0.11679936 0.7765291 0.5487866 0.8386845 0.686049 0.85267067 0.76067275 0.7899725 0.35868737 0.5234782 0.6215419 0.9049107 0.33586642 0.5514505 0.64770967 0.4572927
woke 0.9855566 0.6406762 0.78410995 0.40792435 0.2172746 0.2654357 0.40339038 0.6544621 0.40135136 0.93778336 0.44721407 0.87037253 0.14621153 0.8080479 0.32354233 0.008362337 0.7158405 0.374764 0.8461739 0.6091465 0.3675099 0.045051895 0.7172697 0.91537374 0.91615945
i'd 0.2735346 0.41882885 0.28970525 0.9903277 0.62251616 0.25941277 0.018392371 0.51493335 0.062734626 0.25253966 0.5835216 0.48265153 0.8680631 0.20722587 0.88897777 0.91349447 0.043955885 0.84814566 0.9972419 0.29980236 0.5701356 0.6604278 0.4207073 0.8641589 0.723902
cook 0.2937255 0.19093278 0.3662136 0.6585787 0.373197 0.01610262 0.27734712 0.7123459 0.49479976 0.28421143 0.8353046 0.23837332 0.78955084 0.114133306 0.7212792 0.63856214 0.22865212 0.27465227 0.6145228 0.3284105 0.2709539 0.46861058 0.17792572 0.20351268 0.027767135
live 0.45788056 0.5225478 0.020687815 0.42673668 0.6705835 0.38880756 0.6474447 0.6795716 0.108712785 0.31096044 0.27568224 0.49572527 0.04996424 0.54353654 0.08103992 0.94543076 0.06247922 0.5250519 0.3160458 0.7442223 0.39854383 0.058851816 0.45161718 0.15812892 0.31946275
obey 0.9504361 0.92321277 0.22735265 0.49283078 0.5527685 0.60452425 0.54067594 0.97611475 0.60711914 0.47753555 0.5330758 0.75399625 0.1275121 0.4718607 0.93603 0.49334115 0.029906306 0.76976925 0.500725 0.65846264 0.3638078 0.45857295 0.88291687 0.9988029 0.043087672
pack 0.68517905 0.08833948 0.6894563 0.5969603 0.56453437 0.64902097 0.46123672 0.24902192 0.90991795 0.96277815 0.46602368 0.47588632 0.6666656 0.06483235 0.07490592 0.021804089 0.24877903 0.7898205 0.46193603 0.49521655 0.4795802 0.37758672 0.7879151 0.19315095 0.26511613
pass 0.6594317 0.7672928 0.1558436 0.43727887 0.21082105 0.66863734 0.5422847 0.22060888 0.31011367 0.65269107 0.47072926 0.14250186 0.2693358 0.38355815 0.40107268 0.77593803 0.95372516 0.5024588 0.6340625 0.400661 0.42885998 0.6593307 0.41978574 0.16813831 0.73846096
sing 0.15826958 0.9177272 0.6524501 0.9055166 0.8668944 0.062470943 0.8095904 0.018089226 0.31383106 0.4665217 0.65142524 0.9489894 0.6101189 0.6073499 0.4181899 0.26489294 0.35134348 0.523263 0.6348008 0.082449235 0.3722121 0.7668329 0.051443078 0.12150045 0.63491285
swim 0.6754787 0.97972745 0.3580601 0.7024065 0.0009643939 0.39871645 0.88408643 0.19246937 0.049343023 0.20929053 0.5500933 0.7700891 0.6040485 0.85145 0.18333556 0.29882213 0.23308885 0.58635414 0.14675212 0.39978892 0.7764765 0.4588684 0.2103744 0.1388611 0.028939854
walk 0.615735 0.56645876 0.3847198 0.36428553 0.560983 0.6342578 0.6139534 0.50799716 0.14980794 0.81385523 0.17115283 0.763799 0.07979251 0.9034231 0.009208519 0.39583147 0.7196812 0.49982238 0.5700243 0.99586195 0.47199887 0.8962078 0.33578172 0.6729876 0.010074693
work 0.7090254 0.78238285 0.89496547 0.9207054 0.67579794 0.90645015 0.9548103 0.38850898 0.39529482 0.4026569 0.6245134 0.58727115 0.73002964 0.57299757 0.61858815 0.01173991 0.682445 0.6044892 0.79068583 0.961903 0.34117168 0.34777784 0.96879905 0.6306658 0.6767586
cop 0.4440057 0.23333259 0.8965057 0.16469078 0.03489518 0.30111405 0.33033475 0.24690776 0.24768727 0.28435895 0.5426567 0.50760084 0.86263895 0.409817 0.5807185 0.30893517 0.6545872 0.6052563 0.39563683 0.26279852 0.12922342 0.8558612 0.09595578 0.57384247 0.853142
alone 0.5396257 0.039095145 0.37132037 0.6907649 0.6911984 0.5294171 0.4708637 0.34557888 0.11218799 0.33745316 0.06984936 0.67258704 0.6848292 0.8641975 0.02335963 0.8431126 0.71567285 0.08331814 0.8308909 0.23200844 0.7615186 0.9918237 0.4450141 0.86946887 0.8536893
armed 0.4506747 0.9687487 0.5475298 0.45086485 0.35959837 0.8108791 0.8059277 0.85498327 0.77233 0.036726836 0.6891695 0.3804805 0.8295625 0.58516026 0.6466661 0.678285 0.72259516 0.102962814 0.9651499 0.40096793 0.5305776 0.48266274 0.37714514 0.17176789 0.06991884
awake 0.5136548 0.078373946 0.97590816 0.5984389 0.0086090565 0.9624472 0.659413 0.8758632 0.8960032 0.110036254 0.8574322 0.6787577 0.8775616 0.89186895 0.073657006 0.20107344 0.674569 0.7805309 0.94465256 0.96223384 0.07251955 0.62134695 0.8375764 0.4082291 0.14729288
blind 0.117348686 0.4583499 0.94184613 0.5594075 0.500738 0.043754764 0.42584285 0.22846189 0.77458954 0.34540036 0.64080334 0.07360347 0.51712716 0.64328605 0.45044056 0.54218876 0.2340538 0.72415864 0.23160164 0.30708796 0.7415133 0.00093874877 0.80645573 0.9210736 0.04493193
broke 0.6108709 0.8935638 0.076374136 0.8237243 0.47422802 0.9184046 0.4263022 0.39106658 0.21149433 0.60245824 0.24658272 0.30792186 0.9995751 0.43904507 0.5301623 0.40508932 0.12131779 0.6130221 0.41783282 0.9126062 0.27360034 0.6230791 0.050896917 0.26380965 0.12470998
crazy 0.16964656 0.99376714 0.5107091 0.39661452 0.082387544 0.92100865 0.19925985 0.12273616 0.20734209 0.83526504 0.07302525 0.44960627 0.7354741 0.9503614 0.5711506 0.589045 0.89859116 0.17500669 0.26822826 0.55189174 0.91076 0.71803135 0.62258804 0.24136792 0.89691854
cured 0.96570504 0.79806924 0.8255496 0.7324715 0.8082871 0.9089065 0.34776977 0.024989221 0.3475658 0.80819845 0.9074732 0.37642485 0.64484334 0.946788 0.47186768 0.44266146 0.4285949 0.675397 0.86029685 0.69584817 0.43408793 0.6735952 0.647014 0.6282049 0.0026389707
drunk 0.13125788 0.010194869 0.339843 0.8142854 0.4974755 0.55935 0.050681107 0.7017019 0.6113446 0.4107375 0.41507983 0.8119844 0.44633552 0.41133785 0.9186787 0.8493758 0.84680253 0.38563883 0.65952873 0.9858309 0.94621027 0.86261153 0.93342066 0.49991322 0.26826105
dying 0.4978932 0.8933764 0.94270825 0.7000436 0.1307026 0.12321555 0.31866014 0.29239947 0.22846818 0.6690662 0.29742697 0.90053356 0.85472924 0.348164 0.7063251 0.54007196 0.7221455 0.19111812 0.35018054 0.30442375 0.90933526 0.72518754 0.26049173 0.5349366 0.5581765
early 0.27181402 0.5715826 0.2792211 0.91852313 0.94092727 0.68134224 0.10184336 0.3612629 0.8100322 0.11411901 0.7022805 0.7584369 0.9649009 0.047622263 0.21634862 0.907467 0.5684368 0.290667 0.034702666 0.7559723 0.6357848 0.044344634 0.3549797 0.7038842 0.5333819
first 0.29267734 0.12864217 0.72569793 0.053265247 0.09896268 0.013715986 0.062193796 0.32970032 0.68221045 0.5622652 0.23337139 0.12189387 0.5648539 0.79688925 0.49251494 0.7007198 0.35342398 0.6090224 0.9947158 0.9778494 0.06255766 0.6370324 0.49217173 0.4604106 0.8324391
fussy 0.43038478 0.12030474 0.2664754 0.38223144 0.73037463 0.43152604 0.9229953 0.6576998 0.83912957 0.2091582 0.5000446 0.88853484 0.34525955 0.8108168 0.49193007 0.9280237 0.6830399 0.7998423 0.035254925 0.8973742 0.74562544 0.38977218 0.41525853 0.5640379 0.7184877
going 0.9920013 0.37696183 0.92388475 0.9932356 0.47499353 0.2633834 0.18201913 0.68287677 0.79319024 0.5644574 0.18868937 0.4256493 0.90486914 0.4438194 0.38596928 0.65654755 0.96377283 0.7231812 0.59094393 0.07793898 0.34782958 0.50631297 0.8212831 0.50750333 0.74770564
loyal 0.8049264 0.5278997 0.4135047 0.9450061 0.5223433 0.98662156 0.9941116 0.49721593 0.54980403 0.25240478 0.6704831 0.94434935 0.956384 0.54230917 0.41194648 0.5984362 0.5760088 0.41998518 0.3978221 0.98586166 0.05781869 0.9124295 0.96323025 0.8701443 0.9867475
lucky 0.26924938 0.23379424 0.2218419 0.34838217 0.031351306 0.14458664 0.0440375 0.31294256 0.026592689 0.90960836 0.11086423 0.20230024 0.6775308 0.39963174 0.74519336 0.8118846 0.1572166 0.9887521 0.6334536 0.5791123 0.82175326 0.45195025 0.5031082 0.10459067 0.44834778
lying 0.44187564 0.49945754 0.33433396 0.7073366 0.21667148 0.6975074 0.30800027 0.72561806 0.40735653 0.8349283 0.57141757 0.9772713 0.80342174 0.66443557 0.9832958 0.27945164 0.27677992 0.7233629 0.8513616 0.92474735 0.00954437 0.84253776 0.54361695 0.4977323 0.56049097
quiet 0.44076288 0.9936559 0.9155031 0.28320077 0.34248835 0.57331973 0.84800845 0.5320397 0.60572106 0.1366712 0.26645988 0.39009574 0.1764907 0.9225627 0.15664646 0.36437017 0.72188723 0.8598743 0.680487 0.9514768 0.89676374 0.06911612 0.7218341 0.058227956 0.7752201
right 0.45983025 0.5839647 0.79419774 0.83668965 0.15829968 0.35986003 0.54939836 0.5830277 0.09027538 0.05123918 0.96760756 0.95947385 0.3749963 0.5323791 0.68066716 0.59538305 0.66896063 0.16238962 0.5827216 0.94613487 0.83657795 0.30702725 0.5091683 0.0030244126 0.9453347
sober 0.8583989 0.3102385 0.4820498 0.32630214 0.0631559 0.4075257 0.3259309 0.021635389 0.29076216 0.025235109 0.25714222 0.3567391 0.6767002 0.46584213 0.5136272 0.5654812 0.9986146 0.03855997 0.93117726 0.16252653 0.5135663 0.28726378 0.65494066 0.46384457 0.8704156
sorry 0.85682696 0.8893094 0.90766907 0.013082306 0.6577193 0.41778445 0.4338972 0.2964059 0.11077659 0.11574131 0.48686594 0.8217232 0.28921968 0.32475388 0.5502437 0.6391508 0.49674723 0.81444496 0.09485029 0.25609022 0.7465396 0.291701 0.7935493 0.8418933 0.87933815
stuck 0.2013325 0.75593615 0.8042701 0.6577481 0.95731753 0.92924243 0.54280514 0.85113764 0.58753616 0.6627067 0.3875579 0.6998148 0.53768915 0.27097568 0.88309073 0.3070169 0.9449823 0.32051092 0.86209077 0.31289372 0.09914702 0.651203 0.23972861 0.7597485 0.9375121
timid 0.6621089 0.11680681 0.3508322 0.22188741 0.62485474 0.30544975 0.5960535 0.004201178 0.80056447 0.037865713 0.35312685 0.14995593 0.7504391 0.2110058 0.85757333 0.42053416 0.60998154 0.8565544 0.40085894 0.9085117 0.5287221 0.08029569 0.76308566 0.1365457 0.6472908
tired 0.25712788 0.2867954 0.3900867 0.011007645 0.19450733 0.010865681 0.6824982 0.73329604 0.58620334 0.5057178 0.58168626 0.88630724 0.38895264 0.9632098 0.93536466 0.16134131 0.3996478 0.8845851 0.086102955 0.12895717 0.5829844 0.77443385 0.4816122 0.8225189 0.7968758
tough 0.88976425 0.8366889 0.23362803 0.47169372 0.91723686 0.8272702 0.75848913 0.28813663 0.79942584 0.1753593 0.32462838 0.6261328 0.69954854 0.9201792 0.7185978 0.5807504 0.8491622 0.91269535 0.23325355 0.49796298 0.82125556 0.95116365 0.82341653 0.6338575 0.18311535
yours 0.36961654 0.8605433 0.02858585 0.3785719 0.8168558 0.08803048 0.27118433 0.023519343 0.49252945 0.92448044 0.51605344 0.7214379 0.7648368 0.19418347 0.24928486 0.098535396 0.11976612 0.6200393 0.82336926 0.465653 0.6945179 0.67315215 0.2619789 0.37306702 0.27667376
bad 0.36042416 0.41036242 0.19495016 0.5911642 0.9101799 0.25786805 0.92754364 0.24800825 0.17947778 0.23603451 0.77734286 0.3550139 0.7394432 0.57704115 0.4764235 0.45065895 0.1387924 0.74599624 0.1758403 0.6590107 0.08977227 0.060755566 0.7113087 0.61807466 0.5550101
far 0.68842846 0.028474757 0.24368007 0.98006487 0.8918353 0.60704476 0.45849273 0.15159118 0.6810806 0.9362728 0.31970993 0.273992 0.47293308 0.36145625 0.063425586 0.3401594 0.6820932 0.46250308 0.6793962 0.9341408 0.7094163 0.6658753 0.74634486 0.9979379 0.008681874
failed 0.6502381 0.8514392 0.5881972 0.7593629 0.3119067 0.5193684 0.09669011 0.22405005 0.882811 0.5805475 0.24748348 0.6944516 0.013958977 0.75571865 0.57323945 0.4325839 0.70413023 0.26160276 0.16609186 0.2516583 0.5337469 0.9287467 0.77705646 0.21897377 0.54364306
snowed 0.47695792 0.72997004 0.14506353 0.07921349 0.76697314 0.60099334 0.7398283 0.5432865 0.979618 0.36345947 0.6455647 0.0148489205 0.31367457 0.70201606 0.6814045 0.6715955 0.67091775 0.46512017 0.22647402 0.50476193 0.3004819 0.23989317 0.36452025 0.86247295 0.5138766
stinks 0.13107982 0.5155448 0.52132684 0.8923521 0.6467208 0.24544063 0.13342893 0.56729406 0.23167655 0.62131125 0.3551468 0.8703786 0.18840493 0.7476002 0.17143102 0.17202273 0.37948316 0.27237114 0.96639603 0.5561513 0.17478494 0.5912547 0.6666813 0.44978526 0.1001388
worked 0.60941 0.751795 0.40349 0.76236176 0.009171814 0.690342 0.5504715 0.39275044 0.09192882 0.5800815 0.51606035 0.26490986 0.6611873 0.6072476 0.7534342 0.9011319 0.7890865 0.6906809 0.48288247 0.5830363 0.25712267 0.6745328 0.27887297 0.91281486 0.2951353
3 0.33132118 0.2401301 0.5727063 0.94793 0.9607089 0.6258883 0.2235218 0.07278904 0.2644663 0.6134686 0.5747591 0.40241945 0.40631646 0.87688494 0.16160563 0.29863557 0.18750356 0.99018157 0.78566587 0.37647966 0.8201645 0.9990645 0.1125323 0.27182278 0.023726448
: 0.48048586 0.45533344 0.47967985 0.23553057 0.32857284 0.14172515 0.06258738 0.43479702 0.53369766 0.6386169 0.42957324 0.85529935 0.64067173 0.8557522 0.46715105 0.5746174 0.43161485 0.5857216 0.87997496 0.5736756 0.058123816 0.73883754 0.065885395 0.56949407 0.4770824
30 0.29019654 0.6383935 0.55959696 0.19264197 0.83134425 0.5201839 0.58264714 0.6662159 0.7211182 0.32799634 0.007897646 0.002361024 0.25491393 0.12760682 0.20698299 0.49980178 0.040411346 0.7382708 0.6364421 0.93468124 0.17554665 0.28174964 0.6396872 0.93683004 0.533878
dark 0.7039942 0.6446256 0.9233186 0.067548566 0.37710285 0.465715 0.64479214 0.92619157 0.89588344 0.67087924 0.30287522 0.07170443 0.5866662 0.6010169 0.7409082 0.6893692 0.90287864 0.5150845 0.64107007 0.5143664 0.6861617 0.18072778 0.3585768 0.32856542 0.22303483
dead 0.3974576 0.045795195 0.3241126 0.30885583 0.14238681 0.42978546 0.99023473 0.85357994 0.8786076 0.3893737 0.99829584 0.5691967 0.97984684 0.4804921 0.06806214 0.62080604 0.33167338 0.7439163 0.21068864 0.10660781 0.5088128 0.75459355 0.29358777 0.9756914 0.45571977
food 0.028417526 0.78451484 0.7210916 0.27293104 0.69307816 0.5036977 0.3655168 0.038523503 0.5586085 0.31866166 0.16233817 0.5337143 0.35797992 0.97168285 0.3878048 0.33689034 0.42256403 0.854621 0.06727391 0.93143976 0.71164054 0.1209572 0.5995884 0.9193642 0.47482955
hers 0.91991264 0.93141216 0.622643 0.6668409 0.6695237 0.92498994 0.9441523 0.5408536 0.17314883 0.85960793 0.42178234 0.8006029 0.76064354 0.7325286 0.61680984 0.34183002 0.50098926 0.6492968 0.61742467 0.54650164 0.42359182 0.51115257 0.79181105 0.74331135 0.08320143
sand 0.9276058 0.52472335 0.37805113 0.78845954 0.48481762 0.58809006 0.75835836 0.34903073 0.028714815 0.0836368 0.44204125 0.010639541 0.87439054 0.8056519 0.46675637 0.37144867 0.7937377 0.68156826 0.4533245 0.82249874 0.489786 0.2793229 0.58736837 0.7146966 0.30992112
true 0.58871305 0.42191464 0.5917951 0.5285118 0.5928567 0.86949056 0.72030437 0.54677254 0.84130114 0.6231592 0.27418575 0.6012523 0.88446295 0.21525723 0.573839 0.24966474 0.14539716 0.41084334 0.8692788 0.24048786 0.46950704 0.736223 0.836542 0.83702123 0.90924484
let 0.15167513 0.12570511 0.25200772 0.607596 0.79753464 0.70202035 0.6213971 0.7601256 0.88548726 0.99710345 0.30968925 0.44002056 0.3338896 0.592995 0.822558 0.71155715 0.6514231 0.9181827 0.04275056 0.050286703 0.3162043 0.5824637 0.74909 0.19345719 0.93691766
loosen 0.42120594 0.16510105 0.57603735 0.08381924 0.98065424 0.6236417 0.40552813 0.8168802 0.6800673 0.14568102 0.27011552 0.039795596 0.45243004 0.030407788 0.60473126 0.84751034 0.18962054 0.89277554 0.6114381 0.17551453 0.85260123 0.8816793 0.6966388 0.47837985 0.9899262
shot 0.8747934 0.6533041 0.46158248 0.22504471 0.25090143 0.7961248 0.32447502 0.53033936 0.5445141 0.5905417 0.12565586 0.74183446 0.6258221 0.29883128 0.39877817 0.47901535 0.7212053 0.30087098 0.9847778 0.8737843 0.11463666 0.23739502 0.96928984 0.53782016 0.5585475
of 0.95437217 0.59108865 0.85603744 0.036327224 0.42135897 0.7624225 0.51382303 0.26103854 0.68466204 0.7165401 0.683485 0.10956964 0.69614905 0.5634654 0.40674436 0.28896835 0.0049013384 0.10192583 0.93405235 0.36986074 0.67363286 0.5014265 0.8850779 0.1784167 0.58943933
course 0.24510361 0.7169058 0.29522023 0.91672355 0.28650138 0.7027861 0.22967197 0.10711178 0.072329864 0.20194362 0.7018536 0.8729215 0.7836862 0.54718995 0.15357104 0.41526446 0.26278058 0.3290648 0.7727693 0.40665478 0.9669923 0.5246941 0.6065498 0.2131655 0.0658154
please 0.020480953 0.40967366 0.83975375 0.39146715 0.7260698 0.7004428 0.12795782 0.46292803 0.8911059 0.57661486 0.7399681 0.42737013 0.7594303 0.43983725 0.8494185 0.9456367 0.42750287 0.1308267 0.36824474 0.6688727 0.76483595 0.654322 0.1637477 0.32942954 0.5950404
pardon 0.39419675 0.062463243 0.6204824 0.07637932 0.108456835 0.8409087 0.6994631 0.48488057 0.044951294 0.28763568 0.483243 0.03784437 0.51439214 0.029635381 0.11093163 0.28680077 0.15956047 0.65674615 0.8708552 0.2612135 0.034389865 0.82396275 0.2871777 0.5402168 0.40532696
read 0.21261169 0.7424827 0.10551782 0.29466873 0.37887433 0.7447458 0.50735825 0.3902225 0.42659235 0.07398753 0.38011578 0.38378572 0.30030245 0.30175388 0.6114083 0.84878397 0.8900615 0.30001256 0.071530096 0.033050068 0.1489088 0.35427254 0.08572575 0.84071934 0.14346942
say 0.4469184 0.61986893 0.4364407 0.09308599 0.53676134 0.58600324 0.73135656 0.16815685 0.65774155 0.74613583 0.21784371 0.767208 0.09940029 0.53224015 0.1567099 0.43062305 0.3854982 0.70417917 0.31866887 0.5516377 0.44771108 0.68425184 0.6419043 0.24595611 0.24560316
hello 0.42326272 0.17315955 0.1897489 0.031619504 0.07039832 0.84256256 0.24979159 0.88295346 0.16888517 0.83860123 0.6426592 0.47311836 0.004445853 0.88692456 0.20791598 0.27060026 0.54936135 0.3777079 0.7925889 0.72198695 0.16695313 0.4247747 0.27225944 0.5504824 0.2565363
above 0.40726033 0.27400368 0.40989354 0.2635686 0.58124036 0.96010643 0.55853516 0.63335115 0.7112728 0.86084485 0.7486867 0.29427996 0.9230388 0.011178699 0.18688585 0.26600263 0.6501292 0.014026552 0.10294323 0.419901 0.6949037 0.5586048 0.26543316 0.4394601 0.827472
seriously 0.5199252 0.8709709 0.43041772 0.29931766 0.5673306 0.887197 0.36753628 0.48905244 0.3579975 0.64214367 0.41199335 0.59944874 0.26620662 0.1719376 0.12040141 0.18401338 0.37896317 0.6718292 0.6765232 0.7037046 0.27973998 0.7383748 0.8979645 0.3041444 0.19461673
cried 0.93220145 0.24304575 0.008168529 0.14046018 0.34962937 0.95472807 0.06768074 0.09708459 0.098340966 0.8645089 0.07158035 0.792894 0.38251612 0.0195916 0.38738704 0.8096135 0.1393596 0.70712316 0.28593546 0.9218927 0.89522725 0.62944627 0.8000868 0.10145931 0.0801635
walks 0.7323937 0.5900217 0.66054505 0.16977265 0.4311883 0.0014332655 0.1762916 0.24203661 0.11131209 0.9519466 0.25699311 0.9415625 0.3745141 0.10754855 0.6893955 0.9972838 0.5781839 0.46185702 0.67663884 0.5808031 0.38076496 0.24247389 0.0016511693 0.9984286 0.27577627
she's 0.21857767 0.5924185 0.094538674 0.32190806 0.96350926 0.41955867 0.29220986 0.98021173 0.9272322 0.14112745 0.67172265 0.01858577 0.6334068 0.91795975 0.89435095 0.80282676 0.071193226 0.28344658 0.84494835 0.9185142 0.7348301 0.37025917 0.6073172 0.85004765 0.03879778
sign 0.95518625 0.73564184 0.62005097 0.12587003 0.086920165 0.39495885 0.6298067 0.22303344 0.42481393 0.8599555 0.8715765 0.71938974 0.94304955 0.38316748 0.99984837 0.26478797 0.8771234 0.9042795 0.28503123 0.5143861 0.14721525 0.8164447 0.82106894 0.34712753 0.8475999
stay 0.54320526 0.06979741 0.84316796 0.2709806 0.7726575 0.4421864 0.54259175 0.018899681 0.94391185 0.71220505 0.01706588 0.04142611 0.19214179 0.9096828 0.11409548 0.64142096 0.17344604 0.8442241 0.63419026 0.3026834 0.7489752 0.31891143 0.69233155 0.6385376 0.18102223
care 0.1377124 0.05350897 0.53452015 0.97936475 0.22304359 0.68450415 0.048909437 0.88421375 0.67634743 0.6434566 0.9449715 0.92454064 0.6070393 0.156576 0.8754692 0.0911466 0.22277696 0.17465302 0.4006616 0.8472031 0.89870125 0.9799031 0.60230666 0.22818539 0.49452683
mine 0.30405048 0.4269134 0.004509807 0.6663762 0.058737207 0.5175377 0.66166115 0.012041947 0.93580294 0.33070987 0.32633302 0.4535524 0.95066726 0.3377772 0.38482347 0.8432148 0.30501312 0.26695427 0.140808 0.43576074 0.7534545 0.37072924 0.6664354 0.33729422 0.4086204
thank 0.9020665 0.6693514 0.9629121 0.5730205 0.7511273 0.6102704 0.98213965 0.658382 0.29086477 0.9227453 0.60840285 0.9894486 0.006904722 0.33001706 0.2894887 0.2791086 0.13944319 0.20847808 0.6621187 0.94205153 0.108194046 0.4494454 0.46081042 0.098395385 0.39929876
that's 0.6515635 0.16016884 0.2846323 0.8546925 0.54431736 0.92338806 0.9968458 0.034523167 0.6031906 0.14180347 0.46349633 0.8783071 0.98031896 0.8404837 0.15820138 0.7953939 0.36628452 0.11463773 0.177572 0.29825023 0.53412664 0.42482683 0.43691802 0.0009744054 0.5590691
lied 0.03187061 0.19180097 0.5069906 0.1757202 0.8881078 0.49908206 0.8988279 0.9493786 0.26928672 0.2027258 0.5310288 0.9170566 0.09941186 0.1229053 0.18027197 0.55652267 0.34660673 0.82145596 0.76105875 0.12106515 0.30105206 0.8039885 0.83531344 0.94042563 0.20836377
swam 0.6150242 0.5173523 0.7418301 0.73843366 0.642464 0.80022615 0.4410981 0.73409826 0.9250716 0.8749034 0.20752726 0.34658828 0.673786 0.823791 0.5523626 0.25832802 0.21129851 0.65456146 0.7074121 0.74134463 0.5370011 0.56274736 0.82698447 0.6172846 0.014189712
knits 0.04703587 0.84172314 0.9960748 0.97929305 0.31305844 0.55210793 0.595484 0.25433302 0.032039616 0.5310808 0.5419701 0.91836613 0.62121296 0.519175 0.6614596 0.9166513 0.641806 0.31638652 0.48857275 0.64353025 0.4889038 0.082546614 0.2220732 0.9845099 0.5843295
knows 0.24887727 0.7561911 0.6107788 0.2318248 0.3313941 0.4908263 0.538512 0.8773869 0.46532366 0.96679926 0.32630718 0.40249214 0.39030623 0.2613952 0.40267384 0.97829723 0.38867813 0.6729192 0.12083639 0.032537866 0.57666963 0.47193813 0.03715877 0.825654 0.6559807
spoke 0.42603624 0.052542187 0.26359025 0.36406833 0.7916363 0.17349282 0.18834317 0.72443396 0.11872997 0.94695127 0.6692857 0.912184 0.52814966 0.688449 0.3135617 0.04831717 0.6973237 0.46076417 0.9422131 0.1553217 0.23327234 0.27001444 0.5366696 0.8023075 0.22290531
tom's 0.78719205 0.24445687 0.90692383 0.7874076 0.050931387 0.91146344 0.53064644 0.39138559 0.6582327 0.87884545 0.8094445 0.0667165 0.25605613 0.13617864 0.9979678 0.22867946 0.8202344 0.06837241 0.0023862014 0.68084806 0.11943642 0.09550843 0.9208104 0.59131086 0.24486995
again 0.20481643 0.9156809 0.5299785 0.2694907 0.998785 0.83471197 0.22568047 0.31057516 0.6732273 0.37101084 0.2413345 0.3312283 0.9520146 0.36059877 0.564156 0.111829996 0.29704285 0.5627508 0.11704848 0.45620346 0.4578582 0.9926774 0.18547043 0.30356932 0.6945601
turn 0.9800993 0.93109596 0.08240431 0.6054383 0.5053792 0.30425328 0.061757643 0.37924254 0.8122818 0.25090778 0.9175548 0.35093945 0.026485277 0.17340276 0.10726335 0.44524804 0.93284327 0.39254624 0.33840698 0.9113195 0.5137576 0.9936865 0.33165807 0.67934793 0.7410969
agreed 0.15283705 0.44501695 0.8489305 0.3756925 0.75859666 0.5281498 0.19494337 0.83945847 0.6666373 0.17752388 0.88566655 0.3450016 0.8280381 0.8593067 0.19683295 0.95182884 0.71954775 0.6802795 0.21448717 0.7003872 0.83567953 0.53761333 0.88729614 0.33386984 0.86481816
talked 0.58336836 0.5436398 0.4247638 0.25930065 0.51346976 0.34061763 0.2706769 0.8948933 0.5491522 0.76198524 0.94102246 0.026146032 0.27191865 0.5713799 0.29249942 0.4142627 0.58533794 0.5323074 0.75849926 0.9746602 0.95606077 0.0851804 0.8494939 0.7527762 0.811065
waited 0.32610962 0.030565964 0.52656245 0.64729863 0.47738156 0.78592116 0.71661574 0.33312494 0.12938988 0.5076721 0.5419301 0.23420468 0.5893579 0.9635089 0.2029712 0.30190855 0.022840027 0.75550985 0.14938831 0.43213257 0.21509305 0.5597033 0.99234444 0.03090209 0.91303426
we're 0.12415549 0.60440826 0.5708547 0.1756618 0.91540545 0.17496026 0.26220497 0.7744531 0.07121447 0.8995895 0.5729962 0.91718054 0.8800706 0.6073907 0.28954655 0.74804366 0.12513687 0.08961781 0.078494914 0.4893474 0.6354663 0.665133 0.99157166 0.39639723 0.92127234
else 0.88876194 0.5819563 0.7653636 0.78929764 0.4135856 0.64389735 0.73374 0.8830461 0.64545447 0.39208922 0.62474084 0.06703381 0.34535992 0.8716394 0.49422154 0.5746981 0.39347023 0.2763674 0.88767767 0.32231236 0.34145758 0.52968097 0.1306735 0.9461479 0.33899248
what's 0.5767523 0.0923597 0.8409068 0.33992273 0.46540305 0.5938834 0.6416837 0.24174799 0.7317231 0.41611424 0.308347 0.31017318 0.94285583 0.29707846 0.9545003 0.30790466 0.6381932 0.4253502 0.9549493 0.13195668 0.9412591 0.5630889 0.8007067 0.87280834 0.4461064
cares 0.97732013 0.07625688 0.929881 0.065224685 0.40409878 0.3526912 0.5244942 0.2734567 0.68678695 0.48157454 0.98770076 0.41162977 0.3211983 0.7734111 0.84217 0.2956124 0.28365597 0.56499755 0.07284944 0.41441935 0.33621138 0.3056019 0.59506243 0.6762372 0.0019644357
who'll 0.8201196 0.97534 0.8957457 0.005922961 0.31791657 0.34796456 0.4916891 0.10107742 0.097015284 0.08768475 0.9445159 0.97721785 0.093046956 0.9321538 0.94199026 0.6069836 0.8653711 0.041767336 0.6952508 0.7909875 0.7989441 0.3960341 0.21293086 0.41488016 0.9467435
wonderful 0.83596516 0.2810838 0.46187115 0.767557 0.9436555 0.63676023 0.18602876 0.80570555 0.3963475 0.029088017 0.86331713 0.8043882 0.5699421 0.21960253 0.9544302 0.83950025 0.21907057 0.44894043 0.106724024 0.6790015 0.38783744 0.4746108 0.46440172 0.35778883 0.51288706
idiot 0.9380035 0.6861359 0.3481918 0.33311883 0.6147539 0.8436831 0.3644131 0.44493917 0.31358734 0.63854015 0.0032594013 0.09855264 0.4482484 0.6352431 0.06203262 0.7072911 0.8382531 0.58657074 0.011616844 0.48668075 0.6426929 0.14246684 0.4561004 0.23231542 0.295198
start 0.36279806 0.049876098 0.64425284 0.5452384 0.4095962 0.66318727 0.17821068 0.3854295 0.3984041 0.012059102 0.69715977 0.6092981 0.45309284 0.53232855 0.60373616 0.41160145 0.55237013 0.24929267 0.43589613 0.778165 0.84842366 0.3642597 0.03889694 0.56870323 0.5602988
all 0.28668886 0.7163375 0.34479356 0.30210713 0.4741538 0.007878759 0.55295855 0.59939885 0.12423597 0.26366568 0.63925153 0.8669639 0.2073151 0.6713485 0.43371296 0.5524556 0.025654454 0.9501362 0.7453743 0.5866351 0.64337164 0.9642454 0.21179645 0.43226922 0.49572298
aboard 0.5594023 0.95861006 0.084245585 0.7151577 0.46783283 0.53163415 0.45602345 0.2942732 0.48211336 0.028957644 0.6013367 0.77529645 0.88644266 0.42999977 0.3701991 0.059330065 0.9341792 0.31098342 0.63064426 0.58280617 0.45853496 0.8635314 0.9327606 0.04132629 0.71067834
clear 0.7233882 0.6115373 0.9357323 0.28991455 0.006582462 0.18945962 0.62489396 0.2468985 0.88309205 0.54947555 0.25239208 0.2406801 0.54878974 0.99014026 0.82099694 0.4344935 0.2535962 0.95992184 0.4683184 0.38846427 0.54648095 0.85517037 0.9821281 0.14429651 0.91646814
fired 0.59966767 0.74232 0.49504846 0.6959076 0.7451709 0.3454918 0.5693044 0.4961256 0.7178396 0.4091366 0.03675349 0.8047324 0.51765245 0.86438483 0.31831145 0.25720367 0.027007006 0.76304483 0.098938875 0.5484989 0.40485522 0.46204913 0.180934 0.4249616 0.22387064
hired 0.82841665 0.22724289 0.6091968 0.79811925 0.5801142 0.1571531 0.35556895 0.7483833 0.8127302 0.015991021 0.8888311 0.79655397 0.11700351 0.31825256 0.19337025 0.49352288 0.15202263 0.66871244 0.57129586 0.93939996 0.42000416 0.526398 0.9067042 0.7030095 0.4097917
wrong 0.26568118 0.7037826 0.036707107 0.92028236 0.92980987 0.61844087 0.44355556 0.2610542 0.016418064 0.7899129 0.64197665 0.8842673 0.2878284 0.5357599 0.36594516 0.27342442 0.76305825 0.15878548 0.4899019 0.96423966 0.47069445 0.6039587 0.24280849 0.19797902 0.20112993
are 0.4818049 0.22844812 0.45262876 0.31847322 0.008809176 0.82911795 0.797547 0.9887978 0.04100237 0.2932244 0.30186173 0.7954412 0.7125975 0.5652726 0.5900063 0.9034857 0.4180959 0.78404844 0.20997922 0.2623415 0.988746 0.9642067 0.29260254 0.87066156 0.6504994
anyone 0.41316867 0.15120469 0.40476474 0.7924987 0.28495282 0.34223142 0.3345548 0.60509413 0.30027455 0.04240452 0.316334 0.79062545 0.9050729 0.8494625 0.88808817 0.037382558 0.11271605 0.29733664 0.09933928 0.9406544 0.87672377 0.7119745 0.45459807 0.0693144 0.85392094
around 0.2929825 0.9413154 0.045508686 0.5134729 0.9729036 0.57229316 0.7724961 0.9224861 0.43580395 0.5296662 0.062155433 0.1769439 0.12559372 0.7404343 0.27934846 0.64051193 0.87397754 0.12986575 0.97975975 0.7662988 0.056770805 0.79722124 0.5890688 0.50255495 0.44875488
careful 0.67352384 0.00446299 0.3525414 0.03147506 0.6946859 0.104689114 0.8505378 0.6769054 0.43846503 0.829461 0.70919865 0.45339856 0.044932783 0.59314936 0.15485518 0.03291511 0.048477203 0.7834345 0.88606673 0.7643747 0.018729718 0.5748387 0.7155617 0.18851644 0.7157122
content 0.6626424 0.40172282 0.09749063 0.93128085 0.8592795 0.6854653 0.891115 0.07887819 0.92466855 0.17404662 0.84735554 0.9521014 0.7357079 0.04940165 0.35469052 0.92015773 0.62620246 0.5158867 0.92025244 0.6328713 0.9297937 0.2202679 0.22029576 0.33123195 0.8852813
serious 0.27229363 0.673152 0.46812275 0.05418342 0.94021535 0.17145799 0.56286615 0.8134398 0.9325474 0.57591337 0.8442869 0.6116462 0.7178359 0.5882936 0.8271578 0.41876283 0.2628427 0.1365605 0.52111626 0.69807285 0.8763698 0.34219617 0.49642083 0.06991396 0.48317727
bottoms 0.24418919 0.5492345 0.7894221 0.040599756 0.57763463 0.43099323 0.60155 0.29002503 0.5210033 0.95743793 0.6258707 0.70361423 0.13611233 0.3510926 0.8646789 0.9942254 0.44367492 0.8990682 0.6970905 0.78849363 0.82273614 0.55240667 0.55629826 0.9398365 0.023883643
check 0.15833348 0.48313305 0.16274378 0.10320183 0.9139076 0.43418726 0.8738615 0.52550167 0.6919677 0.25352022 0.45573878 0.48618558 0.802228 0.9025578 0.34980476 0.5473271 0.4207959 0.8426724 0.5354981 0.6779289 0.21597904 0.5771695 0.633541 0.20240258 0.7699758
choose 0.3546254 0.43114987 0.6329157 0.41299623 0.99784815 0.5409296 0.076763704 0.92106116 0.97364765 0.7546592 0.88275576 0.6019913 0.838622 0.3610912 0.25001717 0.4090898 0.9364642 0.9094641 0.8644191 0.80138093 0.5822329 0.3347947 0.96737957 0.38393795 0.99478114
along 0.9408066 0.6099296 0.7328957 0.9390608 0.53274596 0.314386 0.7821529 0.60789603 0.18298903 0.63127345 0.77647436 0.65147483 0.8260938 0.6862924 0.5170918 0.25024882 0.57914567 0.35520816 0.14610852 0.7363202 0.25118986 0.0029666654 0.7425507 0.14451481 0.20843199
quick 0.6788043 0.02391454 0.68966234 0.39486712 0.5664375 0.6399807 0.09157232 0.85059327 0.26584002 0.52201545 0.47390154 0.9991654 0.3996077 0.7491662 0.86626774 0.15390408 0.41592598 0.18177794 0.63572025 0.37565807 0.78209174 0.10384148 0.67917013 0.6677521 0.7353063
cut 0.14647157 0.72719735 0.76088434 0.19687596 0.056748018 0.2719115 0.7976519 0.9553228 0.646076 0.61027175 0.5396194 0.019888729 0.8152843 0.8538496 0.2787859 0.44216776 0.20858671 0.74886215 0.824189 0.68094397 0.49086022 0.6362177 0.59695566 0.3431729 0.40959594
do 0.67765826 0.2381724 0.8325337 0.69036597 0.26096988 0.9581647 0.5331402 0.88644725 0.5265902 0.64535373 0.7355255 0.9470859 0.967626 0.76101416 0.47100353 0.8402165 0.8663265 0.86970896 0.08771498 0.11493752 0.5713726 0.75911295 0.31543198 0.53464335 0.34548354
stink 0.19252229 0.4303748 0.49743998 0.2940934 0.1759435 0.78261846 0.75384 0.4938549 0.9010501 0.9559072 0.91179913 0.6724047 0.40547916 0.987542 0.95701087 0.94006824 0.9705615 0.6640402 0.40837008 0.28567854 0.24146664 0.15039799 0.33948573 0.21393695 0.94381726
men 0.7524382 0.5927986 0.0108227385 0.90245074 0.6542332 0.98670995 0.7169754 0.17572278 0.50356025 0.5142437 0.053177882 0.15109178 0.48059988 0.9029703 0.2520796 0.4393983 0.40598494 0.78861153 0.6687453 0.20192112 0.5117571 0.34808323 0.11201941 0.63607574 0.99281645
fret 0.038746737 0.22639978 0.4703952 0.31742662 0.88909966 0.78480554 0.6026709 0.06908354 0.7329338 0.7777645 0.50294626 0.82199144 0.9749528 0.99315655 0.617795 0.85939837 0.40686116 0.21870767 0.9317457 0.6202741 0.57862395 0.32223728 0.8776817 0.82902765 0.34322986
move 0.42314753 0.5943176 0.8785589 0.034010824 0.08404878 0.43325454 0.4951703 0.89252985 0.6067795 0.085090145 0.14947546 0.17445923 0.014503238 0.6190841 0.99825746 0.48048535 0.38325155 0.027765185 0.4986501 0.7292546 0.6987187 0.6193654 0.15896006 0.9558276 0.5648846
rush 0.086703904 0.29934382 0.0116359005 0.32183295 0.47344038 0.6118434 0.5599625 0.6217429 0.51676995 0.55281126 0.17968434 0.75344986 0.31883073 0.99920076 0.5629974 0.48853534 0.090336114 0.3421264 0.66915494 0.14287816 0.8249014 0.38196015 0.16451009 0.46216598 0.4644499
talk 0.96880406 0.3294559 0.07621523 0.76088643 0.22474988 0.38231394 0.5000564 0.75077015 0.111366615 0.48875487 0.5823066 0.46757782 0.2229112 0.56342936 0.98114246 0.40454662 0.5557143 0.0954432 0.5719294 0.2680618 0.27356723 0.16400883 0.5300249 0.92700344 0.65066737
duty 0.76833516 0.44903505 0.0055002607 0.29787114 0.4644262 0.05234172 0.49406946 0.0042966995 0.34659776 0.58883137 0.79264945 0.5617079 0.43088022 0.22660193 0.57581013 0.34236023 0.63771564 0.45667875 0.84316576 0.70042336 0.24099167 0.316165 0.049467444 0.11804103 0.16672805
calls 0.3394887 0.5628988 0.3268512 0.5706875 0.45602205 0.08789428 0.7206466 0.44757962 0.4463248 0.7670052 0.23949003 0.2994218 0.7388836 0.0519445 0.66404265 0.5646761 0.7440453 0.49422178 0.6331099 0.30258992 0.7017221 0.4228388 0.52157485 0.262233 0.5944847
fill 0.784482 0.28840858 0.21394981 0.1977359 0.75991756 0.44599298 0.9661419 0.95815825 0.6747083 0.9288399 0.49245384 0.86744446 0.2762669 0.33861408 0.8062586 0.49497077 0.116756596 0.7653792 0.1498597 0.968966 0.92651707 0.1609943 0.47134647 0.34435096 0.6051822
find 0.58495694 0.9762556 0.849613 0.16263582 0.33565682 0.48036087 0.7534274 0.81683725 0.69363457 0.4181862 0.7338833 0.329558 0.23607983 0.92208725 0.30161074 0.15417944 0.67139685 0.7750676 0.99964285 0.9450944 0.6605214 0.3690326 0.29402742 0.57332295 0.5561841
forgive 0.62342685 0.84725416 0.6637585 0.3299572 0.87050277 0.22024068 0.321604 0.32240394 0.27779168 0.6034994 0.588919 0.7089966 0.1424784 0.24567129 0.47389218 0.61974585 0.7647887 0.92602736 0.07203223 0.6341394 0.64012295 0.048328817 0.89343023 0.8679843 0.9645603
life 0.17844841 0.54422134 0.8735303 0.045716103 0.4848171 0.9296492 0.5391027 0.21270107 0.19595201 0.38129795 0.96074843 0.71856934 0.0694584 0.3030722 0.46780056 0.37534988 0.47204024 0.42314053 0.934893 0.21623528 0.09281533 0.17612225 0.37258196 0.17556894 0.7186524
warm 0.33908135 0.2014566 0.014709263 0.9796174 0.09946485 0.30192629 0.5766733 0.46329826 0.71023554 0.53026724 0.65773433 0.52002686 0.6130389 0.7426155 0.6122559 0.47439095 0.8376126 0.8285067 0.7347211 0.018646713 0.5271414 0.07346226 0.51095915 0.3461203 0.44668975
gave 0.15153919 0.31833458 0.12461216 0.21362749 0.44711357 0.21145234 0.3809519 0.91411287 0.12649298 0.45006105 0.5188216 0.42050812 0.95437306 0.43598285 0.56834674 0.8269693 0.32378736 0.7876994 0.32709754 0.115988456 0.89132494 0.9416804 0.9606753 0.096672654 0.5795855
hung 0.25863826 0.9744719 0.7405282 0.509123 0.054092422 0.5987576 0.7007094 0.45457882 0.5340675 0.5325119 0.67027855 0.061210737 0.77671534 0.68772423 0.46545047 0.8403945 0.31843078 0.64824516 0.95339894 0.019822156 0.57236016 0.62790865 0.65331805 0.79603684 0.059021953
poor 0.5574769 0.7989511 0.71048355 0.29748547 0.9410044 0.42176774 0.6172603 0.8275342 0.4863517 0.6329591 0.40393835 0.07788387 0.5530839 0.51392025 0.8662267 0.12925044 0.5930901 0.056410845 0.98480326 0.37700802 0.064565346 0.9534694 0.23404764 0.66342795 0.33713368
made 0.2169484 0.3884069 0.13965411 0.9644445 0.9579994 0.85745263 0.28205505 0.12882832 0.49941102 0.54100525 0.14632864 0.9230282 0.7577171 0.49590966 0.5909123 0.83034176 0.59632635 0.82956225 0.69174826 0.24212065 0.2784158 0.76585436 0.24679998 0.55886537 0.683732
swiss 0.46755734 0.32325584 0.7984495 0.6253796 0.43805826 0.15215944 0.88892615 0.13873851 0.11678263 0.5163137 0.46981564 0.33817396 0.51825225 0.84785116 0.83677524 0.5587117 0.25660944 0.43131045 0.91826016 0.6677534 0.17266451 0.45301315 0.9780668 0.3614224 0.9480398
smart 0.012081847 0.12588441 0.7519113 0.1416311 0.77916986 0.33081844 0.61507404 0.074676976 0.4582545 0.5369551 0.8232842 0.5726794 0.4528254 0.92069167 0.78099746 0.6284825 0.9263274 0.4694355 0.04901703 0.96641517 0.008767144 0.8494908 0.13449493 0.6321363 0.21248353
