13587 25
go 0.40095532 0.16171286 0.14481026 0.6245096 0.36529973 0.5941378 0.11698743 0.620977 0.84357834 0.55868626 0.30586386 0.62620145 0.41197678 0.048908856 0.44194242 0.008004905 0.7677369 0.6517439 0.99599344 0.12463033 0.5058407 0.67286754 0.9209341 0.14584866 0.605094
. 0.824164 0.5061011 0.90398884 0.49361607 0.106116116 0.26012662 0.3727576 0.9095073 0.61862254 0.40199974 0.8049215 0.21832033 0.034306932 0.24191672 0.43187127 0.652896 0.018605754 0.8091942 0.3086264 0.45318475 0.692146 0.78717285 0.58236796 0.0031030765 0.54874897
run 0.48395985 0.40513974 0.1793801 0.25300115 0.9492687 0.097553544 0.21241245 0.3921831 0.633208 0.06135775 0.68998975 0.8956772 0.867558 0.25573573 0.13987851 0.99975836 0.26969427 0.9559069 0.6578522 0.6542667 0.56722206 0.37859648 0.16553319 0.48674756 0.3443244
! 0.37466702 0.81995153 0.8560601 0.7371222 0.38378948 0.7708723 0.79717547 0.26344842 0.5387115 0.62499464 0.38732597 0.98070115 0.13771005 0.6781728 0.7862757 0.99606067 0.70451397 0.281647 0.3868581 0.90441656 0.9430513 0.0879418 0.50903046 0.40086332 0.368574
wow 0.64633745 0.41839403 0.32119682 0.5466091 0.8692132 0.088827424 0.65778047 0.7506234 0.51931626 0.07975861 0.51880443 0.30388397 0.1876663 0.9719309 0.29770038 0.5989966 0.3854899 0.68144894 0.7400359 0.71748215 0.70056814 0.0433929 0.73658156 0.07583363 0.12862661
fire 0.2786782 0.6120155 0.29798925 0.68421024 0.04033527 0.8783613 0.966721 0.53741217 0.15128109 0.84573746 0.28307632 0.01550106 0.60110945 0.060381774 0.7106869 0.5732919 0.98581016 0.9164863 0.9909661 0.5329215 0.71438557 0.023735056 0.23428035 0.8332854 0.8759185
help 0.35405216 0.8904825 0.3274678 0.57087 0.614918 0.51771915 0.79390645 0.39556453 0.42950782 0.10186995 0.7809326 0.81260175 0.34235603 0.109730825 0.62408346 0.40176228 0.10551756 0.30522886 0.0894748 0.67427033 0.49753606 0.44240856 0.6949921 0.25545487 0.96920615
jump 0.5152977 0.02525223 0.8998211 0.2451111 0.8586809 0.75222945 0.31672212 0.65257466 0.65158725 0.7567636 0.26622277 0.2631425 0.08291116 0.7549606 0.57460725 0.5919955 0.44374502 0.31717664 0.44317967 0.6462127 0.70877767 0.09639632 0.09699111 0.5632244 0.45279413
stop 0.46080253 0.34681627 0.31724277 0.94971627 0.1277744 0.44378754 0.44860452 0.9344013 0.41031 0.42208385 0.47821447 0.0025404678 0.83433527 0.81221884 0.9597825 0.21784705 0.9196612 0.92876875 0.51901484 0.8076139 0.41357774 0.91907007 0.9098724 0.5616936 0.9243417
wait 0.83574265 0.52587825 0.8717862 0.4650967 0.84798604 0.4547953 0.9425082 0.38398004 0.93875235 0.6174018 0.6044511 0.2983968 0.9212937 0.8314056 0.95559174 0.32520765 0.5480287 0.76438856 0.6629054 0.34754953 0.57682735 0.7333336 0.079062015 0.6721712 0.88736534
i 0.028177798 0.9953741 0.5753389 0.67757297 0.31204665 0.75073004 0.7245433 0.35785076 0.22971617 0.94072866 0.40913954 0.5651153 0.43566602 0.63431084 0.61386967 0.38825336 0.42321515 0.91036075 0.7898028 0.8136968 0.47605354 0.72939473 0.7681357 0.245197 0.40259275
see 0.60729694 0.29002577 0.40690526 0.8942114 0.21240123 0.9899658 0.9640076 0.5258446 0.14980263 0.6260077 0.87267596 0.27321997 0.6136592 0.27470756 0.2502382 0.24084812 0.48246053 0.8164072 0.9165079 0.20794734 0.6486184 0.9980433 0.45268208 0.7705489 0.3824896
try 0.8240088 0.68509704 0.72933596 0.871423 0.8110678 0.19113117 0.46216416 0.88501954 0.6959123 0.72803646 0.97540027 0.93244123 0.09791579 0.4868376 0.29695967 0.08105546 0.51145834 0.076399885 0.29391158 0.82255274 0.7091325 0.8537389 0.6794572 0.74413866 0.97549784
won 0.045335762 0.40192235 0.062287726 0.051294852 0.470105 0.5179152 0.42774916 0.6180743 0.72769654 0.64981526 0.21417746 0.9493214 0.63117653 0.09942856 0.8503203 0.61215687 0.44911554 0.011441218 0.36036414 0.9321871 0.7033682 0.933212 0.09346204 0.5932106 0.3537509
oh 0.560496 0.17359075 0.0045450255 0.435855 0.7805486 0.8838174 0.75604975 0.7285406 0.861452 0.990647 0.69329584 0.2488189 0.778266 0.75473404 0.47469634 0.98016906 0.0015502721 0.85210764 0.06342116 0.765555 0.8266906 0.24888791 0.7909466 0.39919624 0.7197546
no 0.3999537 0.9211692 0.18556409 0.28395122 0.7807333 0.09306647 0.3089361 0.041367285 0.5419833 0.57845414 0.83388245 0.5662902 0.9453137 0.10894091 0.78528243 0.19075692 0.8313167 0.19257742 0.7863265 0.73529005 0.46638033 0.16898713 0.84317553 0.1499939 0.2331424
attack 0.4489161 0.70126873 0.23428492 0.83719385 0.06602347 0.814425 0.34667045 0.080663934 0.10695047 0.43435442 0.13636342 0.37077835 0.8079789 0.95322394 0.69037426 0.3240062 0.59022164 0.46793872 0.51154304 0.015962135 0.043598823 0.72731185 0.5850505 0.9691323 0.9245125
cheers 0.33773744 0.51362205 0.2034587 0.42804193 0.5190627 0.83238655 0.6408731 0.6756844 0.65974134 0.48692563 0.2775021 0.10103297 0.16858412 0.9798775 0.5646201 0.48399153 0.0653504 0.36209688 0.5357037 0.3944987 0.6483349 0.6657473 0.7626674 0.20860192 0.20671216
get 0.99081254 0.8899535 0.22110583 0.4845331 0.7694014 0.63960534 0.23103525 0.9532734 0.24688709 0.6562249 0.41258264 0.61822474 0.11414691 0.7211399 0.91586435 0.2866918 0.6726892 0.7263711 0.7665121 0.9304283 0.27698398 0.20984507 0.7092374 0.25855538 0.6612412
up 0.6719639 0.31595725 0.7258259 0.49005678 0.80187255 0.22568801 0.15646972 0.38231412 0.9796778 0.44811565 0.16491894 0.023389652 0.5108737 0.8213052 0.34418577 0.87628645 0.03767057 0.83869493 0.55557114 0.19411534 0.09958992 0.85192096 0.31411824 0.5062044 0.11492327
got 0.31849328 0.2949499 0.2575631 0.70849323 0.33684167 0.35043508 0.4686054 0.476025 0.87362397 0.92416435 0.015982902 0.24252874 0.064848654 0.14143065 0.034999732 0.8425258 0.81482786 0.5617133 0.45370826 0.21184236 0.23409133 0.9105093 0.94454974 0.2137976 0.13864028
it 0.93052864 0.3501108 0.9399556 0.5130922 0.5868101 0.93696976 0.6784745 0.6437523 0.21309893 0.6970284 0.9640632 0.53449494 0.22241184 0.590352 0.89024544 0.5597619 0.55708116 0.85316736 0.8359338 0.9281765 0.9706892 0.08699589 0.6899534 0.5696713 0.20287728
hop 0.82240254 0.9340865 0.3696853 0.22485816 0.18269975 0.34783903 0.718618 0.18570618 0.598619 0.13728859 0.8414453 0.8821158 0.59484833 0.6820303 0.8436388 0.50152606 0.27791485 0.93975717 0.7700057 0.015760401 0.76057565 0.37508255 0.15654416 0.42551744 0.8023455
in 0.9979132 0.6314492 0.78417 0.4225347 0.6120343 0.112011045 0.4724277 0.42874947 0.023377521 0.6567612 0.5707296 0.49870178 0.31229907 0.2661358 0.86811405 0.48471645 0.08087505 0.5320878 0.7041835 0.85999244 0.87851626 0.060984116 0.45941448 0.4830202 0.15793556
hug 0.45364588 0.89896333 0.5295946 0.9934571 0.4020469 0.13477567 0.6624625 0.2708631 0.5530649 0.64829785 0.2670821 0.36726162 0.21680593 0.83640844 0.38004658 0.6716145 0.7036881 0.99615514 0.67127115 0.05244832 0.78084457 0.87701046 0.38042313 0.9897323 0.14165866
me 0.46473196 0.4181147 0.7143914 0.40702692 0.57672215 0.99971545 0.9484324 0.08927593 0.3849359 0.16332376 0.19750017 0.17311625 0.3112774 0.8998873 0.97694665 0.20015222 0.90205836 0.63911164 0.1487671 0.10025433 0.65810704 0.14425376 0.6669994 0.41289106 0.516834
fell 0.7767935 0.33899692 0.2975417 0.313751 0.97270054 0.8054126 0.81949365 0.21302263 0.909807 0.36719337 0.60701835 0.33418494 0.76851416 0.34678057 0.6941973 0.08115594 0.898596 0.18496588 0.8418914 0.43096083 0.8017947 0.19117524 0.16912177 0.24647455 0.8626577
know 0.7097391 0.7206476 0.8060989 0.79991454 0.82605326 0.8305695 0.115634285 0.188298 0.03512785 0.935774 0.04686244 0.012127057 0.7828588 0.7421223 0.23521976 0.5597997 0.5174313 0.6775188 0.2391989 0.12533014 0.08851746 0.09381723 0.28805348 0.9239546 0.85949796
left 0.8717443 0.25219586 0.7278727 0.7337206 0.00955397 0.009816396 0.929823 0.034179963 0.80843586 0.51224077 0.29966253 0.93258977 0.11319627 0.89862937 0.2581015 0.56906635 0.45644823 0.89910483 0.2686564 0.45200443 0.4887604 0.21688703 0.1127598 0.8745682 0.47528732
lost 0.53060126 0.69427586 0.34988734 0.19905892 0.94361305 0.38767737 0.5227932 0.33070403 0.35708806 0.18198541 0.23141158 0.60711765 0.9331552 0.19595312 0.12670113 0.26436377 0.92891234 0.7068362 0.9546816 0.34173515 0.20826368 0.92922735 0.3549234 0.22245038 0.33011562
i'm 0.8758256 0.016806591 0.28170586 0.5315268 0.05001933 0.777328 0.4458397 0.07347982 0.45275226 0.29472986 0.22683257 0.9057114 0.8487197 0.15287144 0.88292825 0.18277904 0.8386525 0.2507675 0.15229958 0.29014063 0.88304824 0.6795983 0.52479655 0.24546173 0.90359086
19 0.89485246 0.009397587 0.94443804 0.16868818 0.015410297 0.72327846 0.63346875 0.43139178 0.3083 0.6075766 0.2337764 0.54244846 0.40859866 0.040516533 0.8822578 0.57046956 0.7359517 0.6631812 0.6537806 0.43247545 0.12813479 0.3917635 0.86943805 0.20569703 0.20313963
ok 0.7342185 0.2511994 0.8844421 0.7484123 0.95279515 0.10546375 0.8204897 0.36233672 0.78796 0.9471505 0.6927239 0.90086055 0.5271845 0.68228287 0.38318434 0.90344304 0.85743713 0.8096141 0.7391364 0.1003623 0.10382673 0.19862501 0.22913514 0.46723756 0.90742725
listen 0.59914005 0.6369006 0.82400495 0.36195174 0.8099811 0.0799472 0.854644 0.8924288 0.5663172 0.5937299 0.15250313 0.6865607 0.10636025 0.55260164 0.045573216 0.9536464 0.33653975 0.2866896 0.27663484 0.8331157 0.92886615 0.8478186 0.28969175 0.54430544 0.46747983
way 0.5074823 0.42782614 0.26985726 0.3686084 0.768334 0.24423727 0.57996374 0.17402487 0.98462266 0.9860055 0.2861712 0.80136925 0.7026292 0.59801257 0.3870708 0.36588413 0.05382965 0.79313797 0.6530068 0.75740385 0.98998153 0.30562672 0.2374626 0.5225047 0.90004027
really 0.6450312 0.4563877 0.5357812 0.20117526 0.9533309 0.29695088 0.30849412 0.7401344 0.7966242 0.3029809 0.403363 0.1625013 0.13126493 0.19476888 0.45376617 0.05297905 0.730126 0.35595232 0.015933553 0.26364917 0.50544786 0.5678559 0.57047176 0.3565014 0.3716278
? 0.019470435 0.18334375 0.80991465 0.12868342 0.29751652 0.31479102 0.27069634 0.8319853 0.15451962 0.97759 0.47460213 0.07162111 0.015279162 0.48621467 0.5360539 0.9296784 0.54854023 0.48387355 0.8041433 0.5920597 0.20145117 0.83192426 0.028581647 0.61583775 0.67591107
thanks 0.0021826841 0.10118624 0.8458886 0.8096614 0.67971087 0.78571934 0.96197677 0.31580997 0.5029958 0.6141344 0.20752476 0.45239425 0.8253664 0.07199978 0.43251118 0.10718597 0.3276177 0.2683077 0.1286084 0.49549806 0.070709385 0.70085704 0.05578164 0.19983189 0.7561719
we 0.08929992 0.44968984 0.7893806 0.9952626 0.17447087 0.40877593 0.7283827 0.06649528 0.7685593 0.80325085 0.48675808 0.09861492 0.9901211 0.76206386 0.12851304 0.5689916 0.6732135 0.73789334 0.64163345 0.44260675 0.11709453 0.38950098 0.34719983 0.057721075 0.96609825
ask 0.1249344 0.30914575 0.669668 0.63028175 0.67712307 0.8502175 0.11877854 0.43447602 0.7193794 0.30817 0.6640239 0.14706671 0.6926823 0.96448135 0.80726033 0.79038256 0.15655436 0.19276536 0.25322247 0.12143389 0.71812713 0.40699795 0.19850808 0.041615672 0.46410444
tom 0.70897657 0.6710042 0.0032485074 0.5024656 0.49846047 0.8305024 0.053389147 0.15025459 0.8117766 0.6164035 0.50884676 0.4485925 0.6194825 0.96942884 0.54333246 0.9456067 0.40878597 0.14057265 0.9901265 0.31650755 0.66716224 0.22822611 0.21474649 0.42731953 0.02765735
awesome 0.73160547 0.9123892 0.4373467 0.5216977 0.5650726 0.641161 0.60629135 0.5435786 0.4676338 0.6143945 0.36520728 0.6325186 0.9089678 0.65316886 0.31220716 0.41238797 0.07760634 0.29192275 0.5139918 0.90713245 0.039917804 0.025181504 0.95017934 0.6526493 0.90825003
be 0.36256596 0.057880677 0.14397162 0.82482374 0.41829705 0.65151674 0.24715263 0.7755405 0.99288404 0.8560927 0.28460735 0.36999905 0.045792412 0.31996155 0.85823035 0.02310419 0.44767085 0.29738972 0.024851698 0.47198 0.112428315 0.35324523 0.34233606 0.20771219 0.32822907
calm 0.6986058 0.7600429 0.2070797 0.8247674 0.8833731 0.2704075 0.12800351 0.7637389 0.62385625 0.81059134 0.9252636 0.551261 0.7953031 0.3285492 0.91795063 0.39539585 0.20787576 0.8632369 0.1468054 0.15142797 0.5576456 0.16200067 0.25010067 0.080882974 0.43662608
cool 0.8454382 0.07890187 0.66004133 0.41387823 0.50879234 0.5606432 0.111554496 0.46305642 0.8880044 0.9104237 0.46286854 0.658601 0.4075986 0.18423383 0.8250126 0.6182721 0.5418072 0.5534075 0.86931974 0.8926866 0.34072474 0.18516368 0.7405072 0.46611026 0.7937221
fair 0.8947813 0.4750774 0.09073708 0.7452871 0.76401496 0.66006386 0.10705796 0.9965338 0.7270465 0.45708236 0.611753 0.15209235 0.66533387 0.29901734 0.754605 0.79225415 0.014563137 0.5932037 0.73192865 0.9422428 0.5026899 0.69045585 0.04196859 0.06415613 0.52918094
kind 0.7511318 0.9860697 0.7579405 0.030294389 0.41299394 0.7879449 0.58595216 0.10433759 0.21558464 0.20634137 0.020421956 0.41594332 0.50134563 0.45931125 0.1101755 0.54374146 0.23907313 0.081858985 0.49890286 0.98951995 0.52760535 0.31002578 0.35350767 0.12516828 0.11460002
nice 0.99645966 0.64916074 0.172727 0.70489264 0.79443794 0.29373494 0.6679762 0.09291204 0.06615234 0.38070717 0.4284711 0.25642112 0.62450343 0.34417444 0.5492068 0.17368053 0.75998414 0.55014837 0.60486823 0.84285 0.9908224 0.28927717 0.8514821 0.48807934 0.34338576
beat 0.8706456 0.7775329 0.36598933 0.24630113 0.03786087 0.5452925 0.24898985 0.939174 0.58770263 0.18891491 0.81010014 0.5416843 0.7511802 0.3417573 0.66173404 0.9997725 0.164839 0.62138057 0.6457687 0.1657283 0.8607032 0.13513717 0.6121807 0.80225724 0.665928
call 0.11433781 0.7592312 0.47978207 0.2739599 0.86028725 0.4167705 0.6465011 0.31561702 0.7611709 0.96413594 0.13081025 0.46727166 0.02188492 0.11950745 0.11868227 0.7721282 0.7580922 0.017367434 0.020845836 0.88197815 0.13474773 0.74560577 0.16483986 0.6489579 0.22252046
us 0.051197957 0.58314145 0.7213996 0.9491583 0.19432035 0.86029494 0.7956441 0.86973196 0.22569044 0.3405434 0.7412198 0.71689147 0.9698686 0.07307215 0.070704505 0.6403042 0.67126876 0.90672684 0.37712756 0.3373833 0.56260663 0.8753857 0.33984783 0.3928624 0.16232923
come 0.48006132 0.36485785 0.76738 0.77893966 0.9181967 0.046451125 0.48843107 0.9988224 0.29506728 0.77855855 0.17453872 0.3420592 0.22315964 0.45704547 0.49609932 0.6109651 0.48573866 0.6152777 0.55225754 0.80989724 0.6843294 0.5662714 0.19657293 0.32524672 0.6898598
on 0.22193053 0.7293808 0.9767505 0.90788937 0.2720489 0.36199594 0.47457528 0.79131514 0.3524222 0.15188436 0.6718486 0.5020533 0.7246639 0.6034607 0.14718321 0.6499483 0.7806746 0.33946353 0.06883382 0.9735913 0.0027114074 0.23449911 0.11437937 0.1964914 0.3180271
drop 0.040795337 0.6368997 0.96042204 0.42050442 0.34108266 0.8739182 0.7899248 0.97425497 0.5576253 0.11445337 0.66472745 0.19036649 0.53112984 0.8122788 0.688918 0.6523544 0.9486652 0.2012913 0.16953903 0.41942668 0.98116446 0.40436956 0.38106477 0.94754547 0.12788016
out 0.9157708 0.052407112 0.6122338 0.6627792 0.16374058 0.62131786 0.7674748 0.55481833 0.06984093 0.47360435 0.7262039 0.27818134 0.7800909 0.33746448 0.7020661 0.8165555 0.9234824 0.6658824 0.9528795 0.3069258 0.25701967 0.41985863 0.59428537 0.5311419 0.56604046
away 0.83900875 0.37325776 0.89515984 0.27467418 0.670628 0.19451725 0.9166058 0.79587674 0.20259775 0.31518823 0.9957014 0.62796456 0.8824857 0.03344712 0.8241125 0.21947677 0.13453282 0.92076665 0.7349027 0.6285286 0.34469634 0.84205747 0.29078257 0.43793884 0.49394667
slow 0.12455591 0.019416232 0.731316 0.56021905 0.31118888 0.3748454 0.024217462 0.45172772 0.17329365 0.35485005 0.54555184 0.21418522 0.3792181 0.27071112 0.9942802 0.20210774 0.31980053 0.6893467 0.272257 0.5794332 0.00069610716 0.98403054 0.26812127 0.39766985 0.58551854
goodbye 0.3327704 0.802401 0.9373508 0.9023594 0.018644148 0.23981227 0.58803064 0.5278253 0.7292023 0.5513574 0.39432746 0.13297148 0.69505256 0.33058015 0.15005141 0.17582709 0.48902896 0.5904237 0.53931487 0.840119 0.39222357 0.61118525 0.22560084 0.33830732 0.8570413
hang 0.46176368 0.60188603 0.55331707 0.74371976 0.9774 0.80469626 0.73861724 0.44945192 0.80767155 0.04657791 0.77732253 0.35421655 0.5882241 0.8611221 0.1798954 0.9882265 0.9413863 0.91646045 0.17370848 0.018848483 0.9521151 0.8139907 0.09751491 0.11244818 0.42304465
he 0.6495762 0.6815438 0.76612276 0.6492173 0.8585103 0.62851554 0.032523025 0.64973354 0.2228821 0.010571442 0.69732016 0.31464824 0.6819997 0.5260364 0.75474524 0.35693833 0.96923125 0.68307704 0.04443642 0.51578295 0.8255128 0.4549823 0.9021703 0.33350044 0.97271776
quit 0.34589517 0.67165476 0.6580467 0.6183663 0.3289132 0.23879151 0.26745465 0.7260794 0.14902875 0.9558558 0.6107115 0.28338483 0.072896466 0.608555 0.28646493 0.69115764 0.10656771 0.81203645 0.78592116 0.757191 0.027688662 0.008388417 0.01961901 0.38572398 0.9167713
runs 0.82386494 0.83946455 0.6928802 0.44499722 0.5209132 0.69320107 0.8560173 0.7121046 0.9868866 0.06240409 0.070370786 0.2980544 0.48088202 0.7547769 0.5291028 0.7597336 0.029488688 0.34699833 0.28807658 0.7061198 0.65222424 0.24603821 0.31940243 0.36251643 0.9472062
hold 0.950327 0.8835319 0.79887503 0.6969053 0.2603764 0.2025915 0.014001941 0.050137706 0.4200805 0.71048754 0.023223724 0.5785569 0.7230853 0.10212554 0.23540534 0.5713306 0.6850491 0.3024733 0.41423866 0.61729807 0.00479582 0.2580992 0.45245957 0.220463 0.6758764
agree 0.5318412 0.70671886 0.64949733 0.819371 0.28389305 0.14835651 0.61248094 0.054717816 0.39172915 0.013055713 0.59828293 0.44927332 0.35146016 0.6556215 0.36565825 0.6302238 0.09249486 0.75529444 0.7900765 0.32544696 0.08400444 0.710501 0.8449614 0.31048954 0.60360104
tried 0.4705702 0.12965004 0.58382344 0.36675894 0.40599823 0.6935205 0.7717175 0.20824046 0.4705708 0.9726692 0.07881178 0.42186248 0.51059216 0.6874838 0.6361606 0.32180718 0.23165391 0.15822151 0.1766151 0.4680288 0.2032682 0.8332004 0.3343985 0.78897643 0.9036702
i'll 0.9613878 0.7534273 0.650121 0.52131253 0.26485193 0.8380818 0.7630655 0.96696985 0.80877763 0.3095754 0.1343763 0.55670714 0.43427742 0.22165027 0.9745803 0.8275996 0.69350123 0.061140906 0.62704873 0.69944024 0.24360798 0.029429756 0.8750121 0.60398805 0.76317483
fat 0.41472277 0.70557714 0.6316587 0.7521195 0.35780564 0.65237695 0.226791 0.9963083 0.8859135 0.45922628 0.36716995 0.21349308 0.6700435 0.077552006 0.8848401 0.42021942 0.34850585 0.9463541 0.072949834 0.48821887 0.8256412 0.39086854 0.2227412 0.95674086 0.07858999
fit 0.24536262 0.9672299 0.29879007 0.81481695 0.75298566 0.0587716 0.44267502 0.103588544 0.6048297 0.41001981 0.6002398 0.54553014 0.97278076 0.82321584 0.3384721 0.5869601 0.46140173 0.09010608 0.22958176 0.2850892 0.19546042 0.91243035 0.5119934 0.124751896 0.08399915
hit 0.66196984 0.5886305 0.41959903 0.3844688 0.32599658 0.16220297 0.37585285 0.45324185 0.46523222 0.73900473 0.35357535 0.03016926 0.16699357 0.9235118 0.8643418 0.97746444 0.83666193 0.6179773 0.51417035 0.8570384 0.27527404 0.9014848 0.7646745 0.5498266 0.7384085
ill 0.8791953 0.7854723 0.03289841 0.37102726 0.013876019 0.023445945 0.67066985 0.24831128 0.6126741 0.93402493 0.94135433 0.7678038 0.5462358 0.9482088 0.13647437 0.30184388 0.6693385 0.70643085 0.22727843 0.4560596 0.6399364 0.69196796 0.43125162 0.5184529 0.61045176
sad 0.9563381 0.82600063 0.5157252 0.3129449 0.5767913 0.82300997 0.56097007 0.48318785 0.07594676 0.54166913 0.0569829 0.18014427 0.49890465 0.11010514 0.83954924 0.45198035 0.21448615 0.97743267 0.9867237 0.7029903 0.7104774 0.8499894 0.13997361 0.64219576 0.5519705
shy 0.82703936 0.8890887 0.5938161 0.5589386 0.49764055 0.50195825 0.38357887 0.97200125 0.46627024 0.87313694 0.88177645 0.198687 0.6941581 0.17926179 0.76757026 0.9738037 0.72680956 0.3246277 0.250004 0.7185159 0.85157615 0.26236057 0.713828 0.51627374 0.6476104
wet 0.040053807 0.03894778 0.66412604 0.6954539 0.80431557 0.02058368 0.43940628 0.17229046 0.10104582 0.7553168 0.6967799 0.82006925 0.7507854 0.7316164 0.20325534 0.97862923 0.8025071 0.40456647 0.93619895 0.8842265 0.7630282 0.21117505 0.5354572 0.6398357 0.5077968
it's 0.99490464 0.048673227 0.6814346 0.15575323 0.76622105 0.587592 0.26575398 0.53053564 0.4690608 0.9566329 0.39963913 0.47418514 0.8634251 0.6547097 0.7898423 0.7545361 0.15051027 0.2817609 0.49368167 0.6495936 0.2211428 0.26506835 0.36588252 0.18106364 0.9598225
join 0.17294735 0.48502487 0.4215586 0.047583994 0.27574378 0.22767738 0.28200704 0.78422797 0.049697895 0.9214761 0.08676382 0.6503022 0.12350862 0.38411698 0.9805816 0.8393655 0.41009802 0.5767329 0.54986924 0.80460113 0.5611072 0.57013834 0.78146565 0.6555151 0.4174657
keep 0.36676782 0.6899857 0.87601244 0.6819532 0.09973677 0.36462268 0.3207554 0.2807983 0.999911 0.4178497 0.8846236 0.4401571 0.4376627 0.2614758 0.8785004 0.19890022 0.22119185 0.06003357 0.39117184 0.24076773 0.7516551 0.27818403 0.8258089 0.9898306 0.64439654
kiss 0.7775493 0.03672927 0.3778757 0.9097163 0.83535016 0.008344163 0.18407723 0.036621306 0.83651596 0.83922124 0.8599464 0.31910923 0.9153941 0.23158237 0.76097697 0.057782695 0.104944274 0.27697596 0.022208836 0.57995325 0.8734868 0.8307452 0.6636228 0.15461597 0.54907304
, 0.6853833 0.018316824 0.13444223 0.29396316 0.9338799 0.8088841 0.57164955 0.099420026 0.32975262 0.7564652 0.08265471 0.03921287 0.8859089 0.67361975 0.7528754 0.6982158 0.9293192 0.62470007 0.30457553 0.24870948 0.013309113 0.52219534 0.543663 0.077647194 0.44716492
too 0.010273745 0.8316011 0.71627754 0.71401155 0.20636205 0.6246436 0.41498744 0.6452494 0.1066329 0.07059692 0.6500506 0.013775695 0.35384002 0.042664625 0.46994042 0.6491572 0.31730428 0.5961104 0.6606739 0.39760572 0.6815613 0.6120338 0.7298034 0.5935395 0.809164
open 0.5902651 0.5714017 0.48621413 0.516894 0.082538255 0.45731878 0.457255 0.53944457 0.6306303 0.39619565 0.6719975 0.45892146 0.8910046 0.060525544 0.1282308 0.40098673 0.6197632 0.6226529 0.54959804 0.8737738 0.5104661 0.61436176 0.22749312 0.775096 0.55930865
perfect 0.5887171 0.41903007 0.7932249 0.47002953 0.5123666 0.063476734 0.118592724 0.81397027 0.44980884 0.2523802 0.9400922 0.8979348 0.7853934 0.72194576 0.81049955 0.39648503 0.7579741 0.8395184 0.010785756 0.911315 0.8912979 0.5955177 0.5709186 0.869938 0.34528804
you 0.6733993 0.49842176 0.3652746 0.826201 0.09119113 0.77682894 0.50001615 0.37349907 0.12573887 0.06481624 0.11786629 0.6094541 0.25722218 0.16062468 0.031174326 0.24831077 0.7841773 0.048410933 0.33172998 0.111200504 0.13761808 0.92854774 0.32079503 0.39461306 0.03882333
show 0.1852059 0.2173469 0.5665233 0.14199562 0.8248121 0.35942638 0.14541367 0.31934717 0.67386866 0.9679939 0.8416259 0.9709626 0.27915788 0.46455258 0.3508497 0.09814673 0.55023843 0.31547126 0.91848433 0.6661632 0.7760384 0.41109073 0.5088602 0.53396946 0.21139014
shut 0.9396516 0.6264952 0.13965976 0.83342755 0.64031565 0.77845037 0.7340454 0.245674 0.9506836 0.29463902 0.8744017 0.80636406 0.7022628 0.24048343 0.85661864 0.19732232 0.3990943 0.7021505 0.7930679 0.6215801 0.42838952 0.7116671 0.8908056 0.87662745 0.35392666
so 0.12860559 0.18567365 0.8137981 0.32404715 0.31898063 0.6008114 0.80308634 0.49199104 0.025947371 0.8601896 0.81620437 0.52347654 0.37272614 0.0010068708 0.65472794 0.627159 0.95217395 0.0060767788 0.45435703 0.09836835 0.95395297 0.8536009 0.13465638 0.18224558 0.90732354
long 0.31178743 0.3467995 0.8233392 0.10393269 0.37120244 0.46584806 0.731338 0.8556728 0.9236855 0.076643184 0.674735 0.19230704 0.9443335 0.48871335 0.31149262 0.43794024 0.1401919 0.4490294 0.36409903 0.51871014 0.24936743 0.88975495 0.960276 0.98708737 0.2496315
take 0.7656543 0.21776193 0.91548866 0.8140968 0.6396571 0.110250875 0.014131353 0.03401658 0.94721735 0.8691092 0.50953346 0.77252823 0.4807641 0.39928392 0.22844149 0.5766943 0.3244938 0.33989328 0.18397848 0.08617729 0.3486022 0.16521078 0.43267658 0.022313211 0.76618415
tell 0.96163666 0.46387368 0.75548077 0.86877567 0.23054798 0.87009454 0.864068 0.12804732 0.5176432 0.30611667 0.58887714 0.21484181 0.25089163 0.6030168 0.8144492 0.8057867 0.9537549 0.4463205 0.88029724 0.29777902 0.2745482 0.585912 0.04950924 0.8604892 0.9036294
wake 0.86180466 0.60318506 0.99812716 0.5824027 0.1825316 0.75808364 0.2773201 0.20551965 0.038382813 0.4523977 0.09677547 0.23697957 0.06824138 0.35790914 0.48786798 0.86660945 0.56121844 0.9599794 0.83721215 0.81592137 0.8055793 0.23594683 0.75557107 0.3165812 0.5338362
wash 0.37508482 0.118363686 0.27205607 0.54282176 0.18046881 0.36302736 0.33543578 0.6903614 0.3185435 0.23939455 0.8791129 0.7249482 0.79117817 0.20055857 0.95521516 0.26502016 0.119842246 0.8315103 0.36867058 0.0021436939 0.1999068 0.25186175 0.3753678 0.73152155 0.6470533
who 0.5164888 0.5236893 0.79796535 0.98367494 0.50437194 0.9815213 0.055805705 0.9046296 0.34308532 0.45860934 0.5404421 0.30218545 0.58940583 0.6332632 0.7245588 0.08945654 0.023506772 0.9575047 0.05386936 0.2684448 0.40739748 0.2919702 0.489318 0.061732873 0.30884925
am 0.10846385 0.785913 0.08082885 0.083904885 0.8565538 0.9919736 0.21996778 0.53991795 0.18874945 0.42189303 0.74742913 0.29782507 0.82490885 0.3773293 0.99632233 0.76205456 0.8748408 0.12246843 0.29047966 0.064385496 0.87520534 0.18638454 0.25499853 0.8653922 0.516445
back 0.7288174 0.009716535 0.7278653 0.54924065 0.68122524 0.41958275 0.8564062 0.20107639 0.8658788 0.85844684 0.62588996 0.13320148 0.30106562 0.10310184 0.6551085 0.950839 0.2200787 0.2357714 0.18130058 0.17204088 0.9631853 0.44057783 0.6410122 0.044441335 0.50164497
off 0.2508612 0.06629295 0.5536277 0.1910401 0.8001504 0.0850135 0.44316736 0.37943256 0.80699474 0.17670912 0.03680003 0.42933688 0.6360693 0.96284646 0.91755086 0.9876653 0.49270537 0.5127725 0.4590609 0.76500297 0.2944913 0.06334198 0.37504908 0.4847573 0.61052823
a 0.8997728 0.07309146 0.6431828 0.57266027 0.30876845 0.15424089 0.16954832 0.19084994 0.1296643 0.35314712 0.2788971 0.021118402 0.5007377 0.3259301 0.744475 0.23507206 0.5872899 0.4247868 0.6399048 0.16743708 0.035311386 0.10332192 0.49646962 0.5706916 0.27222407
man 0.30066302 0.30732533 0.71729743 0.5532756 0.16592382 0.38714728 0.21045133 0.9445714 0.2034396 0.7348671 0.46797556 0.2658293 0.6684934 0.07257452 0.8138925 0.6475229 0.9699049 0.54320425 0.42134374 0.75703394 0.6444402 0.6230886 0.69789416 0.41364965 0.7500127
still 0.08102221 0.548246 0.9191443 0.11912839 0.6488455 0.9148986 0.920808 0.6501373 0.32366794 0.9643027 0.2635111 0.66415954 0.25349057 0.4463477 0.5649608 0.47537777 0.9632976 0.5330616 0.1599903 0.96057326 0.54490864 0.30270088 0.17796548 0.29847473 0.8983386
beats 0.85049933 0.4934463 0.20282587 0.0057680206 0.34505966 0.42806092 0.40447444 0.16477413 0.3490407 0.035686087 0.0898739 0.12756912 0.9025166 0.094519064 0.6669986 0.6710883 0.76318717 0.4017647 0.6193299 0.9612942 0.19219972 0.32156885 0.9605261 0.09287733 0.40478966
cheer 0.37071538 0.8399952 0.6368636 0.2838953 0.101348534 0.39082935 0.12540688 0.58701456 0.44945043 0.94017845 0.37252846 0.25898945 0.21261561 0.8952331 0.68394136 0.43360278 0.3071549 0.8267327 0.28638542 0.53781503 0.832398 0.10706326 0.04546325 0.27214226 0.5763262
cuff 0.122967996 0.02267717 0.82565725 0.54831105 0.37574366 0.8198744 0.7680634 0.49440315 0.3530862 0.6369338 0.08878193 0.03387811 0.5572344 0.1683534 0.27522972 0.9514794 0.77885324 0.6228254 0.53993994 0.3561783 0.018889543 0.60427594 0.27556527 0.77355915 0.59463835
him 0.9813846 0.054407865 0.88755304 0.6974623 0.44284394 0.09577299 0.3341015 0.010521035 0.97881114 0.8884355 0.25635245 0.8402445 0.18665938 0.08571796 0.06287117 0.19032896 0.45326993 0.112549424 0.4880598 0.32677948 0.27933544 0.6249242 0.14145724 0.9242183 0.8483946
drive 0.21350414 0.5370171 0.28201374 0.8502582 0.7626242 0.23084639 0.77868146 0.26708722 0.7908049 0.31819406 0.54715645 0.28951615 0.33279994 0.990786 0.00019234714 0.22140135 0.7403793 0.3302404 0.7269862 0.97889364 0.6785705 0.81034654 0.09683894 0.7925544 0.9074425
down 0.6742376 0.18011382 0.7225215 0.46219742 0.72938526 0.4750126 0.2584341 0.35034192 0.031316433 0.59006053 0.8492286 0.23993374 0.7625428 0.33370242 0.41691086 0.058279783 0.8678992 0.6753994 0.09580918 0.9600744 0.2770082 0.8817113 0.039879292 0.6313178 0.22068435
real 0.8551832 0.7051708 0.70076096 0.20498931 0.026235908 0.38401684 0.5253375 0.019503491 0.9414956 0.3764218 0.7853333 0.06297441 0.07466953 0.6188802 0.48488235 0.22818397 0.32169244 0.617642 0.34100264 0.38335532 0.69743353 0.16588141 0.045607258 0.7289218 0.77835655
ahead 0.96826935 0.8987781 0.9741055 0.82574654 0.45408058 0.99037516 0.8324229 0.7555986 0.2606151 0.38898417 0.9690717 0.65407825 0.34221026 0.9986841 0.867806 0.71876264 0.87872845 0.041443344 0.78419185 0.879346 0.82837224 0.24539475 0.04109676 0.33882332 0.60303944
good 0.9534556 0.42391348 0.2088547 0.7981193 0.985441 0.55984634 0.61320984 0.44304022 0.5652459 0.29259288 0.88215864 0.39664748 0.31676543 0.25609118 0.63201195 0.044794165 0.15384017 0.32356465 0.3124554 0.28092152 0.10446367 0.07721779 0.36358473 0.67452675 0.4316179
job 0.88600224 0.6695398 0.89171994 0.12510248 0.6271265 0.2518448 0.9686697 0.29182473 0.09466374 0.29364285 0.0517036 0.61703414 0.065040275 0.13327414 0.833102 0.495603 0.71026534 0.16758929 0.8106049 0.3577122 0.24574937 0.12847458 0.2792796 0.6457 0.07889094
grab 0.25705987 0.4558583 0.9936968 0.21751884 0.7441879 0.14986764 0.74081266 0.9592831 0.96285456 0.058208384 0.6397238 0.034256548 0.099381715 0.9109664 0.6935213 0.7863774 0.8269157 0.6736315 0.5838599 0.9184589 0.7018208 0.95746076 0.95949936 0.16540898 0.214441
have 0.4175556 0.8292156 0.05474804 0.3321234 0.82771325 0.023372168 0.0103721395 0.41735834 0.6090914 0.08063262 0.21590184 0.45590934 0.13121021 0.347639 0.6215312 0.3508109 0.5692606 0.24667358 0.3116706 0.7128644 0.79156405 0.1382313 0.7743214 0.09311271 0.8057222
fun 0.32336047 0.13647047 0.9945979 0.07026089 0.27720332 0.6483829 0.66752034 0.34307286 0.01715913 0.27908534 0.26963145 0.9975834 0.50038445 0.5580523 0.21010633 0.18509726 0.51390505 0.29983175 0.8177088 0.5869308 0.71383107 0.18511492 0.2694567 0.6343464 0.13176629
tries 0.17520718 0.8301119 0.3005592 0.3376768 0.61588377 0.41965744 0.27652788 0.6286618 0.405499 0.8645285 0.023818333 0.25161347 0.18065538 0.6459076 0.7279612 0.66333413 0.33614546 0.65694803 0.20516424 0.73358387 0.48167983 0.32105374 0.5785824 0.40001845 0.70175225
he's 0.88583124 0.26402897 0.08635873 0.17668375 0.70857435 0.25046554 0.5876542 0.11903432 0.48708397 0.18761918 0.7942194 0.27623874 0.5626764 0.41767943 0.4548518 0.1880774 0.9623656 0.9132984 0.62680507 0.82737625 0.3942645 0.8345181 0.847905 0.29132515 0.9762561
hi 0.26941204 0.67118746 0.9473686 0.5201942 0.93196774 0.2706011 0.8673864 0.9400779 0.7582277 0.68644243 0.57278246 0.96330833 0.12021336 0.038727477 0.2516107 0.3268167 0.115635574 0.3236699 0.77566004 0.7145239 0.18678735 0.15090953 0.0008493527 0.83993196 0.90928775
guys 0.7335099 0.072385974 0.8091078 0.9772337 0.5029517 0.041658264 0.50037235 0.9528719 0.6366446 0.6331347 0.69914746 0.68718696 0.12306318 0.34820694 0.9077177 0.67917037 0.52866584 0.99955034 0.31074807 0.41229665 0.7592096 0.13697766 0.20193663 0.40459833 0.66372275
how 0.86791843 0.68283993 0.6430766 0.07365807 0.7397718 0.34388447 0.418643 0.19661392 0.64387375 0.8654232 0.47039643 0.564653 0.4876276 0.6925523 0.12356178 0.28795666 0.37963337 0.16644552 0.8691475 0.98693556 0.899673 0.040055275 0.1252499 0.31091288 0.120023474
cute 0.92047936 0.033874974 0.89886034 0.69638896 0.54736125 0.3987733 0.94993263 0.022200262 0.18379739 0.42163578 0.8154912 0.3404326 0.9146956 0.43504712 0.8488909 0.008888827 0.86450917 0.97359234 0.17850606 0.74415034 0.23367345 0.18013199 0.012665984 0.93335086 0.35406023
deep 0.4630032 0.0032169812 0.5777751 0.8615986 0.38644668 0.09415474 0.54917085 0.44782537 0.054060087 0.7970243 0.56069547 0.6359738 0.22186656 0.051430464 0.95947826 0.4478063 0.16056547 0.4000293 0.22063592 0.3565073 0.85799026 0.87825423 0.88593626 0.6494465 0.63529366
humor 0.3106794 0.118152685 0.16940752 0.79932964 0.03618487 0.9423385 0.96999425 0.11051515 0.09868458 0.032897703 0.97333646 0.6319898 0.018451981 0.10580691 0.46914577 0.85224265 0.99615973 0.76090896 0.9852694 0.64514536 0.20375732 0.7772899 0.56733763 0.061870564 0.23897873
hurry 0.25322017 0.048739035 0.65595394 0.96297896 0.7523992 0.6722404 0.088231735 0.8868221 0.2936099 0.84941304 0.77807915 0.15046927 0.20401645 0.71966183 0.25360808 0.11463757 0.56170225 0.44183138 0.98819304 0.55684125 0.32910475 0.48740634 0.13662711 0.10930424 0.68329054
did 0.2176071 0.26509964 0.5617915 0.9713323 0.10745286 0.11271427 0.97111 0.79499424 0.3533995 0.024972761 0.29970214 0.46552822 0.45377105 0.2629478 0.71791446 0.5355344 0.40015715 0.2989147 0.8601427 0.41039455 0.7763019 0.11785118 0.06018542 0.30821246 0.92062134
forgot 0.967709 0.3044453 0.72383755 0.8529632 0.6330017 0.034319077 0.6232537 0.01564455 0.095533654 0.13830963 0.505347 0.3156102 0.5438793 0.61650276 0.5643612 0.6593463 0.42773408 0.17235391 0.17326349 0.43230698 0.64621454 0.43895704 0.43257064 0.034465212 0.41532958
phoned 0.82448506 0.4815717 0.71704 0.6394973 0.1263916 0.7383798 0.062670894 0.4831198 0.16067408 0.08130658 0.6453331 0.860017 0.21198174 0.011733112 0.36318037 0.6822254 0.07317469 0.44627124 0.60628366 0.4379826 0.38840163 0.39856353 0.34935975 0.5624109 0.026454914
refuse 0.5868278 0.07763202 0.37112215 0.778172 0.020559486 0.014208252 0.503923 0.53189915 0.56393856 0.5939361 0.3848165 0.31577203 0.70031476 0.39377624 0.8289556 0.15812701 0.21975477 0.3240126 0.6790074 0.051895007 0.25395867 0.9230051 0.4881574 0.29005298 0.88018095
saw 0.99401724 0.893851 0.29849866 0.63981277 0.49824426 0.9289226 0.4994931 0.05698231 0.51303595 0.5229033 0.28889033 0.7981923 0.65001917 0.2112857 0.4173932 0.39852548 0.5746633 0.96296954 0.30893517 0.96904945 0.83832526 0.43652946 0.7141297 0.6013043 0.940842
stayed 0.50704646 0.2124041 0.99635565 0.6287147 0.25807893 0.72181773 0.0065347203 0.85913295 0.26679224 0.5743028 0.54206985 0.89541113 0.12200899 0.029133407 0.28486142 0.23178098 0.335188 0.33892328 0.0045698592 0.7839881 0.9319334 0.6784249 0.39505538 0.037222885 0.059737056
use 0.10419617 0.2647762 0.09216543 0.52860713 0.97843546 0.29230335 0.12579621 0.9322103 0.1566138 0.82196504 0.9795135 0.24768937 0.777717 0.48601314 0.7821937 0.753298 0.39497963 0.93762887 0.16727409 0.60588443 0.022277554 0.1599529 0.13406838 0.5930102 0.7302301
pay 0.3051412 0.09705502 0.9870468 0.15889248 0.67315036 0.5332862 0.92928034 0.86335814 0.42616868 0.7383938 0.7491233 0.22995639 0.38754836 0.04366806 0.0014766855 0.03165937 0.65327716 0.4070752 0.509929 0.50641364 0.11861271 0.80563533 0.55537564 0.72896594 0.903399
bald 0.18218166 0.73135304 0.23719755 0.33150837 0.2751089 0.28692937 0.45840552 0.86465377 0.9579463 0.578538 0.017938249 0.36180723 0.43096814 0.054530583 0.9577782 0.3158533 0.1589512 0.78438365 0.9259902 0.85194916 0.9876412 0.2370721 0.5353843 0.95683676 0.6088238
busy 0.56728965 0.25308278 0.19608817 0.30455366 0.25070643 0.5935962 0.11020574 0.21363889 0.84857976 0.765407 0.08751103 0.80060613 0.36233687 0.8726033 0.6440917 0.48195997 0.78212833 0.3527346 0.25443503 0.37058514 0.622398 0.5390173 0.8935507 0.3705938 0.5925024
cold 0.1806552 0.9757432 0.4372687 0.31482953 0.72385186 0.27698302 0.52410585 0.0346439 0.07871168 0.9195293 0.6034131 0.67689306 0.7935264 0.95942056 0.005345736 0.23808788 0.17291863 0.34655955 0.28442755 0.423552 0.36218086 0.16167404 0.37186554 0.7622211 0.11055134
done 0.1695102 0.6693429 0.5569739 0.9868612 0.51829785 0.11257491 0.5691894 0.73008704 0.948129 0.40722317 0.69818383 0.6376063 0.67134786 0.48705408 0.92294365 0.5979426 0.7903181 0.08620819 0.5024291 0.5263412 0.7564699 0.62700623 0.5003816 0.9747955 0.47730672
fine 0.35419673 0.7935238 0.4911447 0.80491525 0.09860561 0.4888758 0.58320844 0.8214652 0.31738916 0.22707777 0.2984991 0.699939 0.32923228 0.19496565 0.670955 0.40522838 0.34028536 0.21153007 0.038345378 0.83547956 0.025607426 0.96162766 0.5388836 0.14144965 0.32939434
free 0.07148918 0.8253307 0.20776454 0.29918492 0.68602335 0.69233614 0.32095805 0.5936426 0.65640706 0.17413664 0.84591377 0.47245836 0.43656343 0.99540865 0.048693582 0.92134726 0.9954269 0.903208 0.47741613 0.23799673 0.47772682 0.18473339 0.8562167 0.5650772 0.32302126
full 0.18089323 0.17547508 0.6393297 0.45900303 0.91501236 0.17067713 0.91265184 0.5852101 0.12731348 0.4869353 0.41021535 0.046723645 0.91472137 0.87470376 0.42214113 0.51332635 0.514464 0.23204719 0.5278356 0.8556347 0.7179678 0.41210702 0.20967858 0.68082017 0.21571279
glad 0.28933376 0.9816434 0.86005956 0.36444965 0.043373138 0.18313272 0.074714646 0.8947159 0.65512294 0.9306395 0.9280771 0.5200232 0.64567983 0.8505679 0.47031924 0.0721349 0.3661299 0.7679286 0.20513542 0.1991496 0.44977 0.937845 0.90385073 0.753385 0.88621736
home 0.7804501 0.9289616 0.34100878 0.46033671 0.027120035 0.36369753 0.90697736 0.38458088 0.928291 0.5014453 0.3876948 0.23627585 0.38106975 0.9384284 0.4437848 0.75537515 0.6802793 0.86379516 0.6840083 0.22737467 0.5073563 0.896731 0.5111781 0.5717722 0.45197186
late 0.12795025 0.6531447 0.0884702 0.6901217 0.55746436 0.03125653 0.26592845 0.7728004 0.7970131 0.09747977 0.24522395 0.2224757 0.67212206 0.5566666 0.8097759 0.3270658 0.32633755 0.612431 0.4987736 0.28821647 0.0657931 0.24446683 0.73849463 0.85291225 0.33553568
lazy 0.86907536 0.04137701 0.77154356 0.37254336 0.045593303 0.5725165 0.74684805 0.20022784 0.00298361 0.15452349 0.7061553 0.036336817 0.6770745 0.678063 0.55339795 0.11643755 0.8378993 0.19142054 0.85940933 0.76280093 0.9386434 0.38585046 0.43834794 0.56160843 0.53057545
okay 0.6024114 0.12016491 0.2409776 0.996331 0.14267057 0.6445785 0.9860959 0.49675086 0.885075 0.24769475 0.4163658 0.6846786 0.5761233 0.19155774 0.60020804 0.2444961 0.93472105 0.18366015 0.499254 0.5348343 0.94906366 0.85913444 0.27075666 0.02528567 0.32320306
safe 0.59009945 0.132658 0.7367288 0.21241504 0.7504015 0.42896765 0.4018384 0.2908544 0.16246995 0.87545305 0.9232607 0.81393415 0.35176748 0.6173646 0.2074694 0.22976488 0.75379354 0.018929746 0.42797583 0.41855538 0.012783746 0.7771527 0.3552288 0.52478206 0.06297225
sick 0.66595244 0.8463642 0.8594539 0.42081976 0.4180697 0.79746395 0.3096683 0.9562343 0.9699923 0.6476537 0.12578067 0.7420713 0.24818102 0.48037675 0.784069 0.39546305 0.9779514 0.40353972 0.91146904 0.3215793 0.72944903 0.86938435 0.6926071 0.6163203 0.37103677
sure 0.68780106 0.9656443 0.02867268 0.013226686 0.9384676 0.45062396 0.55741566 0.3134024 0.5980952 0.8306382 0.93852645 0.44680932 0.90044534 0.9318274 0.9344259 0.57350224 0.2600449 0.7568511 0.7002309 0.93769807 0.115297206 0.1486072 0.06934629 0.54158604 0.034071688
tall 0.68377626 0.2020328 0.18672617 0.6116948 0.96176726 0.035978273 0.050651174 0.8006703 0.13137591 0.08362793 0.2089365 0.7542904 0.5974735 0.6949508 0.6534831 0.78385854 0.45309561 0.16227548 0.050728004 0.61335045 0.25106835 0.7176577 0.86886007 0.60396016 0.97051275
thin 0.24941942 0.2056788 0.9257539 0.21195973 0.39832976 0.3543431 0.4581544 0.81624836 0.0011770503 0.082384996 0.51967484 0.5504462 0.985667 0.014269972 0.09192395 0.14289531 0.46067518 0.12817718 0.7845156 0.26626855 0.48158532 0.8172121 0.814912 0.776578 0.3218499
tidy 0.6311781 0.1581773 0.7725233 0.4509263 0.33671406 0.65686774 0.6918249 0.3277462 0.8576126 0.20467518 0.82284415 0.85064036 0.44728363 0.42263773 0.17504862 0.6438595 0.43710193 0.2915055 0.4186105 0.83087766 0.14610673 0.8515437 0.8702686 0.28412157 0.4937358
ugly 0.8889071 0.46675944 0.022439554 0.5632664 0.3340202 0.22309707 0.51573247 0.9645012 0.5510185 0.6502319 0.18422323 0.08057344 0.85032904 0.5445474 0.67988765 0.24750167 0.7401704 0.51712495 0.8062079 0.22505525 0.5510431 0.7670228 0.58839226 0.7520232 0.32928875
weak 0.5105448 0.62876225 0.34070992 0.021253739 0.3306858 0.019388499 0.71409374 0.18619795 0.8957831 0.7507142 0.8376528 0.33747306 0.59794706 0.52497077 0.88144886 0.12968525 0.991385 0.25163597 0.9682401 0.31772205 0.4347117 0.16344616 0.7604753 0.68113685 0.031234343
well 0.5938514 0.58779174 0.58324367 0.16859816 0.16197202 0.9727589 0.7505338 0.7569738 0.62180346 0.67552143 0.8660503 0.19353674 0.36373767 0.00012438052 0.9385781 0.056113902 0.0009777892 0.21338618 0.7389245 0.29295748 0.89373064 0.9671977 0.6643139 0.22955993 0.8743501
i've 0.12115597 0.67467356 0.7268177 0.6862926 0.89385194 0.47887075 0.082827985 0.45578337 0.5808941 0.56400776 0.027326377 0.627584 0.48938945 0.23081434 0.7059415 0.6829267 0.52972084 0.0828049 0.60121655 0.46151048 0.48818234 0.5692865 0.34164983 0.032932226 0.7152234
works 0.12243111 0.11461929 0.57923573 0.21484585 0.05288444 0.6093731 0.07320407 0.2998587 0.21807401 0.566653 0.8705149 0.23522963 0.4708994 0.9688315 0.041032985 0.16443406 0.20755562 0.50432396 0.53521794 0.77911556 0.41607168 0.022728868 0.07486237 0.9515726 0.54818994
his 0.36682543 0.8606547 0.9168892 0.14097267 0.4294908 0.5707036 0.18259811 0.69431233 0.7596666 0.35250264 0.66188484 0.6861404 0.009484733 0.17573994 0.6794398 0.6984516 0.6379566 0.015563177 0.4805932 0.3958992 0.5241856 0.90447253 0.84993285 0.615117 0.1954168
new 0.7274161 0.7202228 0.6184702 0.12788732 0.43242785 0.88583827 0.028549368 0.42444614 0.6086377 0.46853802 0.08866922 0.43294206 0.6227467 0.43280256 0.91570437 0.5741362 0.63680017 0.07793139 0.5417284 0.8683907 0.6015495 0.546641 0.94361055 0.030858329 0.9546193
odd 0.54496914 0.7794835 0.5763877 0.09240786 0.55469394 0.27796617 0.75791425 0.13641967 0.1072386 0.35068512 0.29946226 0.758579 0.11577532 0.8561959 0.3376665 0.7075251 0.19766495 0.16950251 0.7466225 0.7549769 0.0074928934 0.26117954 0.9874647 0.8412614 0.5406241
leave 0.5209186 0.4445471 0.15836416 0.37234306 0.85448086 0.17240141 0.082852826 0.4662966 0.6138038 0.86864436 0.97610414 0.35139033 0.18926643 0.3543831 0.95324266 0.51326686 0.2251867 0.06875805 0.2257536 0.546893 0.7033273 0.016858647 0.2441114 0.11529822 0.27217945
let's 0.23948853 0.34388015 0.9578848 0.90365446 0.105608605 0.8373742 0.83649737 0.77041376 0.60974634 0.8977574 0.09878659 0.5637129 0.2881024 0.6980228 0.89502966 0.80623543 0.3137879 0.5828983 0.15544142 0.096217856 0.66163385 0.16983834 0.54573727 0.22699974 0.38902423
look 0.28513062 0.49633393 0.71613735 0.375844 0.6351757 0.42088822 0.5411347 0.24168062 0.20993635 0.26768756 0.26961026 0.21612996 0.22492386 0.51922053 0.23857689 0.65403086 0.824321 0.04885531 0.1802792 0.41379085 0.06879022 0.5913511 0.9406512 0.75246596 0.2798596
marry 0.23895876 0.9171315 0.85358745 0.35234475 0.46703506 0.878207 0.6330117 0.7211774 0.41349426 0.34730458 0.43928275 0.3155068 0.51361567 0.27675816 0.28367242 0.11387727 0.22994238 0.05653067 0.9760016 0.48655304 0.042123668 0.9922353 0.1925412 0.6386194 0.39600968
may 0.63042974 0.7104601 0.35494035 0.6380663 0.86460316 0.102814905 0.7498965 0.5647278 0.6401365 0.96043074 0.44244325 0.6652683 0.3229981 0.96871656 0.72252727 0.30778566 0.46650365 0.839257 0.9946144 0.628559 0.84069484 0.8312202 0.6244943 0.34752882 0.18749508
she 0.24316327 0.11505635 0.4565043 0.22711818 0.26842165 0.49108455 0.3771727 0.44326338 0.42507884 0.03976879 0.73143774 0.03820732 0.98647004 0.68190265 0.4637788 0.4319752 0.44624284 0.48950845 0.50318986 0.23188327 0.21507968 0.69880015 0.42464164 0.6293227 0.67494506
came 0.057228718 0.054021906 0.8821689 0.91083795 0.6062408 0.8263083 0.1188905 0.70168674 0.8182544 0.5991894 0.8156363 0.9890253 0.9967608 0.74225503 0.9192675 0.71799266 0.26711726 0.81157625 0.8549469 0.31657496 0.5423805 0.05567733 0.9295326 0.7594854 0.6459119
died 0.22547045 0.96925855 0.039369483 0.6307687 0.8600461 0.5274075 0.5242869 0.77215016 0.010218512 0.7444194 0.017302105 0.5158023 0.44452107 0.68905956 0.58071804 0.6211045 0.56600636 0.9400725 0.6077241 0.31551525 0.50975895 0.09169575 0.98493904 0.5803976 0.7774614
sit 0.97455615 0.2818358 0.537119 0.009281591 0.7919098 0.77988356 0.3672105 0.05839548 0.08821752 0.39243996 0.54644424 0.22711785 0.1026541 0.6631486 0.15514158 0.53018856 0.81987906 0.30895266 0.29561707 0.6096749 0.3312827 0.61207527 0.035926506 0.84574336 0.3589731
here 0.35890505 0.40603495 0.7136785 0.75018275 0.07668723 0.8325046 0.7299634 0.7312071 0.63249713 0.91957587 0.93097764 0.082927 0.15927897 0.25352162 0.52623856 0.6272054 0.33644885 0.13917792 0.56799376 0.3991348 0.16091241 0.3793825 0.94985497 0.22428825 0.55599445
speak 0.33074307 0.96070874 0.97850007 0.1633543 0.51190734 0.47737208 0.22588949 0.7356853 0.67777026 0.3198576 0.10833044 0.6295221 0.7117346 0.9091865 0.6505624 0.9833653 0.105992086 0.93514806 0.7124504 0.5567246 0.6523687 0.3768147 0.6287578 0.25748438 0.20733194
terrific 0.33241522 0.009878243 0.852355 0.04909554 0.39378095 0.3546646 0.9140061 0.951929 0.8544752 0.4053442 0.62886137 0.023086665 0.99566966 0.44534186 0.57520086 0.124511324 0.27373582 0.92644894 0.60773194 0.32650506 0.085854664 0.8683978 0.3260622 0.94416624 0.11907948
they 0.13087754 0.17582503 0.80755424 0.048918813 0.10986861 0.9514975 0.89588547 0.9400034 0.66896164 0.5048146 0.9652228 0.89272296 0.6583253 0.07615327 0.107362844 0.529368 0.072205454 0.14391011 0.19965124 0.9585194 0.13761866 0.35272107 0.8973807 0.56408346 0.87926537
trust 0.80085486 0.35132024 0.3972778 0.0212796 0.30640385 0.4665626 0.061994594 0.8877729 0.8808276 0.102928646 0.013719883 0.14504494 0.71218324 0.93717307 0.7561976 0.42992547 0.14446148 0.59277475 0.58010375 0.057010446 0.7956648 0.6305349 0.41267574 0.43890056 0.7054374
hard 0.65078473 0.2971292 0.54121965 0.90190196 0.62770885 0.65611213 0.94347936 0.71291554 0.6893112 0.20404701 0.46638823 0.9735753 0.52193797 0.86644584 0.1063188 0.9249286 0.4885041 0.7598226 0.3147312 0.097174704 0.27467808 0.768152 0.9254681 0.7577957 0.65128523
some 0.64943486 0.9818357 0.1450574 0.8398791 0.6460897 0.47024366 0.69440985 0.4655435 0.9017857 0.2129212 0.7391798 0.7336037 0.3897805 0.27000496 0.6973424 0.65698844 0.88694066 0.96917844 0.8091263 0.66422457 0.55015284 0.9988529 0.3972079 0.42368248 0.520467
this 0.1554767 0.4478705 0.23959382 0.5613404 0.12467738 0.9612367 0.91569364 0.7571919 0.85324544 0.46841285 0.25899425 0.654112 0.37407702 0.71726596 0.77373046 0.17473388 0.06677029 0.91945916 0.00046776293 0.86368155 0.7622104 0.023984136 0.30266792 0.20954598 0.35682654
warn 0.16088413 0.47358498 0.7629362 0.5315961 0.16755 0.12161143 0.30020973 0.8497635 0.62333244 0.44306326 0.9367296 0.40790853 0.9905252 0.19388536 0.71444726 0.02467197 0.67843676 0.10827033 0.5550132 0.88542604 0.95251524 0.5618265 0.083510675 0.09654325 0.032917332
watch 0.6434254 0.14976275 0.20242848 0.67484593 0.38093945 0.7581794 0.64188766 0.16173583 0.21913224 0.56644934 0.30511352 0.8469165 0.46719113 0.5143939 0.8980858 0.060829584 0.48364687 0.5283094 0.74869746 0.5038553 0.21401756 0.32745853 0.58500725 0.40083778 0.3583603
we'll 0.59065425 0.18331242 0.8196534 0.6396936 0.76272225 0.28218997 0.7524704 0.7364354 0.9769942 0.5538967 0.42586988 0.008878939 0.39978707 0.22844556 0.29846302 0.33010632 0.2507878 0.9066512 0.8981486 0.2865206 0.037190545 0.49003792 0.04085573 0.52466273 0.8104797
what 0.047555193 0.21555755 0.07626964 0.24811375 0.6352793 0.59255207 0.77201694 0.74579334 0.9240945 0.4536166 0.46380484 0.80673176 0.93966883 0.0053408076 0.44816035 0.79913604 0.69974935 0.75860906 0.094985135 0.38766494 0.21192926 0.17737223 0.26973554 0.56492066 0.57170224
for 0.44574305 0.10698639 0.45856658 0.6578801 0.7284322 0.117794596 0.20865919 0.5643477 0.9021031 0.29949042 0.9705882 0.8193442 0.6157305 0.89053726 0.32577372 0.83283615 0.93491143 0.6116241 0.6605201 0.830034 0.24625497 0.85852545 0.41311622 0.18798783 0.37315726
who's 0.1883422 0.86315745 0.23874216 0.10930534 0.19685048 0.25498623 0.14171295 0.9096708 0.85655284 0.92483115 0.38018358 0.21327649 0.7021101 0.010716035 0.0064372867 0.24619044 0.59104073 0.6126027 0.42051595 0.90082395 0.8794432 0.11660708 0.8846488 0.8840797 0.180439
write 0.26152423 0.37849277 0.27309445 0.501801 0.6572991 0.2466935 0.76853466 0.12716424 0.03163432 0.76215655 0.49474522 0.30320603 0.59985185 0.088569075 0.37100646 0.07400175 0.3361672 0.64049435 0.6371099 0.26486036 0.62853265 0.5687923 0.08512318 0.072288044 0.6497711
after 0.9302541 0.36482298 0.27803245 0.8311257 0.0070312847 0.5696768 0.0073503545 0.09624211 0.75794107 0.31410682 0.1522684 0.38927296 0.11451404 0.5624638 0.51685464 0.14665821 0.7286605 0.85587174 0.6554681 0.3739362 0.53690314 0.35518408 0.09696184 0.66580534 0.36193207
aim 0.104691505 0.9574419 0.66889894 0.82902265 0.22105004 0.06684396 0.35660717 0.17833254 0.7211435 0.7983688 0.9168416 0.5560441 0.48980016 0.073979884 0.058963086 0.33678964 0.08808084 0.5956609 0.04338131 0.5412568 0.8936516 0.31853274 0.87602013 0.029657098 0.8365363
answer 0.42062622 0.8817249 0.8831945 0.5083755 0.665435 0.6480265 0.7644677 0.93911386 0.47695324 0.39919975 0.062703505 0.76638037 0.07972462 0.059732493 0.92671984 0.5278919 0.7277756 0.13908091 0.9979275 0.65459144 0.8306433 0.17155138 0.30201718 0.40303743 0.0052269967
seated 0.36047238 0.5365849 0.013401443 0.27894658 0.48490772 0.5211341 0.7571337 0.95780593 0.11056932 0.14079303 0.68312985 0.59461844 0.8022478 0.89459074 0.15829419 0.5451769 0.69721353 0.4766788 0.3229767 0.5538444 0.58014023 0.90794 0.91199666 0.5075187 0.55243707
birds 0.8245367 0.2573925 0.43689117 0.763308 0.40721422 0.78585714 0.9499625 0.19062722 0.62927395 0.048471637 0.53653055 0.32210356 0.78238016 0.8957406 0.49118203 0.5825713 0.5712953 0.34865943 0.5033986 0.91131973 0.17005432 0.70642763 0.73576516 0.2895892 0.91416705
fly 0.80227447 0.13035809 0.697072 0.43053904 0.24131697 0.2517171 0.9627131 0.8257387 0.38952455 0.8335575 0.5444329 0.7872496 0.093297675 0.7654405 0.07408105 0.5237554 0.080202155 0.89349955 0.39806452 0.2403104 0.41552538 0.23005648 0.73309207 0.108160056 0.7124104
bless 0.34039065 0.025946017 0.24045469 0.98867667 0.7227203 0.2268946 0.8158936 0.5867074 0.3211563 0.63077456 0.42711437 0.29783997 0.3928383 0.5222202 0.7445516 0.6819525 0.34663704 0.454128 0.8731086 0.101114795 0.44083282 0.467814 0.41835478 0.07461674 0.70442265
can 0.47450823 0.14036246 0.4748048 0.33508936 0.114522286 0.9830696 0.15395851 0.33261636 0.40248713 0.89557713 0.7254365 0.54370767 0.09293689 0.26276118 0.59130096 0.3129663 0.7648409 0.6493524 0.69727653 0.28837624 0.47115752 0.575089 0.996336 0.7563401 0.7478303
catch 0.29397807 0.36889637 0.89595574 0.75637513 0.8607377 0.76596737 0.012593949 0.20573208 0.13470061 0.57736975 0.82306314 0.44097263 0.5824283 0.98188615 0.87670916 0.527622 0.9630441 0.2703972 0.027877597 0.62829167 0.940102 0.07190423 0.5230896 0.15039513 0.13973534
over 0.108792126 0.07108854 0.21759257 0.67496854 0.0036554306 0.92329276 0.18199182 0.77807206 0.17410395 0.8068884 0.21061239 0.82841045 0.7240737 0.41203597 0.50548357 0.013191094 0.48937237 0.7961913 0.064798556 0.87843746 0.4450364 0.016164865 0.3036608 0.8686751 0.1778183
soon 0.7212489 0.50632924 0.53470284 0.23492073 0.2708388 0.7253586 0.38066003 0.24742122 0.6658752 0.82025045 0.73989433 0.14346553 0.6771778 0.37083635 0.9218761 0.8611521 0.9784088 0.70528066 0.06718451 0.47526178 0.17057621 0.010956217 0.93820167 0.82719487 0.32710224
win 0.98477185 0.9937487 0.100794315 0.31758222 0.5439292 0.1583314 0.14688954 0.047823478 0.98049575 0.72086453 0.7213281 0.6534859 0.46469274 0.46014097 0.6475165 0.47988567 0.4501215 0.7825513 0.07288858 0.3892741 0.116871804 0.7766737 0.66358835 0.34272838 0.122835524
dogs 0.96448743 0.6696484 0.9035551 0.16878174 0.6507331 0.7973954 0.5363523 0.27577975 0.3625814 0.0076253093 0.41057336 0.46662125 0.2746909 0.6141256 0.77094597 0.27958924 0.4312162 0.531698 0.53284436 0.54070604 0.68209606 0.62759906 0.331734 0.028833546 0.9421749
bark 0.82632124 0.9860144 0.31577113 0.94230056 0.75767183 0.06541967 0.51637375 0.9792072 0.9247338 0.9602748 0.384863 0.5958769 0.81990904 0.9830199 0.3191259 0.18237132 0.27234015 0.56475127 0.7340709 0.5978378 0.8156219 0.9392889 0.5684423 0.92159456 0.5541357
don't 0.013400791 0.0008585495 0.2103064 0.8282454 0.81331974 0.66606414 0.81249064 0.18575515 0.999185 0.50435156 0.92458546 0.83592415 0.20657355 0.37432426 0.051292878 0.40616322 0.88807523 0.094393864 0.8400001 0.9516609 0.7049244 0.21916346 0.16225286 0.08503095 0.2203969
cry 0.57383794 0.80199194 0.16377991 0.66019785 0.9099907 0.67992085 0.020064244 0.29746655 0.8937985 0.6398337 0.15365185 0.54058737 0.62045455 0.31331992 0.66626906 0.7732975 0.21100351 0.38932472 0.49163052 0.42807522 0.4537836 0.7419125 0.5690077 0.7743263 0.008758497
die 0.267716 0.67826927 0.31670076 0.8630301 0.6186427 0.12363475 0.2828194 0.19397819 0.6443113 0.4117668 0.27764532 0.19990505 0.050515395 0.3091897 0.014566361 0.6183805 0.646845 0.40961647 0.783626 0.31745142 0.26156363 0.9787519 0.13442372 0.39225197 0.16841093
lie 0.47700083 0.8927325 0.5872522 0.5408962 0.4084778 0.08420832 0.2525502 0.84406346 0.6268791 0.23116176 0.07014972 0.7566364 0.20114844 0.48692846 0.49716616 0.46880698 0.5407014 0.022218147 0.40576863 0.38993576 0.965896 0.77647066 0.67512006 0.9378681 0.15364827
excuse 0.6640602 0.09758056 0.11350189 0.034908056 0.6525939 0.9312767 0.034426387 0.17978226 0.1797407 0.6526964 0.87323326 0.5183472 0.6418551 0.8817456 0.55476344 0.28659865 0.899144 0.97429717 0.17765516 0.06188566 0.939884 0.2544093 0.8340847 0.9097671 0.88796115
fantastic 0.60927147 0.36268187 0.42410615 0.84391963 0.053472057 0.3739698 0.6374172 0.22797455 0.0052611064 0.91204834 0.87026894 0.1685219 0.54958445 0.5500393 0.25577033 0.29115158 0.16498588 0.724527 0.44377154 0.6614168 0.8271053 0.57776535 0.74485826 0.6417691 0.8022694
feel 0.56133556 0.48435387 0.39020625 0.89437443 0.70994914 0.7723605 0.5652679 0.2836939 0.31611928 0.10181577 0.2140956 0.8094181 0.8803706 0.4644283 0.77381986 0.13555263 0.7557744 0.24357648 0.35130972 0.8436783 0.29714063 0.072843835 0.76851 0.14058726 0.69096524
follow 0.3077747 0.009147087 0.9068387 0.1429314 0.9592059 0.34490216 0.5773615 0.079314955 0.5496533 0.48701325 0.2556377 0.28677207 0.5474181 0.007140168 0.5585583 0.39610887 0.52369004 0.6824395 0.4513367 0.117411725 0.22177978 0.050501645 0.962522 0.09582357 0.06495843
forget 0.50230736 0.0791803 0.0553215 0.77826816 0.44210854 0.20044562 0.5812574 0.37964654 0.7125589 0.83435255 0.60339624 0.36559194 0.25299838 0.093528405 0.8033115 0.61247575 0.289357 0.9017609 0.4193303 0.76007503 0.55359113 0.23775858 0.55933785 0.7633856 0.8041772
ready 0.62992215 0.82089317 0.19823481 0.13461238 0.7017496 0.8289401 0.22142802 0.090918526 0.32300758 0.20851769 0.7449702 0.6903686 0.2033444 0.86516166 0.77592075 0.23673297 0.3331814 0.8243468 0.9565839 0.62322205 0.42010155 0.18330958 0.34666452 0.20174156 0.9439878
inside 0.19482762 0.1851612 0.59177625 0.25070047 0.42051375 0.12481589 0.941619 0.33436286 0.7557206 0.2616191 0.14895456 0.20947388 0.30773437 0.47025654 0.86706305 0.33650902 0.617794 0.6031755 0.91723 0.76954883 0.5084684 0.5398826 0.5813759 0.50596607 0.59595376
to 0.45346346 0.5154645 0.025961356 0.8571675 0.7389796 0.97575533 0.4526739 0.6080619 0.148107 0.2738457 0.51708114 0.83194125 0.30811504 0.92635494 0.7919225 0.4820112 0.52903545 0.90468067 0.2862482 0.9380317 0.32672125 0.012468478 0.121180974 0.45253447 0.75423455
bed 0.2823962 0.4819146 0.5741948 0.41833198 0.5214623 0.72431844 0.35021082 0.2860008 0.7639242 0.96958846 0.76037997 0.32504147 0.71720743 0.74526024 0.45505852 0.5567888 0.69414836 0.6793822 0.62903166 0.89588 0.41554707 0.8939716 0.5268693 0.3042933 0.9733134
luck 0.83665484 0.37321195 0.52180845 0.04884498 0.15629865 0.30792427 0.13154088 0.953775 0.9636091 0.6608653 0.33868483 0.20263089 0.18815887 0.8051954 0.7434337 0.6354933 0.17278817 0.19421518 0.44096664 0.0011417413 0.32768232 0.056201894 0.20849569 0.81199884 0.013214796
that 0.7442775 0.0761348 0.79557854 0.3268616 0.539912 0.44635457 0.23559621 0.54109704 0.58876324 0.08940052 0.49327654 0.42488343 0.9139635 0.42881736 0.5697736 0.2258589 0.2223251 0.00040091726 0.033966597 0.8182098 0.6155635 0.08713693 0.7368283 0.6353272 0.025812775
hands 0.24220385 0.069213256 0.9045662 0.81649405 0.8934906 0.7584016 0.047276814 0.7486781 0.07059283 0.5756762 0.9039626 0.8846547 0.2717462 0.5354657 0.947677 0.5305103 0.6017105 0.7046038 0.12052395 0.29549038 0.8838898 0.11576238 0.5508413 0.7139355 6.705077e-05
is 0.67136294 0.72813374 0.94434756 0.9456554 0.1509956 0.66219646 0.21277668 0.5366843 0.605877 0.89414287 0.88282835 0.352253 0.00024946872 0.81023616 0.35800925 0.2983151 0.6507378 0.1110236 0.7505818 0.8096801 0.28916395 0.8329438 0.6510137 0.050020184 0.2779462
old 0.3222835 0.9539268 0.26091012 0.6486876 0.045491125 0.33718356 0.7377046 0.26573896 0.21126935 0.35060152 0.5002866 0.8758301 0.02083863 0.3658201 0.30106023 0.39720157 0.19273692 0.76750356 0.80817014 0.47214606 0.25077742 0.7368753 0.4199996 0.98844695 0.82400334
dj 0.7737864 0.53030133 0.5491306 0.27472964 0.16926126 0.18892987 0.08544144 0.04382539 0.44883874 0.8395934 0.15566692 0.19499032 0.21965927 0.26688632 0.9376484 0.17837757 0.20246121 0.36227491 0.51204574 0.02261918 0.5095219 0.25091526 0.37151194 0.10358746 0.5681017
rich 0.98350006 0.08804558 0.121341385 0.32351893 0.09221062 0.75335985 0.02260446 0.31643823 0.13822943 0.18438956 0.7383452 0.32521862 0.9028027 0.53542244 0.19052412 0.9677269 0.94012386 0.25903463 0.6491513 0.33618218 0.8038263 0.2358785 0.21679531 0.8883298 0.6636335
here's 0.3757758 0.7758234 0.3909922 0.8390558 0.7586869 0.81933415 0.5492788 0.70195043 0.12871209 0.75474346 0.6419644 0.053956408 0.59382945 0.71372324 0.76428896 0.35412422 0.59705794 0.5700643 0.80957335 0.364777 0.7532848 0.31609613 0.15679383 0.75159705 0.45504123
$ 0.8747049 0.19538629 0.8512767 0.24231762 0.2875733 0.6792612 0.6428108 0.07222231 0.5900215 0.35128808 0.7449225 0.89222234 0.2867271 0.43375683 0.4353198 0.5632058 0.25673234 0.60692334 0.8257837 0.7960997 0.6632212 0.56911033 0.028272986 0.5369725 0.7704541
5 0.3692515 0.069598384 0.4380995 0.38675025 0.7233927 0.83434296 0.12200318 0.7673351 0.2641263 0.6183997 0.8436132 0.5502207 0.8440873 0.41200882 0.1327506 0.036276914 0.6543442 0.44868094 0.104761004 0.59492826 0.99707997 0.771144 0.22643861 0.25850734 0.5941784
awful 0.2940615 0.122613795 0.493513 0.2514432 0.3948046 0.7076295 0.6296272 0.6955199 0.7468251 0.044752136 0.401288 0.90590024 0.41323292 0.8648419 0.32458845 0.42792505 0.3270159 0.84284574 0.618493 0.073765814 0.20921537 0.2616603 0.47074756 0.16012572 0.9469951
how's 0.9267403 0.057999387 0.47904065 0.7693918 0.5343538 0.6282282 0.6924744 0.77765876 0.68717074 0.35303316 0.96929973 0.12004407 0.50977397 0.9034627 0.47278458 0.4532439 0.20432332 0.53366035 0.4617001 0.064316586 0.004446627 0.37556037 0.39671382 0.9997425 0.07893887
beg 0.46898243 0.78218275 0.8969841 0.79003775 0.5806059 0.23423706 0.902724 0.72951794 0.27979204 0.40836787 0.94816214 0.8218521 0.40103716 0.09790826 0.4162896 0.83733225 0.9918901 0.9278278 0.4280016 0.25839362 0.6652737 0.25634205 0.95459664 0.7887154 0.551134
ski 0.31947494 0.87548375 0.4991096 0.03853946 0.89854866 0.29121232 0.060027875 0.7124984 0.9491969 0.84708357 0.9441694 0.98159975 0.6181559 0.762567 0.72849053 0.017757557 0.3540817 0.5092301 0.4270547 0.9311024 0.4205514 0.71342826 0.814453 0.27874616 0.7347819
cringed 0.7737636 0.9834448 0.8009505 0.6939985 0.2565768 0.53691024 0.99463856 0.40765068 0.25632587 0.14286983 0.29233766 0.47063404 0.7562494 0.82871747 0.2389179 0.9404556 0.08457383 0.88866585 0.90571165 0.24860048 0.9047857 0.0829005 0.410993 0.387254 0.36637056
give 0.3477921 0.19046289 0.05055643 0.9655717 0.8508346 0.5067515 0.912971 0.18870698 0.03409952 0.9969118 0.89284444 0.04545509 0.7880429 0.11440492 0.1241943 0.11612487 0.79514843 0.61800885 0.9062692 0.7566691 0.77922666 0.9406424 0.45168924 0.8109783 0.67095333
hot 0.08612399 0.7253359 0.1275876 0.533601 0.58432746 0.5139973 0.0689263 0.025623448 0.26042894 0.72712106 0.00800897 0.08018045 0.32902312 0.90399724 0.96245176 0.1809892 0.44477817 0.0056352285 0.6207855 0.3025881 0.73994875 0.68014437 0.23473707 0.2145828 0.099647604
had 0.096707225 0.379834 0.607631 0.91285586 0.041298263 0.65187216 0.3548748 0.6818954 0.89848363 0.31991062 0.5417871 0.94675404 0.48321655 0.8307462 0.51714665 0.52163583 0.9436874 0.6601711 0.5657163 0.4104867 0.677362 0.35091683 0.7370053 0.06639414 0.8848176
hate 0.15612818 0.6900107 0.4280175 0.68656266 0.904467 0.6019544 0.70121545 0.50925076 0.88317126 0.15745017 0.88630795 0.16157523 0.83676594 0.8275671 0.72895503 0.7714402 0.8827755 0.8368431 0.45957565 0.9490777 0.66047865 0.9783418 0.37710226 0.42515987 0.30361828
hope 0.4008559 0.11931051 0.44354498 0.2916394 0.55158 0.34022492 0.22572589 0.0013949777 0.46540508 0.59299445 0.6201304 0.7541308 0.50611883 0.8870291 0.15783817 0.17906791 0.9124825 0.7266144 0.49500924 0.6257217 0.05631322 0.13447481 0.7590193 0.21888594 0.91816777
knew 0.82965404 0.15156694 0.31115538 0.22367482 0.47661114 0.050164904 0.5989408 0.74225724 0.9724281 0.985571 0.6443141 0.3628829 0.092232004 0.6978691 0.4226868 0.89938956 0.05497993 0.5718603 0.1635641 0.03727314 0.8552239 0.68675506 0.1392252 0.04451145 0.4837044
like 0.97444177 0.26286313 0.16450922 0.2529299 0.21705005 0.26334858 0.29574344 0.54505324 0.48190752 0.6334313 0.043597728 0.25858814 0.48298275 0.43513352 0.31463632 0.15346257 0.25184327 0.43135512 0.95763224 0.065451995 0.1510927 0.43836993 0.5608891 0.8470431 0.94020903
love 0.08201757 0.3325548 0.123248905 0.14639138 0.88870156 0.1886571 0.051721483 0.3068461 0.72577274 0.9922335 0.5322987 0.27822843 0.97382253 0.24774435 0.90050894 0.43214938 0.22870043 0.44491354 0.63613564 0.7073609 0.5759179 0.68699676 0.46580964 0.33385566 0.6857862
mean 0.38032812 0.5812906 0.9329625 0.8829471 0.7450298 0.6003504 0.16672161 0.63196343 0.010045558 0.30300692 0.806669 0.057388183 0.3093439 0.12414515 0.50579274 0.21170284 0.44325787 0.52877814 0.7937907 0.84224385 0.7597622 0.5974613 0.21949488 0.29836586 0.27673703
must 0.67031676 0.12892324 0.3147828 0.5459281 0.27709255 0.9368115 0.67766124 0.529462 0.82716745 0.7966539 0.76151884 0.4257926 0.014209676 0.29456776 0.06577597 0.65998363 0.6949813 0.12025902 0.8579005 0.4922543 0.76448005 0.798348 0.80703694 0.9218325 0.2685677
need 0.5969861 0.87971586 0.9887895 0.45739263 0.56875676 0.47617388 0.90196455 0.30444592 0.86455333 0.6970905 0.43797165 0.72412527 0.20297703 0.78567314 0.29278183 0.26266092 0.99719906 0.38595867 0.5552245 0.1557052 0.78739756 0.7593577 0.4292435 0.9839597 0.44201064
noticed 0.5909055 0.1467609 0.626371 0.80168027 0.18009192 0.8112889 0.39224392 0.68767107 0.7202816 0.29217216 0.9796971 0.029130861 0.1586612 0.4309958 0.55442244 0.9507763 0.2210592 0.66540134 0.3847043 0.84447646 0.5714212 0.6734793 0.4069146 0.45702267 0.014155426
promise 0.7493588 0.15672666 0.48337373 0.038834877 0.30111048 0.30073857 0.028058948 0.5820774 0.7783103 0.52588224 0.08043541 0.80394024 0.93089235 0.59897053 0.9855001 0.33126327 0.33269224 0.82804215 0.04240556 0.71465975 0.24889159 0.28031877 0.017594364 0.80580527 0.6962374
said 0.33471996 0.32117805 0.78988874 0.12429109 0.5190045 0.22275157 0.7231439 0.78563535 0.17077921 0.37870324 0.87000245 0.084586866 0.9351586 0.87335414 0.50894 0.29016423 0.036214527 0.69648147 0.12569796 0.31542403 0.49779198 0.99687594 0.30328828 0.07733067 0.5042522
one 0.46383923 0.99942464 0.19355494 0.5546162 0.8538019 0.4780482 0.910513 0.91154337 0.0650058 0.08219856 0.30318457 0.74565023 0.8778778 0.21250477 0.23583758 0.6638809 0.9241924 0.3961511 0.8616714 0.79786724 0.84020156 0.0878924 0.19477458 0.70926726 0.4247952
tripped 0.54511434 0.85623723 0.28290576 0.0028245328 0.16979727 0.17522527 0.019177677 0.6224492 0.7330711 0.027467482 0.3246407 0.6260602 0.98952013 0.49785265 0.43898952 0.46124944 0.61841536 0.46918526 0.8377377 0.06007369 0.2622837 0.16531493 0.86751807 0.25208136 0.85248494
want 0.32683048 0.73878866 0.31959924 0.4424903 0.6695607 0.41553697 0.6516986 0.10075499 0.36819157 0.11292379 0.38284314 0.4995186 0.22446987 0.15852426 0.032613948 0.838669 0.02049722 0.032234862 0.3565978 0.7339412 0.31404188 0.956648 0.84522593 0.4776396 0.6283262
was 0.4084707 0.7620499 0.10858869 0.6130724 0.70175725 0.7160988 0.78731275 0.09853408 0.74439365 0.6993034 0.042103466 0.9174859 0.79105127 0.95473087 0.014394372 0.19817445 0.43224716 0.43334892 0.9912368 0.94074607 0.68461186 0.72719455 0.22786409 0.93773764 0.18892124
will 0.4209478 0.4487422 0.8676665 0.13127682 0.14083488 0.72184306 0.59180623 0.47552255 0.8334382 0.25668836 0.82835805 0.7683857 0.16940351 0.48165837 0.028915063 0.53426605 0.19758768 0.38632604 0.47477013 0.6292479 0.08809296 0.42105767 0.8240688 0.7014924 0.12183894
woke 0.28714558 0.48839694 0.3072809 0.43317404 0.33638138 0.7980578 0.4235816 0.023732431 0.13144074 0.3535153 0.22459696 0.8000761 0.34844658 0.16523589 0.4479261 0.47244152 0.16383454 0.7001806 0.24107954 0.68867743 0.6243943 0.80142754 0.501532 0.367184 0.92057633
i'd 0.015301906 0.9315228 0.5523866 0.70074344 0.4213215 0.9031373 0.20795001 0.6243375 0.75229 0.16856901 0.938107 0.66521794 0.5382992 0.82541114 0.11465162 0.2808998 0.76309294 0.7840938 0.21711789 0.5965179 0.3739757 0.36761588 0.86095285 0.5649575 0.71187145
cook 0.78399765 0.07886594 0.09290058 0.45828354 0.5352685 0.8902556 0.26205838 0.4542801 0.5607834 0.9493792 0.33914965 0.37472546 0.010008949 0.9886435 0.9300087 0.3045712 0.8893907 0.5626305 0.41932398 0.84597296 0.08194514 0.4221727 0.32767138 0.549398 0.76684415
live 0.14865537 0.5139272 0.06528193 0.013672397 0.10570011 0.059126157 0.62974805 0.2460909 0.6443903 0.71644986 0.553762 0.79406303 0.2931708 0.4153132 0.7830569 0.9393063 0.7020541 0.47376925 0.5660701 0.1345143 0.8683591 0.8153049 0.7025902 0.20660385 0.40439448
obey 0.7491896 0.35899732 0.3484145 0.7628124 0.22542524 0.5479443 0.15787253 0.042634044 0.6257505 0.7582998 0.5254039 0.5467511 0.5353535 0.31374282 0.504247 0.67710465 0.071111456 0.84163964 0.28341177 0.75369817 0.17127532 0.14092764 0.07719004 0.92279404 0.48868445
pack 0.43332997 0.93364555 0.5239006 0.31742135 0.9349187 0.30906218 0.3598467 0.5213349 0.33549064 0.2665857 0.33049548 0.67281514 0.966811 0.40081003 0.48677263 0.26396123 0.15081656 0.46695223 0.12530263 0.65551454 0.09148364 0.63198483 0.15577032 0.35346183 0.39155966
pass 0.21735758 0.47270525 0.97642183 0.022811303 0.2617889 0.9628086 0.6081382 0.44599226 0.6005576 0.93459827 0.74724483 0.4520055 0.9489593 0.8757414 0.8356413 0.8931789 0.9509889 0.86733043 0.13964558 0.59300715 0.28411973 0.38325316 0.8196921 0.39558083 0.9916503
sing 0.7702266 0.8905249 0.5782618 0.09935803 0.85897154 0.045661338 0.38099664 0.072922446 0.04368346 0.6252229 0.69353706 0.16227701 0.3385715 0.4721218 0.42818877 0.07922888 0.67919654 0.24568999 0.46904412 0.72214466 0.18060154 0.08304828 0.6001251 0.06376154 0.616296
swim 0.06758124 0.57446235 0.6021079 0.3560502 0.5639975 0.57238185 0.48633596 0.056272674 0.33020115 0.6878999 0.04094454 0.35412455 0.9631332 0.7468045 0.7099028 0.44581693 0.36597198 0.1446221 0.7677127 0.43771344 0.38841432 0.3217402 0.31222153 0.26871717 0.55600035
walk 0.6140172 0.4021823 0.3760578 0.8101439 0.1510969 0.21803276 0.5200819 0.73622364 0.26334146 0.26913387 0.3698898 0.50399166 0.6384886 0.79198605 0.7600459 0.58104044 0.36572504 0.51947737 0.71090573 0.52462673 0.362802 0.2839165 0.063123524 0.74836755 0.91879165
work 0.08145668 0.5312467 0.14712593 0.13539898 0.2202038 0.36756548 0.3846753 0.7557917 0.63083094 0.1904574 0.10277441 0.32181725 0.22766332 0.60526216 0.87147826 0.016549679 0.17341225 0.4484865 0.9171707 0.014427495 0.8112716 0.93226635 0.23301354 0.014751752 0.2706004
cop 0.18309067 0.6576591 0.26686746 0.09681995 0.6751776 0.1679413 0.9192087 0.095380895 0.7549112 0.047829095 0.937161 0.020356957 0.7363151 0.93494695 0.35627314 0.64457273 0.86821127 0.617529 0.17359178 0.75616205 0.068295486 0.85929745 0.53988206 0.49370217 0.9324348
alone 0.77256554 0.69044095 0.77124166 0.22218966 0.48782942 0.95369726 0.3306294 0.9818597 0.51396066 0.1038626 0.69346994 0.38073078 0.192649 0.10525594 0.18024865 0.61434215 0.41765374 0.15880647 0.61909634 0.80220115 0.23610318 0.9438708 0.6096823 0.74919593 0.42058656
armed 0.4921716 0.86387175 0.05304252 0.77114844 0.22546464 0.7317693 0.33672976 0.17083628 0.7857416 0.9185451 0.64950913 0.81359714 0.95737374 0.22960015 0.6265977 0.677166 0.23676811 0.40869823 0.15510255 0.21313109 0.5994263 0.5744659 0.91373014 0.8892128 0.77989215
awake 0.3426041 0.8812433 0.5788539 0.68432385 0.81457555 0.19946766 0.45617667 0.6154935 0.5329735 0.25437537 0.24696617 0.18428527 0.81329435 0.8959171 0.29399538 0.7438439 0.94298524 0.29703015 0.53323215 0.35826698 0.94601834 0.59743804 0.9459133 0.6772524 0.4751329
blind 0.24449252 0.35547978 0.5801886 0.48426566 0.22379282 0.39500105 0.287957 0.5887841 0.3091186 0.11916599 0.32770613 0.025174046 0.92397755 0.3374837 0.8083259 0.22875461 0.12704395 0.94319594 0.5243641 0.3314487 0.13767582 0.19871475 0.9231693 0.5347369 0.7400716
broke 0.5106194 0.03383343 0.59958416 0.66301 0.46482277 0.91235256 0.95631087 0.18717961 0.98063636 0.8251829 0.5060309 0.9055159 0.38487557 0.56672215 0.483445 0.56379414 0.27940103 0.111412354 0.91241014 0.96265644 0.30582333 0.2513493 0.74283427 0.23425049 0.27700278
crazy 0.47440132 0.8796993 0.47901088 0.90868527 0.6703897 0.08939862 0.78675413 0.2774058 0.56753373 0.3314424 0.2756464 0.38546753 0.52841336 0.70187837 0.04702765 0.39210224 0.84045464 0.17456357 0.09699486 0.040132772 0.5671877 0.23145215 0.26970503 0.1973075 0.21203288
cured 0.38794938 0.50882846 0.35973617 0.73313594 0.36309728 0.14202364 0.93755955 0.59979045 0.382972 0.29728088 0.026808625 0.8059351 0.2131909 0.5965409 0.51597893 0.47196373 0.1492978 0.24559927 0.11503939 0.4282566 0.6902956 0.3311708 0.36858723 0.08578984 0.9846511
drunk 0.01818803 0.6413547 0.0377253 0.23873395 0.80581003 0.44545376 0.6823106 0.53424466 0.3082175 0.894411 0.5148562 0.750136 0.5514865 0.63626313 0.52924037 0.8982931 0.5038609 0.7301384 0.37601754 0.35637367 0.044140436 0.9681475 0.6027622 0.40966687 0.44586277
dying 0.0091767805 0.9415914 0.6205758 0.16870044 0.8051694 0.90496385 0.76327014 0.38038686 0.38339642 0.9528648 0.5658141 0.036337465 0.94434285 0.4915513 0.94952786 0.8338468 0.36177686 0.90299594 0.75662625 0.4536216 0.7708986 0.97009647 0.26464966 0.8602733 0.8868631
early 0.2335762 0.50052345 0.3261226 0.27291483 0.2217299 0.6996422 0.49313465 0.16975622 0.6594795 0.30476114 0.1934178 0.098327585 0.7171256 0.51709586 0.3928629 0.7286774 0.48196295 0.5561736 0.28528607 0.4929245 0.2749373 0.10047903 0.11013434 0.5166409 0.553752
first 0.16086176 0.66921437 0.058837306 0.8671503 0.053444084 0.11800454 0.37252617 0.19788313 0.7270446 0.60853654 0.051267214 0.18910213 0.26713315 0.51436615 0.1094673 0.44367552 0.47589013 0.15318172 0.26774335 0.20188187 0.2900793 0.31589463 0.26061404 0.8616916 0.73845816
fussy 0.2830243 0.33608225 0.6968919 0.766303 0.96061766 0.78065455 0.07029113 0.5275661 0.43726638 0.7399697 0.6462282 0.8547905 0.9247018 0.474468 0.34281313 0.6559559 0.90769327 0.4665079 0.9662569 0.28987473 0.84147584 0.016457573 0.5607872 0.55526584 0.97229236
going 0.9893863 0.2889496 0.73653907 0.8034803 0.49507755 0.7394386 0.8894053 0.47913003 0.29002556 0.22035708 0.9291512 0.079155505 0.8380977 0.9052521 0.43802238 0.33132643 0.75983447 0.073352575 0.4827495 0.36030442 0.25717255 0.76274484 0.3290689 0.82203484 0.23396474
loyal 0.34540185 0.95646405 0.14284563 0.1578901 0.802352 0.7139673 0.15855798 0.41076592 0.5889558 0.4932167 0.20984961 0.66043586 0.5828732 0.904127 0.72324115 0.85251504 0.59897196 0.83253497 0.770678 0.08819999 0.21107528 0.22365843 0.019158537 0.5637463 0.8820113
lucky 0.19779998 0.4732828 0.6040742 0.1319776 0.8675693 0.45903125 0.43753934 0.34582242 0.8785225 0.58334124 0.6499192 0.82647485 0.500409 0.37619677 0.8967185 0.9775142 0.07538264 0.56663746 0.706584 0.42181727 0.8233147 0.50373083 0.04232501 0.40522322 0.8131857
lying 0.2735317 0.31111154 0.34221232 0.026360055 0.14036536 0.05025662 0.5438511 0.8525002 0.12087076 0.8285005 0.44502664 0.16223864 0.9309976 0.35782978 0.8084389 0.63545614 0.017139168 0.7666448 0.14977075 0.49033672 0.981691 0.48798266 0.81962365 0.83579963 0.03953587
quiet 0.32068712 0.33910733 0.6796312 0.08407309 0.08997358 0.74763364 0.42865396 0.7014267 0.5659016 0.1370708 0.94172966 0.889754 0.8166287 0.22071931 0.2313689 0.7975505 0.41408706 0.74244237 0.83347535 0.1950852 0.29070008 0.76883084 0.16539037 0.06994711 0.54801995
right 0.025467603 0.84244573 0.7210782 0.03748364 0.053823873 0.8157203 0.093730226 0.59135175 0.946001 0.5880858 0.2402059 0.1372954 0.6232364 0.861591 0.7426255 0.5739568 0.5318628 0.8028977 0.3732806 0.17053537 0.7801243 0.41524667 0.96488976 0.78136146 0.81915885
sober 0.12336599 0.70898926 0.6726564 0.6683079 0.5121505 0.52670735 0.37123057 0.49122944 0.9512744 0.65692735 0.9977385 0.23916383 0.73938346 0.06025099 0.2793938 0.5803255 0.9448541 0.69401103 0.5150503 0.33615357 0.18756823 0.17320389 0.86250645 0.14922814 0.8547039
sorry 0.042217646 0.07647186 0.80975264 0.31433076 0.3890808 0.06520488 0.20749362 0.080512084 0.244753 0.14917052 0.06813972 0.6479555 0.70859706 0.75721145 0.9046776 0.8141923 0.87206364 0.50268567 0.47061038 0.33844176 0.9692187 0.6631028 0.1280638 0.386521 0.7774809
stuck 0.55696476 0.538715 0.19098629 0.80555 0.76945406 0.49393174 0.5984297 0.24541731 0.44744048 0.09219021 0.30542153 0.04003743 0.30762047 0.26432014 0.074986756 0.35743803 0.9703743 0.27673033 0.1340343 0.4279924 0.6661134 0.48139688 0.88400054 0.77144974 0.37072012
timid 0.42435798 0.96364206 0.93411845 0.22505817 0.04197467 0.5993935 0.54683846 0.64472276 0.57612383 0.4919264 0.074954756 0.87152505 0.5368015 0.7098274 0.06653826 0.31355694 0.0360758 0.81053585 0.21618105 0.7574951 0.9847253 0.17119719 0.19480914 0.9024994 0.0030609414
tired 0.06246381 0.021867802 0.7158661 0.9866253 0.44188353 0.4527228 0.97569597 0.3298073 0.6509661 0.1738902 0.5111835 0.047981746 0.48654866 0.63298064 0.765978 0.58622134 0.7736165 0.6102562 0.061941545 0.00839758 0.23335613 0.6974487 0.93607515 0.031263504 0.97850114
tough 0.37614512 0.51021254 0.73209655 0.4737378 0.57281584 0.3918213 0.5868073 0.99714726 0.5534997 0.10562399 0.77384955 0.38900596 0.7569784 0.54894894 0.16545595 0.11183372 0.45738006 0.6208598 0.27789012 0.903594 0.9782157 0.37941843 0.7913745 0.20767872 0.7660816
yours 0.777337 0.8957047 0.3730986 0.04443021 0.6151505 0.7423751 0.304532 0.7254989 0.68993336 0.23579893 0.4936582 0.8888646 0.99735045 0.8940458 0.57870567 0.45363557 0.22377113 0.9673025 0.648108 0.23028278 0.8880534 0.925214 0.423384 0.36622268 0.9793507
bad 0.0037463717 0.8492385 0.50899744 0.866442 0.5815629 0.803909 0.45032102 0.48504463 0.2552498 0.29520622 0.8253551 0.5440061 0.67225033 0.5183069 0.29981536 0.60640514 0.8896847 0.88279724 0.108177885 0.47571152 0.38647482 0.98658735 0.20032492 0.7849843 0.42322853
far 0.7987203 0.7852852 0.1951567 0.86963046 0.62708116 0.112823054 0.4599566 0.03803383 0.4965392 0.15812686 0.13263658 0.2777781 0.5998371 0.48097965 0.39320278 0.6032097 0.62026006 0.6518503 0.046612706 0.496094 0.22206235 0.7545939 0.4176996 0.21762829 0.55922055
failed 0.99380803 0.3538305 0.98134786 0.70930946 0.96280026 0.043852136 0.6350276 0.60564715 0.46911448 0.46740922 0.7002866 0.19212991 0.6662487 0.43458855 0.34699348 0.35749578 0.683472 0.41958016 0.6253875 0.34145576 0.2075414 0.8855759 0.8347985 0.2099386 0.8904666
snowed 0.04839768 0.36802542 0.018586738 0.29539278 0.6936649 0.57515293 0.7949512 0.04788443 0.7111972 0.05098828 0.72546613 0.8142769 0.10911295 0.033788983 0.3792471 0.06957857 0.9672718 0.03505524 0.9741772 0.29430464 0.38566256 0.39161125 0.26558423 0.49142167 0.2337588
stinks 0.9995981 0.23589134 0.4724102 0.039446786 0.53683454 0.21377116 0.27841923 0.5132009 0.9380068 0.68219966 0.78433645 0.37547672 0.56523037 0.45513338 0.5376417 0.7682722 0.56144047 0.7948611 0.8894946 0.21460125 0.014364115 0.20635343 0.78138 0.33913875 0.36292058
worked 0.65949184 0.30510664 0.7750458 0.8895311 0.26266703 0.63055545 0.08308999 0.49005416 0.046665266 0.8401206 0.2814206 0.98171324 0.45788807 0.5794855 0.21412514 0.18692547 0.39064896 0.4252409 0.5289076 0.17306492 0.689916 0.67336076 0.9971701 0.75634384 0.45597434
3 0.8616276 0.8472978 0.8780431 0.41144356 0.55482894 0.24494822 0.64568955 0.13156916 0.06623811 0.58554584 0.30183777 0.9118319 0.16332416 0.19687146 0.5490801 0.36481202 0.81284577 0.26227856 0.9880129 0.81555474 0.1835826 0.124309905 0.5313231 0.5240297 0.7668418
: 0.6342716 0.7806041 0.6450557 0.93546474 0.05503826 0.02564219 0.43010992 0.14779533 0.16961837 0.74422735 0.3491035 0.61311865 0.21656673 0.0659268 0.70910734 0.20270316 0.82788485 0.8938148 0.87061346 0.43326855 0.21456836 0.38825533 0.33509737 0.04345425 0.78374565
30 0.70520574 0.17076792 0.5377178 0.77432644 0.3754466 0.67921066 0.075071394 0.3296751 0.74793565 0.8306329 0.43443742 0.6241947 0.94630927 0.015646692 0.27835408 0.4211002 0.040407915 0.5090543 0.11740744 0.36290157 0.78743666 0.86522096 0.96448725 0.7635103 0.80322397
dark 0.82998306 0.23226099 0.6314036 0.2869401 0.3847475 0.27643245 0.68481344 0.31683317 0.76832056 0.25468093 0.6174362 0.025893796 0.42494798 0.6964735 0.5576318 0.4695952 0.83626795 0.6720401 0.3068997 0.9976724 0.3995383 0.060577646 0.055266086 0.5727412 0.9540555
dead 0.024493126 0.5046333 0.84232384 0.3657259 0.50465167 0.08906446 0.71816057 0.0037494847 0.00329381 0.6730806 0.90288 0.42427102 0.40731415 0.65091616 0.1357489 0.20336254 0.2308823 0.59897804 0.07598529 0.22672416 0.199149 0.114947155 0.33864203 0.13244084 0.5126341
food 0.96847004 0.13661143 0.4324803 0.73823094 0.8247969 0.7607027 0.39753866 0.37376198 0.46249408 0.39743364 0.9025887 0.19868872 0.2918797 0.7025246 0.2836587 0.38539362 0.32307243 0.9388576 0.35870028 0.55195266 0.14586936 0.04962699 0.9947358 0.97158504 0.5528669
hers 0.72644967 0.94171333 0.96152866 0.69657105 0.9392583 0.7848574 0.35995707 0.45466316 0.91890377 0.7171364 0.8721875 0.29574895 0.5190274 0.4206339 0.65649205 0.8992389 0.25346544 0.30465007 0.8555912 0.79028356 0.56631565 0.7967226 0.20762758 0.33466986 0.76330227
sand 0.37255713 0.98850113 0.17693225 0.47211292 0.7736592 0.58973163 0.6889463 0.28995365 0.90504384 0.13671236 0.108704515 0.059535947 0.18013594 0.8288631 0.751949 0.5089184 0.077607155 0.33168215 0.6865288 0.11983925 0.2876918 0.5223664 0.15317942 0.9512896 0.08032052
true 0.032286823 0.9780184 0.25993422 0.45311323 0.4387916 0.69575477 0.34182894 0.28641176 0.7509577 0.3178762 0.00830744 0.3466275 0.21099089 0.3910484 0.24132134 0.35986874 0.24838808 0.92579216 0.61304206 0.67070466 0.8588272 0.5321073 0.06834161 0.5204851 0.9051364
let 0.23796801 0.9322187 0.3013323 0.7572766 0.718266 0.31496438 0.84375805 0.16349807 0.72268116 0.7862735 0.3114753 0.31321794 0.2843189 0.32084528 0.70004106 0.7568953 0.3240846 0.39028823 0.7909424 0.20972747 0.84273297 0.5684146 0.60772246 0.1383268 0.152138
loosen 0.7036069 0.43303967 0.061215717 0.90394384 0.14784883 0.88754535 0.7101957 0.12103137 0.7828921 0.66929156 0.6957258 0.009968527 0.19319528 0.8164269 0.059952743 0.59178585 0.58598155 0.88119805 0.50089824 0.55823284 0.44943884 0.8134207 0.25017157 0.39316776 0.74799633
shot 0.9340901 0.22127266 0.5777787 0.9852497 0.50571203 0.73454595 0.86668354 0.18790404 0.13402796 0.0066667045 0.8090738 0.40387574 0.58882636 0.79661614 0.013751698 0.35298583 0.077383325 0.16631946 0.045816615 0.01826309 0.48414832 0.32021415 0.776493 0.09996555 0.11877476
of 0.137368 0.81264997 0.35815427 0.21847358 0.9315415 0.37424344 0.94056106 0.09065714 0.16532752 0.9478103 0.18696299 0.27195248 0.23141395 0.2274383 0.542362 0.0921328 0.35953546 0.50098467 0.6772269 0.31496736 0.10929309 0.7037898 0.085530646 0.77081096 0.42431787
course 0.21332009 0.9283606 0.009095605 0.20285198 0.9884382 0.57661843 0.11660349 0.6394279 0.8930392 0.7946906 0.71969247 0.039674383 0.09487014 0.8583042 0.05928428 0.3257343 0.14004655 0.12041946 0.005300691 0.6114658 0.83905834 0.4424294 0.36399513 0.9446003 0.7897236
please 0.4403452 0.4971646 0.5594616 0.8799762 0.3699941 0.05966542 0.98589677 0.4666693 0.894275 0.69277257 0.7043338 0.59117925 0.5085957 0.9382694 0.9465757 0.44226664 0.3152022 0.626445 0.2579381 0.6309893 0.6887529 0.5199615 0.7669903 0.07705952 0.7667206
pardon 0.15893407 0.6083626 0.6823983 0.6828441 0.9024213 0.9309315 0.35423988 0.7525727 0.42732146 0.8843533 0.35191497 0.10285217 0.76556927 0.8017394 0.9747876 0.26265714 0.1102689 0.63274163 0.93082917 0.87315774 0.7599037 0.5150079 0.6527164 0.8252858 0.74703825
read 0.14243726 0.38160238 0.7787096 0.39607966 0.17087108 0.8665048 0.75173527 0.83648294 0.18418925 0.25066164 0.9930593 0.81605816 0.6233429 0.3869213 0.01571445 0.71090305 0.29709637 0.18447295 0.22307754 0.22852165 0.6368215 0.7271431 0.2225476 0.20236078 0.97223157
say 0.4269095 0.9539633 0.87025976 0.6758603 0.8369627 0.15957072 0.3373815 0.3319029 0.81034064 0.92841506 0.1760022 0.4616193 0.806874 0.8025773 0.0342919 0.13421023 0.018541172 0.10492692 0.6406167 0.5472922 0.3228775 0.5184796 0.9095518 0.021681763 0.8213275
hello 0.6541989 0.640612 0.12889981 0.94505906 0.837719 0.39767936 0.4952069 0.4393924 0.35642585 0.68328965 0.56603545 0.978419 0.4804119 0.8797323 0.5290513 0.58231795 0.8393657 0.3435858 0.6928957 0.16561168 0.5888527 0.31734574 0.6377395 0.38980645 0.33266264
above 0.9499309 0.29071936 0.8516237 0.5851628 0.2760366 0.73836416 0.6650976 0.501737 0.5375556 0.79188913 0.5635336 0.32580495 0.05862075 0.54956424 0.13004659 0.5367708 0.47781307 0.3789241 0.35562527 0.90443116 0.65810454 0.484513 0.9452543 0.74618053 0.6269533
seriously 0.48164093 0.34568182 0.066427596 0.041204575 0.17691912 0.8775931 0.55841243 0.44205138 0.9367286 0.07496516 0.5821797 0.6504366 0.61190534 0.9926336 0.7785691 0.63330835 0.95654577 0.85319793 0.89146477 0.80507433 0.9636232 0.8066726 0.86369723 0.25050014 0.8756876
cried 0.9682094 0.56547534 0.17887923 0.8975789 0.355796 0.49847797 0.8249733 0.36794117 0.40779173 0.8011239 0.14435957 0.6472658 0.80261624 0.51023 0.8791963 0.50522524 0.30422002 0.54546845 0.42313498 0.274325 0.2953127 0.99389094 0.27322954 0.14133173 0.78842336
walks 0.9418039 0.3482779 0.8012359 0.18274674 0.22078228 0.9852543 0.8719488 0.86837727 0.12013176 0.3038963 0.9238943 0.6619238 0.13418059 0.3081122 0.5526625 0.6791345 0.59499145 0.29812846 0.42372754 0.14937477 0.1318158 0.991619 0.11193874 0.5415697 0.07722546
she's 0.8508598 0.8402599 0.61040777 0.88345575 0.10539058 0.34462225 0.5591051 0.4484336 0.56223637 0.9300348 0.36556208 0.19200194 0.9916428 0.59366703 0.7291215 0.40557218 0.6760393 0.804978 0.41955194 0.5398449 0.59279567 0.35582826 0.86572415 0.27696624 0.2925046
sign 0.74178106 0.43774703 0.61253846 0.7827213 0.8713872 0.43754852 0.99199766 0.7154237 0.9579021 0.4928678 0.17945443 0.44785807 0.90213555 0.10598429 0.007977153 0.8910328 0.5106608 0.36417192 0.993384 0.6171498 0.048711628 0.070760466 0.44620943 0.121751346 0.9791198
stay 0.36532336 0.87886316 0.30587414 0.7565725 0.29030323 0.17496942 0.4213576 0.62508166 0.46760222 0.38459995 0.62244815 0.6262506 0.7386717 0.864161 0.42227775 0.31186527 0.6754444 0.23495908 0.19975445 0.99781567 0.44164088 0.3831527 0.6751676 0.49002948 0.13890992
care 0.5947352 0.096029304 0.57453525 0.6578817 0.36609036 0.8815777 0.14648178 0.46721363 0.5586698 0.5972272 0.2881607 0.2335907 0.668432 0.3594191 0.14483202 0.36527747 0.8101062 0.44254655 0.25604886 0.51504016 0.3620247 0.7697441 0.37863123 0.10088973 0.21893743
mine 0.030880349 0.7706889 0.45569497 0.41148287 0.28244993 0.6426816 0.35248753 0.42026323 0.023035461 0.85460925 0.8319367 0.8629701 0.79178065 0.7212326 0.6028354 0.6152492 0.26097623 0.69368434 0.0965465 0.69432837 0.42591947 0.6899104 0.98602325 0.483013 0.010693653
thank 0.22429477 0.75489 0.26458967 0.55570906 0.012425027 0.049662672 0.12512498 0.6866802 0.55925554 0.3782779 0.9694815 0.350197 0.16968915 0.7121817 0.82008445 0.8692825 0.7309065 0.7840424 0.37723842 0.20662992 0.7437911 0.15762565 0.6055941 0.7138022 0.7674984
that's 0.7743702 0.9973315 0.46180937 0.6935479 0.19475774 0.4873433 0.8158768 0.971831 0.40180555 0.42483178 0.921212 0.50000125 0.05380411 0.26978406 0.72584313 0.7450641 0.17241082 0.8058632 0.9267716 0.932682 0.24579899 0.5086055 0.6230808 0.9443923 0.8129564
lied 0.62688035 0.7828937 0.1303042 0.63243735 0.72846115 0.48280266 0.101596706 0.61104125 0.55563956 0.68018764 0.7528009 0.83634686 0.35898387 0.3547675 0.0719005 0.6619233 0.32942745 0.4751416 0.70223325 0.35998753 0.41224015 0.5264839 0.07621613 0.40949625 0.10871646
swam 0.08771009 0.5426523 0.33274376 0.44232494 0.1289393 0.7789333 0.7435282 0.1332903 0.71206236 0.67096615 0.32545498 0.8916807 0.5200942 0.45093668 0.7915197 0.2208956 0.54713124 0.6524941 0.25854304 0.3790927 0.36053425 0.38863012 0.662787 0.91746193 0.6364324
knits 0.9851613 0.16129786 0.12348769 0.57565516 0.86998034 0.4552386 0.49805254 0.99381864 0.04405173 0.21066098 0.34409732 0.3573857 0.3858313 0.7864972 0.42958304 0.11378296 0.5487021 0.84220284 0.60685223 0.34709626 0.17800342 0.7070258 0.79481655 0.33454755 0.7224516
knows 0.2938311 0.99557096 0.059850637 0.4886599 0.028754832 0.29856148 0.7303319 0.7900242 0.82774854 0.7401608 0.4872622 0.51522154 0.9311579 0.6590264 0.042311642 0.43733406 0.48511165 0.27015737 0.07756984 0.3056573 0.36824626 0.035604265 0.84071714 0.27939793 0.2958404
spoke 0.5578104 0.91368026 0.0574125 0.797886 0.51317334 0.74175495 0.7868162 0.18186249 0.61165696 0.87511134 0.5730468 0.99093884 0.45984757 0.24719104 0.90579665 0.48166186 0.65715104 0.096210785 0.8664078 0.4278411 0.2158265 0.77094793 0.5784902 0.9901201 0.8462584
tom's 0.21454175 0.05765788 0.34400082 0.93783635 0.4043438 0.5347232 0.5423258 0.33036065 0.35970426 0.8182598 0.2269527 0.9244804 0.14004418 0.85901976 0.42511418 0.9104998 0.4172249 0.57850957 0.87848467 0.4261423 0.068381146 0.41796345 0.5625792 0.6462566 0.28973764
again 0.8340431 0.7774043 0.9076877 0.49416283 0.18747881 0.6646466 0.57385945 0.061341926 0.41137782 0.5263669 0.35873353 0.30289617 0.6493732 0.29253 0.96502197 0.7730608 0.88868856 0.043463897 0.77685124 0.5498149 0.14996757 0.84868705 0.9897788 0.051653028 0.09863699
turn 0.8492884 0.19688019 0.7908935 0.7351978 0.8184342 0.83082086 0.13656054 0.002327929 0.77733946 0.6704558 0.011853882 0.54133457 0.7838575 0.082944825 0.737606 0.056843568 0.032493893 0.12728642 0.3872256 0.42339742 0.79998535 0.8109845 0.94640803 0.005736491 0.13533553
agreed 0.7365056 0.26679203 0.609765 0.26326358 0.84167695 0.033219036 0.82440215 0.617834 0.9079662 0.6872212 0.8959787 0.882172 0.12003266 0.21908498 0.38491845 0.37069565 0.7544752 0.619416 0.223842 0.29390636 0.6611413 0.4909823 0.06967017 0.48170152 0.076695934
talked 0.3803741 0.66387403 0.12671651 0.39887273 0.51191807 0.77957326 0.27732915 0.40131506 0.8125894 0.9790994 0.49251658 0.8136609 0.021516107 0.75459397 0.45160314 0.9006395 0.13927597 0.9770888 0.8413914 0.18128827 0.0074303034 0.8871232 0.030588353 0.528237 0.56465006
waited 0.60410595 0.16805893 0.14601861 0.01863865 0.5928194 0.039151113 0.660343 0.57009286 0.2855943 0.2369215 0.35346735 0.46279764 0.21408357 0.060837563 0.80711937 0.71016276 0.706172 0.8726177 0.31139198 0.8335066 0.043044463 0.4833391 0.3814662 0.05463324 0.20865925
we're 0.4610336 0.8522511 0.15375136 0.7127823 0.7303452 0.7399104 0.50756943 0.7831799 0.6232931 0.81386167 0.7316784 0.8482292 0.6679654 0.17291795 0.06251841 0.8225607 0.8129034 0.3499679 0.48985505 0.7273769 0.8058742 0.47136143 0.7680097 0.81937855 0.4442577
else 0.98484886 0.15372328 0.9468758 0.17738615 0.97449183 0.64463866 0.46879545 0.8500408 0.94957846 0.854007 0.27062097 0.32671946 0.93257165 0.26414198 0.61347765 0.7515784 0.6562441 0.55259436 0.7875549 0.6072341 0.8936802 0.7215351 0.93273133 0.2761646 0.040810015
what's 0.97823864 0.5547724 0.9318658 0.68631595 0.20244886 0.074412435 0.576988 0.038914856 0.8063833 0.6668672 0.6704751 0.2880969 0.036249828 0.012973121 0.5867806 0.73890454 0.49281842 0.917953 0.71053016 0.77976274 0.57976186 0.068094775 0.98762923 0.23437205 0.86628455
cares 0.70761925 0.48976266 0.16089143 0.23287168 0.99225193 0.6918741 0.57150906 0.96080923 0.22940199 0.58296645 0.13837793 0.21420024 0.83874923 0.66854995 0.011381071 0.37863943 0.07865286 0.2688991 0.87748903 0.06252815 0.6336224 0.08976504 0.5973605 0.6536857 0.6890222
who'll 0.23392302 0.06329973 0.8212204 0.9539538 0.18452945 0.47850624 0.09205713 0.026291102 0.6033109 0.1355593 0.98434573 0.021222524 0.24947974 0.6290429 0.096175075 0.76457727 0.9685319 0.41590804 0.25673655 0.32646146 0.6792552 0.6186728 0.23654185 0.43155345 0.7886409
wonderful 0.75332063 0.92419595 0.44955924 0.46877232 0.51872855 0.3336494 0.12826206 0.024303827 0.34190017 0.8355593 0.29346943 0.73068833 0.36342025 0.9208334 0.12592351 0.6217957 0.14196217 0.11297016 0.9023634 0.82970977 0.058531445 0.405308 0.79543036 0.38769183 0.659625
idiot 0.16330369 0.8604732 0.4788591 0.26167032 0.61501706 0.25830227 0.20258987 0.55051666 0.31624982 0.14019914 0.6027687 0.57757926 0.10269088 0.18542628 0.064182065 0.32478958 0.79267365 0.004032118 0.94038606 0.7383031 0.7679577 0.46361828 0.7601014 0.9099325 0.46987417
start 0.49551997 0.6396361 0.2516075 0.9900765 0.84977186 0.45481372 0.74292296 0.9015758 0.54500544 0.42410064 0.06274671 0.7068502 0.33334723 0.8604796 0.6103709 0.061774813 0.08944145 0.8372323 0.42420372 0.24088284 0.6934699 0.64245707 0.136467 0.7178348 0.93261516
all 0.16124707 0.4527133 0.6241296 0.7080969 0.18883952 0.67399424 0.2507551 0.78796035 0.12057405 0.6151682 0.12063797 0.96464366 0.116660655 0.33745196 0.8029929 0.8956558 0.103029825 0.9788027 0.70867354 0.41313955 0.18184824 0.15235221 0.14960502 0.5802588 0.8038444
aboard 0.5870854 0.86259764 0.21911258 0.057539653 0.11809018 0.8961697 0.0076622674 0.16533932 0.15880357 0.976087 0.90069264 0.5173429 0.74602276 0.48295492 0.44617984 0.15047897 0.35860762 0.7677343 0.17955476 0.9972969 0.14948702 0.7925946 0.33999056 0.3231675 0.6647152
clear 0.29040962 0.28409094 0.38444138 0.6149941 0.95690167 0.59848803 0.78158396 0.6628827 0.15509148 0.8148226 0.92572063 0.9101718 0.6908444 0.59958863 0.24790853 0.1790839 0.17578779 0.87708366 0.6035906 0.8375507 0.98491466 0.37346864 0.72072464 0.20073466 0.3128949
fired 0.68298894 0.37528148 0.87964106 0.32378164 0.45147124 0.89740276 0.48780242 0.025483856 0.48639673 0.87096095 0.79562366 0.21562205 0.57906455 0.056214377 0.4062673 0.88980496 0.37309465 0.40046737 0.8976171 0.73460543 0.50815713 0.28605813 0.9739363 0.44326776 0.07913139
hired 0.55951136 0.42355916 0.45042792 0.7247893 0.94997805 0.07950085 0.93942493 0.11124652 0.94478387 0.48556188 0.45056415 0.34861165 0.9668281 0.65883124 0.27593648 0.13996704 0.95602894 0.263659 0.8018643 0.80894023 0.49588618 0.24671455 0.026223078 0.61968523 0.093413934
wrong 0.63695824 0.4816701 0.31939372 0.53253394 0.57748646 0.4458674 0.74530524 0.5410346 0.12349895 0.68981445 0.49643317 0.46851936 0.19313143 0.76538634 0.030748576 0.6820217 0.62877625 0.069549255 0.60687315 0.93433636 0.6217475 0.4033903 0.7772768 0.06256008 0.38324675
are 0.64591634 0.37561414 0.20519136 0.3082064 0.6449311 0.81974864 0.07431441 0.02481824 0.5312431 0.74617565 0.7971832 0.7435134 0.8197784 0.58168805 0.3151988 0.5896957 0.60965365 0.18943775 0.34993047 0.44321674 0.082183994 0.34067714 0.7124358 0.37041977 0.4540009
anyone 0.9486052 0.97576135 0.7725939 0.22724968 0.39626628 0.8945645 0.93118936 0.4961591 0.0018065465 0.07929287 0.6178805 0.56107444 0.48390087 0.58747584 0.5415263 0.46704775 0.15160903 0.06964094 0.9776007 0.88947344 0.2274094 0.20182253 0.11116345 0.7940737 0.3617221
around 0.8001961 0.53918135 0.3923321 0.13966253 0.1279225 0.24370767 0.9765935 0.92385805 0.44877174 0.7082346 0.85329854 0.28557187 0.31743553 0.9878292 0.22175618 0.13561186 0.39740402 0.69686913 0.15644896 0.20659797 0.30934963 0.8614026 0.6394121 0.9686351 0.018816447
careful 0.55126256 0.39298406 0.9810803 0.6978166 0.3990646 0.7598696 0.40930364 0.11034131 0.18598892 0.23481855 0.85367674 0.062170755 0.7640338 0.1943632 0.87923545 0.7657269 0.56192815 0.6930673 0.16956602 0.017138656 0.92214155 0.7390074 0.61583954 0.07818041 0.52175677
content 0.440167 0.8472321 0.945053 0.2806195 0.37805933 0.48604333 0.7565441 0.15369564 0.49232328 0.60960054 0.5103275 0.72648543 0.38978472 0.16192067 0.9062045 0.35955745 0.68029416 0.7709586 0.48139554 0.9969145 0.7724887 0.35976127 0.025555601 0.45236742 0.44591436
serious 0.7301735 0.0060864864 0.02620335 0.56693846 0.81513554 0.9019949 0.77961683 0.039355684 0.5978667 0.45402795 0.23720877 0.72766185 0.9061206 0.73226476 0.022157243 0.30300164 0.6931954 0.99628687 0.6961521 0.69762 0.41074017 0.56372666 0.07560244 0.8145856 0.13213335
bottoms 0.44802588 0.33509395 0.71517175 0.24598686 0.5485481 0.8428787 0.24002102 0.96560824 0.950524 0.4797625 0.96592116 0.8405463 0.22787456 0.050950956 0.55755293 0.6813874 0.47478548 0.0437636 0.030502215 0.67466515 0.92540663 0.78573364 0.4218825 0.7913943 0.65567124
check 0.62573594 0.84636575 0.46251217 0.49291837 0.25037777 0.753231 0.34318194 0.8413341 0.48739165 0.13090533 0.44084933 0.06982285 0.9105262 0.12799865 0.39522567 0.6184818 0.76504076 0.4660042 0.34114844 0.45698684 0.27708688 0.06467275 0.75241154 0.49896353 0.35646603
choose 0.82952684 0.23614068 0.3553066 0.105982594 0.029861761 0.16746624 0.68004954 0.11284066 0.6915651 0.21598148 0.4309574 0.17082931 0.12725645 0.6511787 0.7137298 0.21235928 0.27309448 0.4270191 0.32102108 0.31174827 0.6610602 0.06492517 0.01153541 0.107076265 0.51869166
along 0.94613343 0.5556334 0.2944904 0.28755492 0.9256338 0.9353959 0.87721264 0.56460696 0.33915615 0.29005805 0.02387535 0.5696384 0.9775605 0.47470197 0.13641234 0.8875588 0.22570483 0.8670574 0.8262097 0.59246796 0.8703782 0.5958478 0.54183584 0.8958328 0.3072187
quick 0.7006251 0.8551848 0.015444087 0.81768095 0.6273712 0.5986378 0.11344546 0.18528211 0.78811276 0.400904 0.79821813 0.54631996 0.37871316 0.46401504 0.33943978 0.35671777 0.39145085 0.17695376 0.528547 0.9586528 0.056930717 0.46277863 0.4417525 0.016440395 0.70719993
cut 0.21837373 0.02381467 0.16860554 0.37912464 0.3941479 0.4901617 0.23304112 0.17596656 0.7253838 0.3438832 0.719916 0.7290661 0.4527432 0.07151653 0.123320214 0.29599234 0.51879054 0.18954422 0.947697 0.09541941 0.32644704 0.40204847 0.29938474 0.17361943 0.5810828
do 0.8301604 0.9385737 0.35991633 0.49504867 0.4711165 0.051120337 0.5844091 0.3012529 0.7331081 0.6876643 0.8822257 0.43212387 0.9238357 0.77187127 0.44596836 0.41641513 0.8425838 0.16250904 0.9776589 0.21982682 0.87049943 0.630493 0.13939889 0.77842957 0.08185846
stink 0.71032685 0.67762524 0.76992065 0.38711396 0.037460387 0.9652795 0.09342039 0.9282004 0.9565006 0.9942828 0.43030584 0.412119 0.58105975 0.72522503 0.31532592 0.95446247 0.38039267 0.7142279 0.8077393 0.45342728 0.14924507 0.82810897 0.12242552 0.6113827 0.27663153
men 0.25375465 0.8865056 0.18286256 0.43036437 0.43422368 0.8024798 0.28676242 0.05406972 0.15652424 0.34315506 0.93430424 0.009853358 0.5571156 0.2021644 0.22923799 0.33514324 0.876342 0.26437598 0.95219606 0.5466094 0.97239125 0.10342332 0.77658105 0.8898311 0.64154595
fret 0.7138999 0.98572713 0.89900804 0.82505214 0.9860449 0.2661802 0.07653385 0.9712709 0.48264423 0.92336506 0.10484376 0.70390695 0.057480197 0.10782175 0.63208723 0.6703873 0.8393603 0.578573 0.3785878 0.5375124 0.66899633 0.00968852 0.34359008 0.38019723 0.023969688
move 0.14012806 0.030394426 0.9986525 0.34315136 0.056839988 0.5248527 0.64917904 0.16620323 0.11235648 0.16568892 0.60948604 0.37079874 0.67900246 0.10029921 0.92434317 0.9521722 0.25577667 0.87401533 0.2562238 0.04155141 0.9273104 0.48722786 0.88357323 0.15780579 0.70491713
rush 0.91857964 0.8107011 0.76783323 0.19555628 0.5402531 0.5857882 0.82047737 0.77976125 0.6015534 0.79887193 0.0869445 0.84577006 0.23909265 0.3486204 0.97172004 0.01834961 0.3825125 0.72106963 0.5063554 0.9641361 0.16644153 0.5375955 0.55820477 0.3475361 0.6185575
talk 0.49332103 0.496696 0.34589162 0.7365619 0.5781825 0.25858456 0.42618823 0.39197946 0.79786766 0.6764501 0.65567905 0.3502917 0.5051928 0.22955196 0.31374964 0.2644562 0.5529435 0.93065053 0.7225979 0.100128755 0.47869015 0.45581847 0.63322055 0.6706649 0.6646623
duty 0.15128039 0.15244092 0.31992304 0.5486302 0.26562324 0.44072375 0.5253644 0.6951127 0.8062324 0.7934072 0.30764627 0.5594108 0.90435714 0.45593888 0.89489967 0.97710365 0.35807267 0.45838064 0.5104866 0.29878896 0.593151 0.931441 0.9487696 0.92646056 0.22137423
calls 0.21826701 0.721011 0.058518644 0.1829019 0.44662735 0.17309438 0.3831551 0.28819323 0.92721987 0.47806585 0.73053086 0.2681053 0.8179754 0.91725093 0.36322424 0.8671582 0.037791003 0.9188481 0.4302589 0.11474126 0.4017373 0.99805486 0.016748711 0.7404911 0.2748487
fill 0.88755834 0.86462957 0.8053599 0.0675902 0.45736727 0.964685 0.18086432 0.5246392 0.9138392 0.9903697 0.5463086 0.9177914 0.76239717 0.25133425 0.5815844 0.13385393 0.6373512 0.81746185 0.3966353 0.9039707 0.29812473 0.8608268 0.7815965 0.63900316 0.1347299
find 0.02861076 0.43526018 0.7628064 0.28767708 0.47549468 0.83193594 0.37316984 0.98457897 0.70313257 0.71899134 0.38711035 0.7271244 0.5365167 0.09569885 0.4775158 0.6702245 0.9050189 0.293825 0.35395542 0.8352503 0.9208296 0.22453949 0.08439735 0.47664648 0.4471512
forgive 0.11902139 0.030966617 0.67182255 0.31812236 0.32651156 0.2965337 0.8445267 0.22942506 0.06599945 0.4885696 0.2522805 0.4354378 0.03100992 0.735438 0.93721294 0.744979 0.7833841 0.024910608 0.873515 0.0819564 0.53406876 0.23733242 0.4205654 0.45308003 0.63765943
life 0.34711736 0.029646192 0.30171356 0.7109011 0.7649442 0.21321751 0.58960074 0.080362 0.9679195 0.23284732 0.7686577 0.84157085 0.3040403 0.8242931 0.42893288 0.8961749 0.9756735 0.66380996 0.8699032 0.29296538 0.69890195 0.39023554 0.3966051 0.7744746 0.5359912
warm 0.31601858 0.9058642 0.60376847 0.44735962 0.0068328367 0.21235742 0.09532525 0.8243444 0.71714425 0.08449764 0.56296885 0.44430518 0.93366164 0.9938673 0.44826707 0.94455713 0.72511345 0.9854489 0.7393861 0.3617345 0.045827907 0.27662253 0.5681134 0.3947923 0.67607516
gave 0.95062155 0.12339185 0.30657384 0.22014894 0.39456663 0.69022065 0.7886975 0.5057231 0.37618166 0.31624603 0.13178834 0.62576264 0.4410049 0.9910619 0.8502219 0.735733 0.35332882 0.03449184 0.7243096 0.8891329 0.303005 0.14430462 0.28407758 0.701252 0.46616036
hung 0.9234495 0.25375104 0.6615642 0.81405586 0.5443211 0.41490254 0.6991684 0.96159434 0.9502217 0.76391846 0.5648552 0.116152674 0.5219745 0.40994138 0.2929337 0.31446406 0.47597077 0.7288702 0.55425364 0.36069533 0.06773589 0.6077686 0.09355446 0.029074118 0.14409098
poor 0.9878682 0.86802715 0.8204375 0.27009463 0.2635116 0.8605974 0.30305597 0.5408122 0.5911352 0.57549185 0.33632934 0.39830324 0.07825979 0.73670083 0.94637483 0.84609985 0.40494812 0.45397663 0.28741822 0.05646695 0.90299165 0.3312723 0.7518971 0.23258078 0.75440025
made 0.89519066 0.6021613 0.62840194 0.2811699 0.5221335 0.41655082 0.37382567 0.91329134 0.15624784 0.9818278 0.38704807 0.43398526 0.46732286 0.14943214 0.92338884 0.3620709 0.30686402 0.91751724 0.37870505 0.08155226 0.44273874 0.5692537 0.24062128 0.85826313 0.6185755
swiss 0.75987035 0.015470086 0.37645078 0.92285246 0.0017558561 0.67086226 0.69720584 0.1580349 0.8674749 0.32167682 0.93031555 0.49071264 0.24152932 0.707085 0.7906949 0.70474464 0.19564949 0.35851792 0.2079697 0.47701782 0.16208363 0.4023666 0.4023161 0.024828024 0.19386502
smart 0.6519956 0.6601162 0.30863124 0.7851828 0.427763 0.19746372 0.16069704 0.4033557 0.24842814 0.23835713 0.2567671 0.49905008 0.76314116 0.9841846 0.53236544 0.13139205 0.81457734 0.524378 0.40081337 0.8810815 0.8217734 0.5195251 0.10709525 0.7767346 0.51010466
lovely 0.7982321 0.1480815 0.47252294 0.706667 0.18896896 0.26799473 0.3459846 0.862775 0.36009532 0.6239588 0.8600501 0.31587744 0.13672446 0.38527668 0.042101406 0.51877415 0.2890767 0.87639093 0.2413054 0.871447 0.45117757 0.46689695 0.43064985 0.3405981 0.50362337
